784,8
-0.03621248,-0.051080227,0.006160736,0.0106635615,-0.014505111,0.053585976,-0.0011793599,0.08671318
0.03424719,-0.06521408,0.0365244,0.028272934,0.012578256,-0.023543395,-0.013835989,0.022640012
0.072035596,0.028139167,0.058050305,-0.072423615,-0.038338967,-0.08433659,0.039406583,0.046224356
0.031310767,0.0056972057,0.04465337,-0.07878373,-0.078270294,0.043822914,-0.05697339,-0.03273788
-0.03631715,-0.06954187,-0.058199253,0.046942666,0.014914937,0.08390711,0.07221311,-0.06237806
-0.07005485,0.0185007,-0.056066625,0.0031424463,0.083926514,-0.056439552,-0.07909538,0.016979791
0.01095894,0.05310662,0.014609762,-0.069086805,0.07744792,-0.037844807,0.009200253,-0.038385037
-0.07319881,-0.019236617,-0.07488617,-0.07973899,0.073791265,0.06531629,-0.0055773854,-0.005236849
0.022238113,0.04007712,0.07573402,-0.024754733,-0.05110712,0.017966755,-0.01710131,0.015344761
0.064282045,0.05542393,-0.085766606,-0.045085877,-0.052058917,-0.07996674,0.08321045,-0.05741314
0.03441742,0.041209072,0.059741125,0.04106182,0.040234238,-0.054367207,0.041000575,-0.054221034
0.014428601,-0.08030774,0.029872924,0.015070282,-0.08688367,-0.0045208335,0.07890664,0.04059641
0.01595129,-0.027630977,0.031056177,-0.07671363,0.028957486,0.012320895,-0.0752877,0.081975445
-0.0065848827,0.00012307614,-0.083382115,0.040053308,0.044585496,0.42430282,-0.078806244,0.006537251
-0.058774095,-0.018077485,0.010998428,-0.06909824,0.07790789,0.49786288,-0.005797647,0.015434891
-0.06999853,-0.035289925,-0.048188604,0.029260442,-0.039607186,0.13811342,0.044900507,0.023932181
0.042179957,0.035370298,-0.018379532,0.08676478,0.021536417,-0.017659798,0.037540607,-0.06985877
-0.023545101,-0.030102503,-0.014194474,0.017786056,0.03188692,0.024984933,0.070405096,-0.0790738
-0.0065543354,-0.0059656054,-0.028053962,-0.06535713,-0.04097028,-0.00047256052,-0.07708359,-0.014617436
-0.049241025,-0.041636553,-0.0049218014,0.07331103,-0.08407006,-0.050078854,0.032729894,0.037479393
-0.058496356,-0.0684594,-0.07873908,0.0146770775,0.020179532,0.07424733,0.034734964,-0.04642411
0.05150585,0.051170886,0.013865083,0.017120503,-0.04744777,-0.049747676,-0.05722762,0.07931918
0.022562154,0.06605896,0.024308324,0.051099256,-0.036946986,0.04192415,-0.07340789,0.0063379332
-0.011867009,0.013891958,0.055523723,0.046134755,-0.010956779,-0.08179905,0.07201591,0.019082427
-0.015504174,0.053759262,0.04428281,-0.03241582,0.0830358,0.03254296,-0.07508414,-0.05457852
0.016421795,-0.007009499,0.011408381,-0.06514239,-0.060376912,0.04736422,-0.07811572,0.020896815
0.02941724,-0.08138767,-0.06391132,-0.025553487,-0.06969429,-0.045878902,-0.018075831,-0.06276655
0.073199704,0.026526801,0.03597697,0.07183848,0.0138577,0.07082264,-0.040035687,-0.010414496
0.080846265,-0.058350407,0.08308649,-0.059298366,0.03544423,0.038801357,0.054774225,-0.04857747
0.018867299,0.049443126,-0.018331073,0.020946011,-0.06913059,0.05280745,-0.04314244,0.05783327
0.025593951,0.06389049,0.08135913,-0.06545308,-0.0009562969,-0.05383115,0.03599131,0.03937383
-0.03202581,0.07945493,-0.045044478,0.08610891,0.05172324,0.055446833,0.021918334,-0.0093235
0.06833811,0.06767881,0.083743334,0.083761126,0.058018893,-0.02966126,-0.07475197,-0.010252714
-0.08301729,0.06347394,-0.040799305,0.051982656,-0.033872105,-0.0083840005,0.038742214,-0.027583912
-0.5114154,-0.04303371,-0.18363807,0.037124537,0.00841024,-0.0341181,-0.005368985,0.084788516
-0.58439046,-0.02699317,-0.2360478,-0.061550297,-0.0630769,-0.16677186,-0.09548054,-0.10109696
-0.23985143,-0.09876528,-0.14914039,-0.03829479,-0.06908183,-0.2740024,-0.02378515,-0.026396703
-0.3087278,-0.05167014,0.020810904,0.03912811,-0.08132619,-0.21216194,-0.21755904,-0.13667004
-0.28019288,-0.07629886,0.03790867,0.0025895834,-0.025966397,-0.26663303,-0.20921597,0.011403025
-0.33223608,0.66413325,-0.02795709,-0.092639916,0.05740505,0.11049218,-0.09348593,0.058910552
-0.3231062,0.6718808,0.041450083,-0.054651693,-0.044156935,-0.60130507,-0.13409567,-0.0060312813
-0.3301855,0.7171793,-0.06840399,-0.18707727,-0.13713595,-0.37813196,-0.040435404,0.042190243
-0.0610539,-0.005112553,0.017326966,-0.78551805,-0.06826977,-0.4344172,0.013393319,1.2234529
-0.45625448,-0.09435823,-0.655817,-0.78893054,0.0046641068,-0.3727043,0.08339733,1.1369298
-0.50135815,-0.065910116,-0.67957103,-0.7237303,-0.0148947025,0.42211923,0.0068455045,0.32091966
-0.46387133,-0.043669395,-0.5650306,-0.0052413703,-0.030631587,-0.13078848,-0.038465068,-0.3936814
-0.09827451,0.029892733,0.052509293,-0.06894077,0.010392167,-0.25377515,-0.25517645,-0.15803388
-0.7720634,-0.06776727,-0.086450934,-0.104970746,0.052005798,-0.20127872,-0.9317943,-0.079271056
-0.78963625,-0.014830805,-0.07217227,-0.18941809,0.08055495,-0.06645565,-1.2017921,0.021501793
-0.5894397,-0.0669184,-0.007829875,-0.106378414,-0.018830173,-0.09293242,-0.896875,-0.042829674
-0.7414084,-0.013244673,-0.047920633,0.07865463,-0.03472938,-0.08473254,-0.34643808,0.05053305
-0.5714013,0.062493853,-0.19686952,-0.07662101,-0.061876073,-0.013530925,-0.14956138,0.08107079
-0.017803751,-0.06886445,0.022630304,-0.02981086,0.05240713,0.058906227,-0.03609175,-0.0027434975
-0.024254866,0.0012102574,-0.065751515,-0.031815033,-0.031410564,-0.045582753,0.053434163,0.046039745
-0.03562307,0.003255792,0.032256007,-0.055915926,-0.065034375,0.0381698,0.0015561655,-0.076297015
-0.028277643,-0.032701485,0.010424025,0.08271682,0.008177407,0.040617213,-0.04875938,0.052472413
-0.060892675,0.081762284,0.03346224,0.010568872,-0.005305931,-0.08602538,0.086640134,0.049824163
-0.012356587,-0.04099871,0.0012303889,-0.034530226,-0.05186736,0.06174849,-0.048385162,0.08031319
-0.02818621,0.0023182705,-0.061555423,0.058698058,0.0044705346,-0.070232004,0.07431662,-0.042363234
-0.81411976,0.7531065,-0.4263614,0.11844629,0.024431981,0.031516276,-0.050980445,0.008669265
-0.807072,0.7424288,-0.3220802,0.1169261,0.002267912,-0.028593944,-0.089751996,-0.007219836
-0.0034327423,-0.11033091,0.038712062,-0.07426294,-0.075717255,0.0047693285,0.04249391,0.0133297965
-0.56750757,-0.2347361,-0.09452284,-0.13295263,-0.050878666,0.38958177,-0.3162747,0.083952785
-0.51292133,-0.17706002,-0.2538029,-0.12106996,-0.109742984,-0.7327339,-0.29499832,-0.14661849
-0.6206887,-0.39227128,-0.3161014,-0.29445854,-0.11766287,-0.3230474,-0.20616516,0.04687218
-0.9369736,-0.39962617,-0.7655694,-0.2799144,-0.5205127,-0.024995506,-0.9029082,0.033868283
-0.87906224,-0.6253683,-0.97719085,-1.0382805,-0.19416612,-0.40638345,-1.1272357,-0.22536056
-0.86993927,-1.0698315,-0.6178517,-0.44503433,-0.30829948,-0.23857795,-1.1024511,-0.32499585
-0.8474485,-0.79393667,-0.5000875,0.29569462,-0.71806496,0.02983477,-0.86791605,-1.0473424
-0.94305795,-0.69234127,-0.5658557,-0.42061275,-1.1730498,-0.29410252,-0.6624571,-1.0441924
-0.62206596,-0.6851463,-0.45780817,-0.78698397,-0.9321423,0.14036033,-1.1763331,-0.5955318
-0.82230306,-0.6880395,-0.5583709,0.26055852,-0.75538844,-0.030143004,-0.7145319,-0.38174912
-0.6970174,-0.2073014,-0.8644685,-0.2719511,-0.11942532,0.08578953,-0.6895105,-0.3039739
-0.15819901,-1.1371057,-0.57239014,-0.26835194,0.15580814,-0.23704061,-0.9487341,-0.756623
-0.27210742,-1.0960617,-0.06876138,-0.020531813,0.109990984,-0.4006635,-0.582317,-0.26068172
-0.9972161,-0.16824605,-0.071249284,-0.6210358,0.26649204,-0.91069335,-0.49244517,-0.4648054
-0.641377,-0.45187068,-0.048618563,-0.30057937,0.4220927,-0.4326329,-1.0689219,-0.33681896
0.031931173,-0.16409007,0.01545006,0.17460687,-0.106073186,-0.68973845,-1.1954554,-0.30464652
-0.59459966,-0.09135404,-0.09736107,0.18411215,-0.19719075,-0.5729004,-0.46859178,-0.29542163
-0.9748625,0.07906415,-0.18569936,0.05714717,-0.16692041,0.6914925,-0.46330586,-0.35507983
-0.46573654,-0.056420878,0.074478775,-0.44764373,-0.11841172,0.71544576,-0.19941682,-0.42182496
-0.04057714,-0.014830969,0.059953243,-0.06455161,0.084695876,-0.06533855,-0.2531477,-0.41426918
0.0088524595,0.020908266,0.026104525,0.028520666,0.080168486,-0.074084595,-0.07918922,0.07165769
-0.017633528,-0.005712457,-0.051855177,-0.070552245,-0.064172,0.058943138,-0.07258543,-0.0225259
0.045780957,-0.015813857,0.053548798,-0.033322,0.011443801,-0.07235403,0.08314653,0.002847895
-0.054747567,-0.072195694,0.0058247223,-0.07271725,-0.07107774,0.013756514,-0.060656145,0.020909905
0.028025612,-0.058256984,0.05455853,0.010559842,0.04667324,0.017301839,0.040450357,0.015417457
-0.97769946,0.8643087,-0.42161092,0.14414732,-0.08229562,0.029846534,-0.5988297,0.06365864
-0.94845253,0.9045116,0.6865188,0.35260662,0.4047014,-0.34461358,-0.1563473,-0.04765292
-0.07180234,0.27615547,0.7062486,-0.24883297,-0.374664,-0.30099872,-0.38846254,-0.028089467
-0.70486045,-0.028386451,-0.6045,-0.26185414,-0.07966052,-0.22676818,-0.6999729,-0.053923737
-1.1395726,-0.3594398,-1.2579448,-0.68036246,-0.5272836,0.07884958,-0.8252227,-0.68990684
-1.2121083,-0.02506968,-0.96783954,0.16915299,-0.646614,-0.1584225,-1.0834028,-0.9354487
-1.0384287,-0.39056647,-0.9798901,0.051300984,-0.37004682,-0.11689075,-1.0922564,-0.7918342
-0.83851767,-0.5248933,-0.544056,-0.08235515,0.1680221,0.03165148,-0.826832,-0.22066051
-0.8611513,-0.14230749,-0.52732915,-0.2922446,-0.47651082,-0.07283767,-0.83794403,-0.6606254
-0.2670235,-0.4651238,-0.68074876,-0.1494778,0.19290495,0.017031007,-1.6261098,-0.41709927
-0.95083,0.031222027,-0.7055685,-0.03115643,-0.08208659,0.07130698,-1.444818,-0.29186618
-0.9804888,-0.45497742,-0.5561413,0.19687916,-0.30371654,-0.05752629,-1.5303468,-0.7305257
-0.7811289,-0.36615866,-0.9752262,0.014872632,-0.24950147,-0.09664591,-0.67933273,0.18102072
-0.5116072,-0.12976445,-0.64673555,-0.23047994,0.08522037,0.3158487,-0.74487865,-0.27722928
-0.35423315,-0.3008071,-0.06768094,-0.21546267,0.0900926,-0.36961594,-0.5142667,-0.1168126
-0.38366213,-0.55623573,0.31075308,0.026409974,-0.12452948,-0.026056984,-0.34969252,-0.35892802
0.06456912,-0.32862696,-0.49985445,-0.19186474,-0.028964343,-0.21436352,-0.71319175,-0.53501016
-0.2619696,-0.067426585,-0.5274287,-0.0065699834,0.13182828,-0.2781319,-0.6794754,-0.15235846
0.06195771,-1.1758016,0.12089779,-0.22602859,-0.08838371,-0.069154635,-0.19892554,-0.5586199
0.1641383,-0.9726046,-0.10526212,-0.21839951,-0.3037035,-0.17870218,-0.3214749,0.018003095
-0.2403177,0.24380064,-0.19424488,-0.28956464,-0.6723905,-0.61188877,0.110965714,-0.014431909
-0.99697894,0.15560633,0.004686989,-0.049719114,-0.55438316,-1.0866451,-0.85507286,-0.63190997
0.023432428,0.24412632,-0.06369523,0.05679215,-0.5042181,-0.26558262,-0.23848729,-0.7501589
0.040894717,0.2580531,-0.017844282,0.19453047,0.20125325,-0.11559801,-0.053764652,-0.7035353
-0.07530249,0.074324876,0.059696987,0.08183123,-0.030953094,0.006874077,0.0034389645,0.04367651
-0.014608242,0.06444055,0.036320657,-0.055528514,-0.051233914,-0.027724799,-0.073942885,-0.035094485
-0.08611135,-0.021211572,0.22981618,0.76847214,0.35352695,0.23080413,0.48682517,-0.016854241
0.07130715,0.050360084,0.07212554,0.53460574,-0.3206181,0.08185714,0.72662616,0.027168714
0.050799336,0.006393858,0.03419212,-0.20496732,-0.6026,0.3513463,-0.15240979,-0.23019354
-0.7251667,-0.2967764,0.52346843,0.063617826,0.57330644,0.6336373,0.85198313,0.5149974
-0.2294148,0.07794714,0.33575913,0.48815536,0.46427664,-0.1049683,0.23785016,0.104563616
-0.32310516,-0.33309528,0.15853137,-0.34287122,0.03576976,-0.3062067,-0.56467503,0.017120184
0.24101572,-0.65837884,-0.2566075,0.39523432,-0.15012725,0.09079728,-0.3592585,0.362458
0.121026024,-0.23432316,0.3193834,0.31261015,-0.11934596,0.4442643,0.06364661,0.70772934
-0.13271774,0.046253446,-0.10606422,0.19116093,0.06277904,0.2699542,-0.35017586,0.44467682
-0.65231985,0.08893568,0.026938051,-0.11583884,-0.0281336,0.2643925,0.19597165,0.2804359
-0.14452277,0.04268801,0.25987437,-0.056657325,0.13620068,0.23707588,-0.13463993,-0.26265976
-0.18763018,-0.2786129,-0.23408793,-0.0014990744,0.034225415,0.29619175,0.22898176,-0.02748671
0.07346574,0.20618246,0.1272423,0.08451151,-0.04620975,0.24481028,-0.19980974,-0.08610588
-0.1571594,-0.12985756,-0.18852499,0.022876117,0.019360572,0.076636955,0.10485617,0.0310632
0.042429134,0.32968488,-0.05120623,-0.1190765,0.15221368,0.23965546,0.14414585,-0.13447924
0.25337666,-0.12055483,-0.32323846,-0.10033182,0.04016474,-0.049291596,-0.0750368,-0.10005255
-0.37185764,0.054925293,-0.5683108,-0.16560632,-0.20468529,-0.03203654,-0.15927824,-0.11229668
-0.3089076,0.023096943,0.02829453,0.21579538,0.10390623,0.13451777,-0.07803105,-0.11284637
0.16071407,-0.019974083,-0.41191685,-0.06370591,-0.4556217,-0.22319447,0.034095604,-0.19656338
0.1761602,0.18536013,-0.4892668,-0.10651995,-0.30812046,0.07563759,-0.236568,0.0538178
0.29028448,-0.3067607,-0.6736311,0.24296916,0.1178887,-0.24104834,-0.18023862,-0.09157112
0.052024838,-0.25756577,-0.66411734,0.012683091,-0.21338794,-0.49865884,-0.30473757,-0.25859764
0.15885374,-0.11268491,-0.6642473,-0.07335308,-0.19882187,-0.8089488,-0.791078,0.053104516
0.65981793,-0.3661406,0.0023508032,0.76681036,0.16419724,-0.9849354,0.4520438,-0.57840544
-0.7446304,-0.22105572,0.029640872,-0.12022111,0.7492005,-0.08833647,-0.17372963,-1.1889337
-0.5615843,0.28775272,-0.0017289548,-0.38948697,0.62706035,0.16525397,-0.4303213,-0.52037156
-0.042268783,-0.061188012,-0.07355651,0.10693844,0.10850973,-0.06324124,-0.16188943,-0.2580931
-0.017677374,-0.023243412,-0.067681044,0.018869229,0.073067605,-0.04060781,0.02395901,0.06601708
0.017934926,0.04086341,-0.07154499,-0.07941554,0.07855028,0.04465893,0.046472043,-0.08236682
-0.5381821,-0.003534302,0.002391557,-0.54425794,-0.1814742,1.0089015,-0.12098475,0.026402928
0.10147431,0.04939815,-0.3646065,-0.0641709,-1.2731524,0.23753472,-0.13844576,0.39978182
0.34144086,-0.4447201,-0.3717812,0.17288074,-0.24358387,0.90045214,0.0006663865,-0.16827445
0.68580246,0.1064126,0.4877043,-0.28869572,0.06486008,0.58655274,-0.38840696,0.5236926
0.18740058,-0.06615859,0.3007645,-0.09522984,0.1664639,0.17501482,0.119139574,-0.19408616
-0.11901789,-0.24596086,0.30754703,0.11103205,0.13180728,0.08988562,0.11610404,-0.1810819
0.08448905,-0.13084425,-0.029655714,-0.051866155,0.10785803,-0.022990232,-0.25154847,-0.5407591
-0.05584023,-0.28896406,0.18747032,-0.10284469,-0.090159975,0.09714323,0.14123458,-0.06579138
-0.018356461,0.16419837,-0.04875864,-0.082140766,-0.009791093,0.16965403,-0.23348863,-0.23601614
-0.21254067,0.04146612,-0.042013492,0.06738062,0.04438259,0.042222697,0.089655824,-0.44141227
-0.049755994,0.03260203,0.09555013,-0.037624273,0.03078562,0.07237324,0.2483902,-0.092705876
-0.268158,0.0025288737,0.12800899,0.0904064,0.058802128,0.15926914,-0.017043507,-0.039441347
-0.009387909,-0.04220332,-0.14722241,-0.008686046,-0.04209591,0.15954389,0.1262651,-0.17744774
-0.12576023,-0.045603253,0.09771966,-0.025418833,-0.037899386,0.18724042,-0.091735095,0.0128412945
0.054472566,0.124219544,-0.06401439,0.10773482,0.068344034,0.08834947,0.00300381,-0.090623416
0.19870271,-0.08183434,-0.11038556,-0.09336141,0.038692225,-0.041576907,0.06540154,-0.42537248
-0.03671697,0.04980091,0.022917693,0.15918887,0.15038733,0.1524029,-0.04793976,0.13837121
-0.06530226,-0.19733368,-0.059031002,0.10991982,-0.018156035,-0.015042399,-0.047744848,-0.17682675
0.022838114,0.08379108,0.13937916,-0.0715693,0.28780338,-0.019604474,0.012113999,-0.21051843
-0.08235819,-0.036957696,-0.29262093,-0.11350379,0.1289909,0.013175762,0.18469018,0.009413168
-0.14400437,-0.1781851,-0.083839774,-0.011128882,0.1735306,-0.022070443,0.07840368,0.119647644
0.042748418,0.12393134,-0.65992063,-0.2872163,-0.067283444,-0.19999899,-0.29212746,0.08164098
0.94615406,-0.29720908,-0.8531265,-0.0008030801,0.08001675,-0.13869469,-0.3486557,0.30918983
0.46267083,-0.2251958,-0.1791528,-0.020052698,0.7775922,0.08337771,0.3709385,-0.6406699
0.013423762,-0.44849804,-0.27465233,0.19667847,-0.35621724,0.40914127,-0.017969836,-0.41425526
-0.338006,-0.25739715,-0.07115903,0.10844362,-0.3184769,0.0054994863,-0.34744036,-0.24262235
-0.0404303,0.05159983,-0.0039906725,0.042808384,-0.03751079,-0.067608915,-0.03358422,-0.012676038
-0.05497527,-0.0020869523,0.29891554,0.0072144414,-0.15166841,0.23643453,-0.10039714,-0.06525455
0.111208156,0.31799695,0.16415034,-0.48421824,0.19002315,-0.31653625,0.047206543,0.1990879
-0.310666,-0.023967562,0.20489824,0.023183877,0.53712887,0.23027006,-0.03910416,0.1210423
-0.021731308,-0.63979757,-0.25124684,0.25340208,0.56684864,0.3706733,0.07480412,0.027088054
0.17535824,-0.0030382448,0.2824977,0.27851525,-0.010679709,0.09310217,0.0174185,-0.3230342
0.027598334,-0.19229221,0.2779372,0.13146257,-0.10352701,0.36167583,0.20398292,-0.19310749
0.039035667,-0.23844385,-0.04199499,-0.28389007,0.07304597,0.13102211,0.051047496,-0.66357136
0.32479182,-0.10683085,0.3233824,0.040480737,-0.05605698,0.19061384,0.17949612,-0.93182915
0.019841747,-0.22107431,0.2607453,0.1960396,0.022184232,0.059022818,0.051891692,-0.24944769
-0.07687916,0.054504782,-0.048000053,0.07513997,0.1936931,0.17440155,0.021900328,0.014215854
-0.12021926,-0.22432303,0.19586498,-0.03227738,0.06024827,0.15889676,0.06016533,-0.027527314
-0.20897333,0.1304121,-0.033376444,-0.11699366,0.094875425,0.19035435,0.020450087,-0.21168111
-0.18767667,0.115543984,0.1423254,-0.0050308644,0.029161466,0.093902506,0.116612546,-0.11515166
-0.22703141,0.07871719,0.02700409,0.028919196,0.024084825,-0.030428551,-0.08726528,-0.029222328
-0.21222594,0.07621482,0.08480013,0.021243773,-0.069930725,0.11794376,0.17626068,-0.33849123
-0.27797922,-0.12090157,0.14244722,0.05285046,0.011483556,0.21224716,0.03037732,-0.108171195
-0.10826536,0.1043596,-0.04722328,-0.06398561,0.07234581,-0.11104315,0.04819005,-0.11877958
-0.23986952,0.15775074,0.23424415,0.07735879,-0.07352573,0.015020767,-0.015297794,-0.16995844
-0.25457096,0.122861885,-0.16744626,0.007822764,0.075992964,-0.120963685,0.1277418,0.0065412447
-0.010122931,-0.011245683,-0.12357609,0.00092516997,0.09071611,-0.044278584,0.042158376,-0.06375042
0.07607707,0.24826966,0.31680194,-0.088291146,0.08533425,0.11012449,0.10651788,-0.10085717
0.050641805,-0.005051753,-0.058180552,-0.12214651,0.2874638,-0.31352228,0.09450531,-0.12540773
0.48436263,-0.06935755,-0.67693055,0.21688648,-0.07734179,-0.23819007,0.32431278,0.21806824
-0.022786168,-0.49122593,-0.46540758,0.05850206,0.30452254,-0.78625834,-0.014479645,-0.313699
-0.101397336,-1.085136,0.50478375,0.07157306,0.42937502,0.036965378,0.2508255,-1.5374082
0.1440499,-0.89581364,-0.5549896,0.5981652,0.33425936,0.08827388,0.27805114,-0.27655825
-0.6389388,-0.9319706,-0.33580452,-0.0022917995,0.8012605,0.0807964,1.0955943,-0.05354797
-0.059909645,0.068456054,-0.50833267,0.04606755,0.11385371,0.12464133,-0.039409555,-0.012662008
-0.9618206,-0.04691964,0.9500977,0.13260122,0.087423004,0.7239233,-0.97400385,0.8159631
0.15086149,-0.21526293,0.65694237,-0.14172705,0.13865499,-0.2009984,0.3384718,0.2216524
0.17759171,-0.46726164,0.35879645,0.11253805,-0.47864592,-0.03854499,-0.025552299,-0.29773256
0.10038238,-0.8518698,0.16380425,0.06154408,-0.49090356,0.64926684,0.07427833,0.022079702
0.44928393,-0.13223776,-0.2499586,0.29561165,0.20394441,0.3415092,-0.17697197,-0.03534877
0.105266504,0.1624699,0.08156725,0.0748565,-0.10296831,0.26418373,0.09122671,-0.43724057
0.109578215,-0.04052817,-0.049256846,-0.023489477,0.029137088,-0.15186553,-0.12570815,-0.023684535
-0.032237865,-0.22456019,-0.059264325,-0.040968787,0.16586952,0.15206642,0.14154725,-0.3830379
0.156145,-0.08305216,0.030212086,-0.05697956,-0.0756666,-0.022326408,-0.10386286,0.061308693
-0.14890072,-0.013226386,0.018477986,-0.09520433,0.007978044,-0.08357906,-0.019211246,-0.19064727
0.08684748,-0.14170727,0.009772599,-0.08143368,0.0062112943,0.0003657202,0.015051442,0.2530401
-0.22955552,0.096087456,0.09734072,-0.039016534,0.1310206,0.13515218,-0.011815559,-0.0068287156
-0.08465432,0.040685367,0.2872751,0.07460432,0.040707666,0.13548563,0.17340721,-0.2841218
-0.36039355,-0.013353367,0.09189704,0.091119274,0.17519544,0.12374955,-0.020951744,-0.10827008
-0.30615819,-0.025767753,-0.03622916,0.014083527,-0.01492842,-0.08103725,0.15190983,-0.33832675
-0.17618239,0.07406866,0.20212999,-0.17370635,0.16943182,0.1063144,0.12725157,-0.101966664
-0.082753494,0.28716353,0.10207384,0.217473,-0.014968218,0.014123807,0.086716756,-0.06178846
-0.020121407,0.16014385,0.022452245,-0.15067264,0.048303954,-0.023807146,0.072437674,-0.20628613
0.085837446,0.18580651,-0.010773198,-0.09563275,0.117621325,0.16302575,-0.034405146,0.14731953
0.052859403,0.121548094,0.2092312,-0.05061046,0.080368385,-0.028092964,0.08165672,-0.04122819
-0.3218167,0.20541269,-0.0663821,-0.029886387,0.13556525,-0.11698703,0.13195033,-0.030164465
0.083407454,-0.043274213,-0.014373334,0.20073347,-0.02446325,-0.06444946,-0.23398955,-0.00779863
0.24764058,0.014508299,-0.12151427,0.1488959,0.029842371,-0.14195271,0.12080979,-0.15630732
0.17059438,-0.2754471,-0.59893733,0.354756,0.47190568,-0.83106023,0.23264597,-0.732868
0.15798263,-0.5235409,-0.049937695,0.055900674,0.3827719,0.42322457,0.16747423,-1.2910514
0.07943315,-0.60535043,0.22337645,0.5017384,0.054232802,0.1683118,0.26833388,0.2593714
-0.9031474,0.54647774,-0.36417133,0.7260991,0.92548096,0.1319485,0.77410054,-0.13780929
-0.24268733,0.062069207,-0.59802824,-0.001087822,0.15542042,0.26575354,0.088410035,0.042213112
-0.67118746,-0.025261538,0.16734837,0.2910651,-0.16368029,0.57390124,-0.86770594,0.60308576
0.6756612,-0.4777501,-0.077670395,-0.19315495,0.23071077,-0.41629362,0.57252026,0.3344794
0.34367803,-0.50710195,0.15581398,0.122962095,0.18434009,0.09840115,-0.19120272,-0.03811931
0.18067928,-1.0093797,0.034178767,-0.09939716,0.21109511,1.0798349,0.122985,0.01112661
0.29155183,0.16137333,0.18275538,0.055903096,0.11206981,0.028899422,0.21254934,0.2893732
0.1549919,0.2329299,0.10807226,-0.049482796,0.071457505,0.012869996,0.16066512,-0.14676706
0.26944548,0.110414825,0.19308664,0.04171945,-0.12038955,0.19102407,0.059377432,0.12628411
0.09408898,-0.10180551,0.19278824,0.04108611,-0.04801976,-0.060767226,-0.12968794,-0.27029887
0.16466126,-0.002589662,0.100625545,0.017347341,0.053034417,0.022490213,0.20165306,-0.32730085
-0.06502272,0.05404564,0.06789741,0.14479072,-0.04746383,0.046071697,-0.028497059,-0.13787429
-0.0770941,-0.15945463,0.09949253,0.1721392,0.075954035,0.07307444,-0.0571877,-0.095417656
-0.124232136,0.15582733,0.083177194,-0.057271052,0.030693319,0.17468967,0.10858646,-0.006833211
-0.021986535,0.07833825,0.0063646864,0.04263937,-0.019235805,0.14033003,0.11488853,0.05968432
-0.34288925,0.031561334,0.124041185,0.1381797,-0.08546662,0.22235008,-0.11156507,0.08015785
-0.072577305,0.06503346,0.04890438,-0.005332328,-0.008585481,0.121888205,0.071936846,0.19281279
-0.25211114,0.50141823,0.018836917,0.014154816,0.046248432,0.09845511,0.15630412,-0.26841384
-0.048928153,0.09407737,0.10619244,-0.069152124,0.039627645,0.19398053,0.0040674363,0.083932504
-0.00433977,-0.0496777,0.079955816,0.16185212,0.10453532,0.2029698,0.122817546,-0.011897953
0.026730875,-0.05247992,0.04570257,0.08456209,0.04466514,0.034383018,0.081273794,-0.087610446
0.067355,0.23860359,0.11336633,0.41901037,-0.14307895,-0.08105074,-0.026721183,-0.17416792
0.04281184,0.071517594,-0.1346117,0.2846276,0.026293287,0.11322636,0.02697804,-0.056649268
0.029447356,-0.14260705,-0.06364402,0.23771453,-0.17234601,0.107774146,-0.052551124,0.1352033
0.20276321,0.16495933,0.041359514,-0.08071993,0.12877995,-0.5641797,-0.12889451,-0.300412
-0.022219118,-0.34641737,-0.02391962,0.5967814,0.36594188,-1.457034,0.09856733,-1.0911053
0.36528665,-0.5054896,-0.37729183,0.44665697,0.33967364,-0.7245848,-0.047601156,-1.32182
-0.12104162,-0.733536,-0.20181027,0.40169394,0.15443216,0.15436177,0.4438187,-0.14129116
-0.26379022,0.22390667,-0.22436537,-0.44623688,0.64864385,0.4023971,0.7753579,-0.022273578
0.03224347,0.108558364,-0.18749678,0.0045183003,0.0052235913,-0.037871763,0.0459281,0.018480161
-0.33815885,-0.05243825,-0.015012347,-0.60658604,-0.3703618,-0.094059855,-0.5215388,-0.4030641
0.5017295,-0.3259517,-0.3951254,-1.6119417,0.11180102,-0.41390377,-0.2790072,0.36609167
0.2813566,-0.6281068,0.037301674,-0.8196812,-0.083161354,-0.56047547,0.1578915,0.28194743
-0.031534497,-0.7791393,0.25792593,-0.05545493,0.36632344,0.5536517,-0.0960499,-0.2418567
-0.13971007,0.066948,0.0016922188,-0.11290937,-0.45612374,0.048977714,0.17857939,-0.2418352
-0.14996962,0.068131655,0.3402894,0.08255764,0.10423614,0.15787075,0.09154087,0.12537779
-0.051246215,0.08797099,-0.06242461,-0.04875432,0.08079415,0.39471194,0.050844338,0.22869842
0.061963663,-0.19045137,0.045316927,0.12968153,-0.0720132,0.048856016,0.024963988,-0.17857379
0.1437027,-0.036834672,0.040940505,-0.08115647,0.10399386,0.12570207,-0.09847222,-0.4144378
0.08985547,0.10182662,0.027167255,-0.10605559,-0.09944708,-0.04364664,0.0038495206,-0.08174018
0.031152256,-0.13125716,-0.0402257,0.1252038,0.014949487,-0.17994718,-0.020753602,-0.09569553
-0.11653186,-0.11138677,0.094558984,-0.068290114,0.05529746,-0.34692723,-0.1023349,-0.03911199
-0.034452215,0.16365157,-0.010829781,-0.08423642,0.07640662,-0.013800379,0.012726469,0.121312775
-0.36623102,0.15351419,0.20799921,-0.13455689,-0.044402428,0.27442402,-0.069648765,0.15555263
-0.25973856,-0.033988327,0.13671626,-0.12328758,0.013047471,0.41841707,-0.0712631,0.121055186
0.14875232,0.4228159,0.028508719,-0.054562435,0.14129987,0.17296377,0.022442266,0.09076552
0.026287107,0.13325967,0.18475091,0.11279601,-0.12841563,0.15348001,0.09539903,-0.1677992
0.15382233,0.21392757,0.080935016,0.05860679,0.015296847,0.12463645,-0.103483744,0.0169493
-0.0013457718,0.24644613,0.16742305,0.06582686,0.037461966,0.1239817,0.06549295,-0.08811228
0.15160252,0.12691273,0.04619426,-0.111850284,0.024198337,0.120513074,0.06706343,-0.19533467
0.07578723,0.06189594,-0.0051264917,0.048106994,0.18859965,0.089585155,-0.053313013,-0.078679085
0.005310586,-0.078201555,-0.10250968,0.28950056,0.07349661,-0.027682709,0.17038858,0.21921657
-0.053461384,0.100851506,-0.21294077,0.20366788,-0.17289744,-0.2273045,0.09136414,-0.26573688
-0.17118397,0.019604564,0.23268853,0.4957229,0.4071247,-1.0924633,-0.027322182,-0.9013263
-0.2812626,-0.3215512,-0.7473914,0.58050495,0.76610565,0.3101109,0.59527993,-0.6857679
-0.79833734,-0.2119203,-1.1976575,0.65934944,0.3721927,0.67670006,1.1483127,-0.15242478
0.058589473,-0.3640287,-0.158954,-0.53101254,0.18748854,0.6884557,-0.7010907,0.103559345
0.2381189,0.054710306,0.20201206,-0.0138806105,-0.07220977,0.046898037,-0.06837322,-0.044989932
-0.11866589,0.062458113,-0.22722408,-0.7681436,-0.15403834,0.015814567,-0.28656268,-0.61651117
-0.21030203,0.350251,-0.31286845,-0.71579766,0.3436986,-0.68964046,0.13055903,-0.3889507
-0.22059542,-0.5969471,0.66195256,0.12153396,0.1687469,-0.077066235,-0.09555208,-0.028039388
0.102075614,-0.037291147,0.0010800259,0.2325187,0.07713526,0.14048924,0.115495734,-0.08982652
-0.08978521,0.103141665,-0.014135692,0.21374466,-0.011585548,-0.01769344,-0.14282511,-0.15325113
-0.1757115,-0.27510893,-0.010658008,0.037993573,0.14820409,0.2919633,0.0015269029,-0.0062862765
0.078251675,0.13949594,-0.057609335,-0.059210267,-0.035052616,0.0711927,-0.14127573,-0.10747849
0.016593559,-0.06932086,0.108174674,0.085064106,0.10297007,-0.15463522,0.00834171,0.0032403844
0.07739307,-0.1384438,0.008650512,-0.10370385,-0.0961413,-0.4544287,-0.07175807,-0.14670128
0.1292996,-0.06372179,0.12235816,-0.16006477,0.005780786,-0.4647194,-0.06246997,-0.03644708
0.22257653,0.07955626,0.060502328,-0.06480769,0.04648902,-0.37251848,-0.0021907412,-0.095883936
0.22138163,-0.09705723,0.14971252,0.11716746,0.05370128,-0.385302,0.10824998,-0.09227851
-0.080649324,-0.150359,0.28365108,0.022874355,-0.064292036,-0.2613633,-0.13114147,0.03330517
-0.63577837,0.06881735,0.3161967,0.1830492,-0.06462469,-0.010051703,-0.06847104,0.23842488
0.06684203,0.060301133,-0.06903412,0.20299649,-0.19434604,0.16613173,-0.061939415,0.2571224
0.07512575,0.16946764,0.1438107,0.06748231,-0.104077056,0.26607612,0.0017683629,0.15065823
0.117717706,0.273752,0.04374593,0.053777616,-0.18745944,0.26423258,-0.033353593,-0.03617649
-0.04627518,0.19614239,0.04298838,0.11906035,-0.21202017,0.012107163,0.120431475,-0.16872817
0.16857319,0.3796852,-0.019892626,-0.05723505,-0.21825564,0.27129617,0.13126576,0.11850757
-0.024008688,0.15775062,0.1292817,-0.02224082,-0.11931168,0.19663733,0.11012368,-0.35948512
0.027192995,0.15017432,0.11276118,0.112962134,0.023173261,0.113352865,0.035564117,0.07284809
0.018841442,0.4214698,0.21058974,0.09466328,0.3337073,0.17469123,0.29936454,0.014176599
0.07021037,0.39716572,-0.3473205,0.63599986,0.007957675,-0.23373045,-0.008434277,-0.38327494
0.107756406,0.25626895,-0.55563396,0.22578552,0.09830297,-0.9395773,-0.15457587,-0.8147026
-0.8609228,-0.44271988,0.26103663,0.687414,0.5762871,0.1813137,-0.62244076,-0.20149754
-0.9325384,-0.7065308,-0.28075826,-0.006124305,1.0999142,0.66843605,0.10113243,-0.19949873
-0.06062209,0.019896334,-0.20687282,-0.35593414,0.8723743,0.49663293,-0.4413243,0.6228473
0.7069791,0.17298672,0.4895468,-0.002004467,-0.17184676,-0.052385204,0.03016171,-0.06725681
0.33452126,0.57131827,0.08868099,0.43738875,-0.17994705,-0.2032535,-0.11008381,-0.015252406
0.16014393,0.1701454,-0.0041760625,0.062628224,-0.009805748,-0.3676473,-0.49297422,-0.43270355
0.33000544,-0.42745805,0.070317276,0.1799473,-0.08210905,0.309301,-0.2448511,0.2969641
0.3717006,-0.115464196,0.026122836,0.036355313,0.06425274,-0.07142988,-0.12627408,-0.1679926
-0.022918038,-0.038651273,-0.0780615,-0.30771,-0.16800724,0.202561,0.060979724,0.14505629
0.009130327,0.013458406,0.005821481,0.08247592,-0.057375386,-0.18643057,-0.2593207,0.17232195
0.015969966,-0.058838494,0.23443942,-0.089674674,-0.26279318,-0.70800203,0.100650884,0.16358717
0.11771497,-0.0004324659,-0.088728406,0.23795857,0.10697329,-0.73879665,0.16902974,-0.13389212
0.094311684,-0.10284476,0.1483704,-0.21325041,-0.10162951,-0.297293,0.061688475,-0.031471256
0.17937867,-0.100823835,0.21190928,-0.008220983,-0.022057299,-0.31152904,0.050389446,-0.047364105
0.109726496,0.022467796,0.07856882,0.07304104,-0.04902629,-0.25869593,0.017263398,-0.010838425
0.399833,-0.11970597,0.015879702,0.068559155,-0.019408932,0.02120761,0.021822382,0.09591509
-0.14207438,-0.07158262,-0.008137629,0.0070524765,0.07374991,-0.45678174,0.09047081,0.032485664
-0.4764392,-0.29453784,0.10758623,0.36625007,-0.1975731,-0.0876841,0.13797827,0.3534376
0.17881218,-0.18295515,0.2933859,0.14926863,-0.12597193,0.082299314,0.058691833,0.34072182
0.114054486,-0.22801343,0.15639046,0.07891222,-0.005910891,-0.023523683,0.012318995,0.14989184
-0.007385035,-0.033551108,0.11878034,0.07907699,-0.18965137,-0.018015634,0.0011285498,-0.015788639
0.096346624,-0.009138662,0.12696317,-0.009911766,-0.03129063,0.03360081,0.051338546,-0.0038241951
0.00010500575,0.116956316,0.109589554,-0.0063694515,-0.2573804,0.06518523,-0.048043374,-0.21906443
-0.07913837,0.2416776,0.14662434,0.056598693,-0.30558097,0.0987256,-0.019044198,-0.21142255
-0.1568115,0.17315648,0.28723213,-0.19410725,-0.8016486,-0.0121282935,-0.104676336,-0.27081484
-0.23135495,0.0340727,0.055185337,-0.22563477,-0.81432974,0.36870995,0.17966619,-0.6209551
-0.2902015,0.081775695,0.006824217,0.80996495,-0.11760405,-0.30232793,-0.2491665,-0.32230848
-0.99376196,-0.07189822,-0.25179154,0.83332,-0.5188378,-0.22475107,-0.1110598,-0.7905317
-0.25173128,-0.8110607,-0.11293662,1.2591302,0.636728,-0.4263905,0.29894927,-0.093369044
0.3232367,-0.9275186,0.060144823,0.009408486,0.3351695,0.12297802,1.0007865,-0.34076938
0.045038722,-0.0010516973,-0.22593096,-0.46631622,-0.20842819,0.8115535,0.17014249,0.57846504
0.73575044,0.023081858,0.4779994,0.0053995624,-0.1129488,0.07286439,0.056105576,0.015327416
-0.24970874,0.34798443,-0.11731519,0.02381533,-0.0913949,-0.59475565,0.016587356,-0.260792
-0.19202475,0.5294238,0.01108608,-0.96801805,-0.0474326,-0.5829079,-0.20105495,-0.31111634
0.3029681,-0.018018443,-0.022635251,0.58376896,-0.13606328,-0.39100403,-0.5408352,0.23116806
-0.3673034,0.18049817,0.4420184,0.54518574,-0.041286238,-0.5859457,0.27487206,-0.18684438
-0.18916272,0.2475025,0.030688288,-0.05826552,-0.15155207,-0.4782332,0.028679146,-0.0023360148
-0.077595726,0.04287259,-0.1908981,-0.31539005,0.00563038,-1.2316275,0.09601288,0.25818014
-0.014874467,0.19839427,0.2818139,-0.15173143,-0.07595842,-0.83523285,0.21110767,0.22202429
0.088703096,0.027073229,0.08716462,0.015052883,0.010011466,-0.2042683,-0.09942107,-0.12698947
0.011627478,0.021927912,0.059905767,-0.18660067,-0.05692594,-0.14659142,0.12204564,-0.09336972
0.2021384,0.30453208,0.0441756,0.0011969877,0.17623143,-0.1219791,0.18649903,-0.095286876
0.29674032,0.14787413,0.036776368,0.10983821,0.06811097,-0.20584431,0.101658404,-0.21376215
0.64980054,0.15521224,-0.049130745,0.10675572,0.01597329,-0.12625107,0.10123577,0.14973702
-0.009743086,-0.1947866,-0.043275192,0.20042543,0.21355693,-0.19808492,0.23720735,-0.07325672
-0.5128057,-0.28916,0.024253462,0.14873444,0.0752094,0.006331153,0.3258057,0.44698972
0.22727105,-0.5923344,0.21632713,-0.019620216,0.04418022,0.023343513,0.13428421,0.11468258
0.12775935,-0.36658168,0.1475995,0.05035585,-0.049330033,0.06842117,0.18348578,0.10725167
-0.03955822,0.015783949,0.16900784,0.13927132,0.033308905,-0.069758765,0.1002835,-0.06911999
-0.0714855,-0.06938302,0.1770161,0.006497161,-0.008028058,0.0023428104,0.056283336,-0.078537785
-0.035021562,0.063375436,-0.036455046,-0.02290539,-0.22875868,0.24503219,0.21107125,-0.024451425
-0.11481405,0.022349004,-0.030397499,-0.121970475,0.36391944,-0.008462899,0.25155455,0.10502386
0.047570057,0.12860732,-0.17540804,-0.44866002,-0.22608039,-0.16843471,0.24772768,-0.15903375
0.038325243,0.022850577,0.26161367,-0.81513274,-0.69709677,-0.07986974,-0.0045899404,-0.027716605
-0.65264565,0.01379838,-0.15209101,-1.1748569,-0.96745956,-0.41006997,0.534035,0.5782351
-0.14750981,-0.057721917,-0.77089113,-0.2543174,-1.7527226,0.11304508,0.358316,0.3854453
-0.26845798,-0.21506931,-0.5099412,0.18234865,-1.1041715,0.22760439,0.24068253,0.08369993
-0.06124012,0.13338673,-0.37710223,1.4355308,0.02458816,-0.19759026,0.3208175,-0.66645104
-0.45449886,-0.07762322,0.03617543,0.5505344,-0.219933,0.6214457,0.1140575,0.29995626
-0.019752186,-0.035777193,-0.21172997,-0.1502646,0.046684034,0.048872866,0.04680353,0.21746288
-0.1541494,0.16779311,-0.022204466,-0.09687792,-0.11739904,-0.5371422,0.0048516146,-0.2316484
-0.17358632,0.05245131,0.3346835,-1.0441575,0.09733674,-0.5338254,-0.38537547,-0.007399594
-0.078544274,-0.1951656,-0.24334976,-0.2970929,0.17359719,-0.662908,-0.13621628,0.16823995
-0.3437806,0.1835846,0.36181632,0.18477228,0.022184886,-0.5363879,0.38386798,-0.45720702
0.15377495,0.10412233,0.3760166,-0.3571348,0.34467933,-0.8556269,0.034552526,-0.06363545
0.2597709,-0.017093338,0.22512825,-0.77618045,-0.038093362,-0.78315294,0.12637073,0.18181363
0.122834384,0.23433563,0.25862733,-0.1862394,0.24577552,-0.094195366,0.09684779,0.06782366
0.13167118,0.10835281,0.046850678,0.42163736,-0.012083813,-0.07603421,0.15405552,0.24851729
0.17686145,0.026630512,0.059318617,-0.046858773,0.054137565,-0.06430801,0.08363261,0.14378437
0.2621996,0.08669662,-0.08240629,-0.08762179,-0.05134019,0.054661725,-0.009203225,-0.17320262
0.13544329,0.16709378,0.08456843,-0.19686426,0.10349633,-0.11815236,0.071930446,-0.1996858
0.35332212,0.16454953,-0.3157903,0.1449366,0.18017799,-0.1472911,0.1194828,0.12332505
-0.63716024,-0.085774764,-0.20805196,-0.052422397,0.13794161,0.0026869297,0.30053228,-0.13801487
-0.1615975,-0.20263882,0.14001201,0.21931556,0.034931246,-0.013988242,0.0712622,0.4908982
0.17741153,-0.70075864,0.044723023,0.047108047,-0.050609343,0.018868944,0.24456228,0.052003566
0.02847368,-0.42315084,0.18262717,0.062386878,-0.03602391,0.080344595,0.14140616,0.187606
0.014675465,-0.006399241,0.08386752,-0.20520613,-0.13119769,0.014161331,0.027273485,0.26345307
-0.013586331,0.021922983,0.034528285,-0.009872744,0.019901643,0.0009236658,0.18189219,-0.010664151
-0.15928964,-0.12037612,0.030506188,-0.0027706206,-0.07662311,-0.2054417,0.1166746,-0.035862062
0.052324153,-0.06409349,0.21435043,-0.08813156,0.017268151,0.016758142,0.2932876,0.23239146
0.1876685,0.018595638,0.27383474,0.029284438,0.06326043,0.053130195,0.048025575,0.17813182
0.18332642,0.19279744,0.11303485,-0.640337,-0.1614488,-0.24169305,0.093746856,-0.18246077
-0.38860855,0.06208755,-0.36474288,-1.1047359,-0.31547013,-0.5280224,-0.027757378,-0.51310796
-0.6475684,-0.13104667,-0.39617836,-1.5116634,-0.6061309,0.20192675,-0.7434928,-0.49851406
-0.8912801,-0.2975201,-0.1272883,-0.09884901,-1.4220575,0.1757327,0.0057109203,-0.46128666
-0.63234156,-0.0016439843,-0.028626375,0.81699353,-0.4529289,-0.1932408,0.017033488,-0.07285205
-0.5157396,0.023491723,-0.054740608,0.545051,-0.39059746,0.23067805,-0.25964653,0.06609462
0.09000366,0.063169,-1.0063372,0.45884362,0.5678973,-0.04712148,-0.07381882,-0.013540447
0.098004274,0.032822862,0.16862589,1.0607822,0.36123776,-0.27619556,0.0076562,-0.24730639
-0.1961437,0.36915725,0.5614394,-0.371191,-0.10999384,-0.4499216,-0.49362162,0.17528912
-0.23130852,-0.24435903,0.027855761,-0.54843503,0.08733053,0.12982894,0.083162464,0.3494126
0.26113534,0.14827704,0.19165806,0.07218565,0.4626384,0.12835187,0.29285255,-0.24015385
0.24177326,0.23997745,0.010433906,-0.28930014,-0.07131264,-0.3985648,0.22080924,-0.1012249
0.03057154,-0.04017354,0.10249042,-0.93508416,0.06097836,-0.26616824,0.16741638,0.11885439
0.26201138,0.36573693,-0.038928702,-0.71278393,0.11364084,0.13201916,0.23224552,-0.04148099
0.11929329,0.16984124,-0.012967757,-0.108376816,0.12613563,-0.036258038,0.08475408,-0.06806993
0.14820611,0.19823393,-0.17902657,-0.07468616,-0.0027537409,-0.16553698,-0.017644683,0.07883323
0.09780402,-0.039997604,-0.018866617,-0.05180694,0.14391617,-0.13437878,-0.025024354,-0.37681663
0.17892675,0.003865088,-0.21553709,0.18253197,-0.064506404,-0.03728782,0.0927436,0.058189712
-0.025229102,0.15088382,-0.23727398,0.020215468,0.08913097,-0.04560896,0.12492716,0.100099616
-0.2771006,-0.17011094,-0.099266715,-0.0058355504,-0.012452057,-0.100037605,0.37347257,-0.15483816
-0.05268318,-0.45580947,0.049523987,-0.0014355435,0.1267505,0.059355315,0.10074598,0.3755408
0.1148859,-0.7548763,0.21743597,-0.04487974,0.04282174,-0.07209342,0.12665467,-0.04669116
0.1421286,-0.45374712,0.10774019,-0.074797474,-0.021680279,0.008934682,0.13791315,0.03807797
0.23444544,0.0215796,0.15014777,-0.004184474,0.03934085,-0.10204163,0.15936671,-0.043202154
0.060967695,-0.023189634,0.16333894,0.030040046,-0.068252504,0.20612624,0.0868008,-0.29015714
0.092885,-0.12790751,0.1633535,-0.065354735,-0.19943674,0.053758807,-0.12196877,0.23457605
0.20411602,0.2202955,0.045177203,0.08646147,-0.16430317,0.06199417,0.05737669,0.026867772
0.02647705,0.0018708294,-0.14615953,-0.095114864,-0.21602993,-0.11379947,0.07946514,0.07163057
-0.043697268,0.14612345,-0.19283542,0.40007475,0.2757745,-0.14525427,-0.07799861,-0.20759279
-0.24301006,0.30523813,0.1827635,-0.25152135,0.324419,-0.22609109,-0.5164339,-0.08857402
0.013180426,0.10606163,-0.5016189,-0.7948955,0.37086263,-0.20844409,-0.17749453,0.032795526
-0.19600187,-0.16252658,-0.06004455,0.10865033,-0.4580109,0.23348759,0.12437236,-0.305949
-0.14585645,-0.11387803,-0.6034114,0.29866487,-0.42115346,0.77054554,-0.8047496,0.35608888
-0.389181,-0.00016548167,-0.048793774,0.4941249,-0.28973585,0.19585225,-0.19420506,-0.0022424906
0.152189,0.06445808,-0.7992777,0.04288835,0.52872056,-0.10843957,-0.2757137,0.030950911
-0.036843687,-0.056671795,0.09057054,0.8541805,0.5682624,0.39259735,0.2251244,-0.04829641
0.7570695,0.30548608,-0.8259417,0.72561336,0.47414073,0.19795929,0.3133247,0.7482847
-0.01276858,-0.045637734,-0.025854025,-0.44029576,-0.20236146,0.22545947,-0.017662017,0.40580565
0.43010303,0.22319363,0.114589274,0.044994332,-0.22597069,0.36460292,0.44538417,-0.49906278
0.10977495,0.12444532,-0.17950545,-0.3310953,0.22181465,0.40713185,-0.00641836,-0.30788198
0.030674448,-0.08488624,-0.016038384,-0.20211123,0.21570618,0.028685646,-0.07131142,0.09942791
-0.0065003783,0.34214067,-0.119093254,-0.3602433,-0.015682142,-0.17790401,0.03092859,0.44441637
0.26467553,0.30871758,-0.09046293,-0.22008672,0.06634949,-0.019818814,-0.053972516,0.052202333
0.1325303,0.26916677,-0.16886193,-0.5757953,0.09194297,0.010953122,-0.010086479,-0.10975517
0.066640235,0.06993153,0.039319742,-0.13992105,-0.05511335,-0.16040528,0.0015844774,-0.06687338
0.0069076726,-0.26175672,0.021351585,-0.13475966,0.19051206,-0.051614285,0.031157218,-0.03491147
-0.092669725,0.020091577,-0.15933914,0.16689363,0.14144288,-0.04152301,0.18968607,0.15291074
-0.14802432,-0.52774316,-0.29423496,0.12161029,0.055145342,0.0010698945,0.09804421,0.10029218
0.046468228,-0.46773455,-0.048421662,0.007690508,-0.06508327,-0.0020899135,0.13590811,0.28467202
0.06684814,-0.3600281,0.2167153,0.12674806,-0.019960662,0.011894426,0.12304961,-0.065743856
0.031736974,-0.0170837,-0.05299317,0.08761257,-0.09736062,0.11564379,0.10678518,0.33664727
0.19495599,-0.15131517,0.23435122,0.06584376,-0.28930813,-0.121969745,-0.040810823,-0.17160092
0.07568011,0.078578934,0.15030657,-0.06578571,-0.07737726,-0.08279438,-0.0012024884,-0.12230211
0.19098862,0.044038724,0.14632264,0.14376985,-0.13246094,0.13940641,0.12739722,-0.2977017
-0.016513959,0.012878237,0.072143584,-0.06272046,-0.05677658,-0.077484846,-0.168705,-0.45584866
-0.22556081,-0.062705696,-0.020366892,0.0110658575,-0.13572317,-0.15008523,-0.3052458,-0.105806
0.5131086,-0.05409841,-0.06595579,-0.1490838,-0.11560708,-0.20172842,0.1546273,-0.2564147
0.13753524,0.32331374,-0.1400296,-0.008674241,0.19770178,0.21830706,-0.14653806,-0.16202219
-0.3538688,-0.24480285,-0.100066684,-0.957626,0.06738015,-0.27901265,-0.48628682,-0.36607286
-0.27061597,-0.12992306,-0.21035978,-0.66490304,-0.7740058,0.551394,-0.5474281,-0.7234322
-0.61553955,-0.07215512,0.09524067,0.6793187,0.4106829,1.03318,-1.4799025,-0.5938495
0.10644201,-0.05192133,-0.19353136,0.009019829,-0.030913742,1.1218785,0.113953836,0.013946273
0.5690611,0.10353202,0.64096904,-0.5408084,-0.11359438,-0.0047797337,-0.22317009,-0.04042565
0.0055413065,0.022844257,0.27251762,0.20048088,0.5785612,0.37390733,-0.3360894,-0.26626936
-0.21511543,0.49184513,-0.4459221,0.6317458,0.40151507,0.6428055,-0.5191763,0.7986078
-0.10042394,-0.07565028,-0.29895246,0.08585049,-0.3348161,0.17648824,-0.3356594,-0.21289657
-0.34376016,0.26121324,0.07411916,0.3821911,-0.91271347,0.08696332,-0.106747195,-0.69622713
-0.46111676,-0.13267572,-0.24069111,-0.022275416,-0.16364826,0.63932556,-0.23617576,-0.1291004
-0.1620216,0.18027812,-0.17038943,0.32607278,-0.03542204,0.10085037,0.09501899,0.15538102
0.2029623,-0.024262736,0.09962606,-0.26484448,-0.18917617,-0.1462215,-0.045551807,-0.025095602
0.20479277,0.074324176,0.08067125,-0.4070211,0.06828938,-0.19429114,0.067757316,-0.11354484
0.044857476,0.032794252,0.08314701,-0.55490845,0.21896914,-0.054341383,0.025180055,0.2828557
0.059813835,0.08073945,-0.095888786,-0.6316263,0.012811817,-0.00032842765,-0.013160309,-0.05005564
-0.22781864,-0.008870697,-0.07578697,-0.71944755,0.11754294,-0.08570528,0.1374128,-0.07769317
-0.11339185,-0.2529005,-0.055973087,-0.33988574,0.18916579,0.10982779,0.2604117,-0.05721533
0.08553632,-0.803019,-0.12038464,-0.016724687,-0.0109833,0.09237317,0.051795125,0.044228688
0.0072644586,-0.61392933,-0.16207555,0.007517062,-0.06725194,-0.028811567,0.07811303,0.25139838
0.16882266,-0.08914417,0.07635253,0.10543698,-0.063731566,-0.029833568,0.05814983,-0.033169013
0.09415962,-0.14907806,0.16122226,-0.15347166,-0.0052395407,0.014591161,0.17046595,0.11298707
0.13667586,0.047353722,0.010686296,-0.07880008,-0.101835825,0.04987181,0.03619943,-0.20391668
0.282591,0.064528696,-0.017833347,0.092139445,-0.049181446,0.23716393,0.09357666,-0.05994625
0.18823431,-0.08607968,-0.10584891,0.23425299,0.039864738,-0.0054641045,-0.2987732,-0.30610946
0.14593357,0.0028820154,-0.006718145,0.038792685,-0.12555245,-0.05847055,-0.14633788,-0.014082208
0.3215033,-0.13416635,-0.043488815,0.056789376,0.06194311,0.23795106,-0.257736,0.030577527
0.09738543,0.015501425,0.12974186,0.014865457,0.07028888,-0.022737786,-0.04506554,-0.03331329
-0.20129381,-0.05813744,-0.11023084,-0.31624943,0.025890408,0.0670465,0.07878027,-0.15231256
-0.16495344,0.055797882,-0.94438064,0.26463148,0.54534316,0.0099181095,-0.27830702,-0.46283686
-1.1321894,-0.34081817,-0.6908472,-0.9696211,-0.23596795,0.3392945,-0.5460759,0.029494977
-0.3392723,-1.1357133,-0.43068835,-0.43815082,-0.06859126,0.76798475,-0.3272862,-0.18336454
-0.55562955,-0.011858324,-0.68365294,-0.023382036,0.014595413,0.72455597,-0.35294965,-0.5424936
0.082012564,-0.040973745,0.010584913,-0.07458681,-0.052327942,-0.03295733,0.021173723,-0.0243221
-0.43316862,-0.061783176,-0.06495471,0.49639046,-0.010450495,0.16056994,0.0045666937,-0.6395032
-0.22449712,0.23255232,-0.39098036,0.23083708,0.2378975,1.0281284,-0.43215996,-0.37261197
-0.2267156,-0.4209022,-0.03917231,0.12950632,-0.32098952,0.25952289,-0.1469656,-0.31701952
0.102630615,-0.12084322,-0.34798703,0.28617942,-0.4969024,0.040990405,-0.25940052,-0.80535066
-0.0007806854,0.10807709,-0.37788165,0.085624605,-0.8209337,-0.017272513,-0.41998073,0.16623515
0.22487742,0.34843436,-0.18288386,0.27385813,-0.27259058,0.16377527,-0.16004977,-0.33530986
0.023819193,0.053451013,-0.010666059,0.19143096,-0.3856135,0.20793122,0.04644551,0.067525394
-0.073988594,0.009562181,-0.11639511,0.11657465,-0.37070277,0.16831139,0.13308959,0.32470885
0.06995781,-0.014190531,-0.08952967,-0.30363995,-0.1946452,-0.07446874,0.07444333,0.0030626548
-0.27431875,0.33265308,-0.086163655,-0.22627412,0.03852476,-0.24064699,-0.11194003,-0.12881303
-0.18104337,0.119751744,-0.20069942,-0.37091216,0.024572399,-0.14983925,0.009211641,-0.091893636
-0.21686651,-0.29370677,0.010991394,-0.46685293,0.1379083,-0.032878548,0.25634634,-0.09534762
0.086887345,-0.70793587,0.058922615,-0.52475,0.040310968,0.001302951,0.19490248,0.31052175
0.11501429,-0.26792032,-0.12640168,-0.28127247,-0.121498145,0.024684351,0.025466172,0.22180158
0.16279905,-0.48423043,0.072748356,-0.2843048,-0.038155433,-0.032003112,0.0576429,0.024334714
0.18352455,-0.25263357,0.0040773116,0.07960637,-0.19063677,0.14143687,0.15850592,-0.16171582
0.044557504,-0.13160764,0.02456553,0.053908303,-0.19608982,0.0677193,-0.037537664,-0.26462755
0.035634264,-0.011201294,-0.008313018,-0.059398655,0.032830976,-0.080067895,-0.039086193,-0.34675157
-0.23436451,-0.09867774,-0.007826754,0.03523859,-0.10785912,0.11709852,-0.15253061,-0.11365208
0.081782244,0.06715489,-0.045338225,0.016133774,0.120636314,-0.30852476,-0.2064985,0.08033594
0.11293914,-0.041382153,0.08251031,0.10695576,0.0033318638,-0.0029035732,0.10191146,0.09515972
0.095147304,0.17542785,0.13810802,0.025891908,0.23999785,0.16225785,-0.37295333,-0.11659473
-0.07315279,-0.06510027,0.109979704,0.033814956,-0.027671296,0.19173793,-0.09249455,0.24916486
-0.2491525,0.15375635,-0.44554105,-0.35671875,0.104760036,-0.10345566,-0.04008036,-0.19429031
-0.45924774,-0.05245862,-0.82150066,-0.30009878,-0.7032223,0.46941108,-0.72441196,-0.19026032
0.0028153867,-0.7851919,-1.0375875,0.09171406,-0.04575598,1.6326238,-0.93592286,-0.13897488
-0.81257063,-0.27807775,-0.31570292,0.11722939,-0.020980988,1.1797961,-0.78035015,-1.0371077
0.11082636,0.065372586,0.13564482,-0.035663344,-0.17880589,-0.038724978,0.12625982,0.058229834
-0.3421345,-0.074158415,-0.2337763,-0.13679184,-0.28075087,0.13222277,-0.057446353,-0.034666352
0.24732628,0.14658834,0.07503871,-0.11317725,0.29604766,0.03554134,-0.7257806,-0.24896906
-0.031715654,-0.99165267,-0.13701457,0.17276482,0.0788435,0.3867004,-0.18924578,-0.22062622
-0.1232761,0.19385372,-0.09081552,0.12288577,-0.13589817,0.050059453,-0.6922572,-0.8438233
-0.11937913,-0.3239564,-0.43224216,0.035286013,-0.76210284,0.13483548,-0.3986343,-0.56588656
-0.048101403,0.025816228,-0.14877866,0.15334542,-0.5491199,0.16186902,-0.25479627,-0.98690295
0.1556241,-0.039133895,-0.13744962,0.13446973,-0.49299696,-0.07845021,-0.43584502,-0.3992896
0.11776019,0.15809612,-0.020124821,0.18185149,-0.9508304,-0.14256954,-0.051638506,-0.08089976
0.1163589,-0.022135338,0.027785577,0.09031347,-0.9047478,-0.13478768,-0.04738537,-0.2472414
-0.29487482,0.23192903,-0.09406039,-0.029588174,-0.81053644,-0.12523478,0.029945526,0.03577765
-0.43622875,-0.100542314,-0.0051134545,-0.025271239,-0.75742906,-0.03419069,0.04139162,-0.039621104
0.10469006,-0.2609006,-0.35956678,-0.08383489,-0.46360853,0.1640266,-0.049703173,0.07088348
0.08854935,-0.34644082,0.014613774,-0.05930546,-0.2074383,0.032951176,0.02728634,0.09961526
0.12143542,-0.18707216,-0.10412636,-0.08640567,-0.18177694,0.055123407,-0.07032412,0.14023705
-0.025008434,0.08650097,0.041702114,-0.035203427,-0.16171864,-0.0060394714,0.017006705,-0.11469785
0.20685793,0.082195126,0.014562132,-0.06873093,0.024068542,-0.025343392,0.013228386,-0.3637235
-0.08542015,-0.06350969,-0.079054214,0.02659593,0.11219488,-0.15010458,-0.20417944,-0.22681315
-0.028732827,-0.022612019,0.0055588605,-0.0056040203,0.036891688,0.09658902,-0.31127894,-0.10179659
-0.07068332,-0.14970247,-0.043797318,0.037967153,0.19246267,0.12816426,-0.009643281,-0.30116472
0.24229448,-0.08008096,-0.042364627,-0.045148715,0.22517395,0.17066678,-0.0315162,-0.117022455
0.07751376,0.13375503,-0.00062186876,0.068087175,0.09062074,0.23491883,-0.27822894,0.025012162
-0.14052993,0.016951755,-0.10131516,0.089882515,0.18508574,0.066814296,0.16997841,-0.2179037
-0.08712156,-0.10207093,-0.3833522,-0.15365206,0.13733506,0.19237624,0.02388321,-0.201859
-0.14967257,0.04408861,-1.4249151,-0.57819635,-0.0681804,0.5196476,0.13425823,-0.60425836
-1.0218743,0.26775002,-0.27323732,0.42417842,-0.9578128,0.43850455,-1.2878039,-0.03656543
0.9484695,-0.27403483,0.15613674,0.26163846,0.24797456,0.844498,-0.32192892,0.53673035
0.44867054,-0.15068954,-0.09362801,-0.07643222,-0.1880982,0.6539971,-0.121806584,0.105978295
-0.052805852,0.022008352,-0.06826004,-0.18861279,0.062127948,0.056659408,-0.03694236,0.10302268
0.2676501,0.6037534,-0.42975295,-0.3489579,-0.1100125,0.10459767,-0.74757016,0.236729
0.26892617,-0.3957507,1.0833932,0.4222933,0.5794343,-0.58123624,-1.3570164,-0.58908594
0.044842187,-0.2789049,0.2522611,-0.029209428,0.6195637,0.119150996,-0.18588509,0.1272409
0.31209716,-0.0666838,0.009274905,0.118742056,0.21287398,-0.12405935,-0.1815052,0.19494167
0.1674297,-0.1033667,0.0089545995,0.0042982684,-0.15514846,0.046083663,0.002563843,-1.6981652
0.05899566,0.116557136,-0.4484413,0.09152144,0.15892604,-0.097022906,-0.114332065,-0.12943846
-0.22738156,-0.031248922,-0.0819828,-0.109698795,-0.27933156,0.058475494,-0.43315652,0.16159691
-0.1987596,0.1342111,-0.07720959,0.28614172,-0.3440761,0.018252255,-0.30831558,-0.044365212
-0.07500369,-0.26187152,-0.24013458,0.18448469,-0.58361727,0.23989415,-0.23792765,-0.023734644
-0.21524395,0.04124335,-0.37086937,0.018832026,-0.56178695,0.0744578,-0.17059723,-0.17854014
-0.23543832,-0.02365509,-0.19855133,0.0767813,-0.84873635,-0.060567636,-0.3319493,-0.08687752
-0.28318337,0.08025783,-0.23216684,0.13766514,-0.83452356,-0.07124271,-0.31386346,-0.20270157
-0.03534334,-0.3406652,-0.2033543,-0.063653536,-0.31826928,0.028148757,-0.10951536,0.05126688
0.08922372,-0.17963047,-0.030916912,0.035756305,-0.0470175,-0.043528832,-0.16916418,-0.11105919
-0.03852505,0.010300382,-0.24317144,-0.036212064,-0.03482096,0.03706232,-0.14473054,-0.06351245
-0.1344445,-0.0765398,-0.042426966,0.02214424,0.21749015,0.045283202,-0.16266975,-0.07691434
-0.1645699,-0.11461003,-0.034381315,-0.2261256,-0.0023647607,0.29991856,-0.007830189,-0.19541855
0.08138913,-0.06683655,-0.15407841,0.077783115,0.06269876,0.12096365,-0.068899244,0.018593062
-0.23910502,0.014817294,-0.060441922,0.090822,-0.0005352824,-0.034222957,-0.058180675,0.03096236
-0.29657215,0.003213666,-0.051796656,0.029301547,0.08811937,0.18041743,0.11621405,-0.044099946
-0.18696332,-0.019214064,0.023731172,0.1815642,-0.09682882,0.057573874,-0.10615423,-0.6044567
-0.73565644,0.020391136,-0.19175845,-0.049450114,0.07401424,0.11418767,-0.0066497135,-0.88434094
-0.990305,-0.19922422,-0.5924918,-0.23693645,0.10887045,0.13688561,0.043342505,-0.54039353
-0.113478005,0.10862138,-0.5555963,0.10050061,-0.046690095,-0.0075430716,-0.38773263,-0.36905786
-0.83574504,0.036671866,0.055396866,-0.27611944,-0.91214156,0.8224396,-0.95278597,0.42191657
-0.029195212,-0.2020484,-0.54604006,-0.3610932,-0.30588502,0.36065134,0.19347897,0.6528804
0.037369203,-0.036226287,-0.052925047,0.04159007,-0.088173784,0.068448566,-0.09555163,0.6572184
0.047809333,0.0035092756,0.045893744,-0.056326102,0.036367,0.036144167,0.028386027,0.011464037
0.29260084,0.52008903,-0.28870812,-0.19371027,0.1906592,0.18246159,-0.86567307,-0.05641581
0.3889389,-0.30317932,-0.15794456,0.5271095,-0.24469097,-0.34916714,-0.5158286,-0.3826124
-0.16155976,-0.5103458,0.52498245,-0.24898171,0.7316648,0.10693986,-0.09918804,-0.4927489
-0.051346857,0.14441755,-0.44881177,-0.08125831,0.53335893,0.43142632,-0.39225578,-0.18329887
0.17738903,0.03317178,-0.53702927,-0.19512296,0.08583258,0.23489599,-0.08648027,-0.7049752
-0.0843626,0.3754015,-0.15380622,0.072286986,0.15774015,0.16912042,-0.22683635,-0.35847554
-0.11372887,0.020277087,-0.19586538,0.0009434867,0.015867818,0.29491273,0.1413719,-0.1882494
-0.64119226,0.13299549,-0.5679403,0.21210302,0.08375128,-0.02902742,-0.054874778,0.11965116
-0.3420256,0.005571435,-0.4128661,0.103836864,0.09947883,0.17504431,-0.17870122,0.06871282
-0.32822338,0.14306967,-0.2516685,0.10219096,0.08452692,0.0052403947,-0.18565124,-0.03589152
-0.13430418,0.21521603,-0.24599761,0.16492774,0.30728963,-0.0659402,-0.41893852,0.14219485
-0.07011873,-0.042882156,-0.31527054,-0.07032308,0.15852317,-0.034560915,-0.31045216,-0.12665632
-0.3628561,-0.022637287,-0.12675169,0.090901375,-0.12098194,-0.020885969,-0.3601728,-0.20915963
-0.09060913,-0.27127132,-0.058068596,0.091417104,-0.12451241,-0.22825487,-0.28266498,0.028199745
-0.052707896,-0.20980382,-0.1931435,-0.039822813,0.05946142,-0.08159799,-0.020322422,-0.18714716
-0.06863853,-0.12407173,-0.18308495,-0.11047908,0.010307364,-0.06652224,-0.04171652,0.3358027
0.029116325,-0.012858126,-0.11826775,-0.0012123184,0.09337378,-0.07633432,0.012684739,0.13124892
-0.23394051,0.028193666,-0.3747357,-0.08611158,0.12760285,0.13527107,0.2470914,0.13940975
-0.3032209,-0.058627788,0.06625587,0.027990604,0.04059677,0.15603225,0.04413654,0.0391596
-0.35398564,-0.32903212,-0.33065912,-0.050702408,0.14379019,0.018500105,0.11407301,0.16521706
0.07978676,-0.054584455,-0.31305826,-0.23656069,0.11624675,0.09131045,-0.020558858,-0.07907588
-0.28339964,-0.10550504,-0.12630491,0.22972187,0.19876885,0.0981285,-0.17342198,-0.5970314
-0.041606065,-0.3042391,-0.5289792,-0.6641342,0.1041818,-0.06441416,-0.017837157,-0.74871683
0.091528654,-0.3084333,0.33228377,0.24674296,-0.050182246,0.14719924,-0.5083801,-0.6434506
-0.7050211,0.03913007,-0.2513078,-0.34625185,-0.73445904,0.2907963,-0.20014907,-0.023678675
0.09770476,-0.00662703,-0.30542755,-0.09038749,-0.1586044,0.20924492,-0.07416369,0.6007011
0.00075653795,0.0022663102,0.005684279,0.16753626,-0.2545762,-0.0075961724,0.32587498,-0.037859667
0.04934285,-0.06751935,-0.2587068,-0.24024415,-0.06228181,0.24317491,-0.12888508,0.53441405
0.0710795,-0.007152342,0.1651872,0.6842217,0.34047782,0.68822145,0.09633188,0.35129908
0.21655984,0.17153877,-0.49790108,0.12081938,0.21666202,0.4142714,0.43914527,-0.16029936
-0.011856012,0.0678523,-0.80625254,-0.13559148,0.80251896,0.090502895,-0.12760459,0.10921563
0.22829866,-0.010929255,-1.0868403,-0.12287942,0.52794677,0.24200758,0.08804638,0.35021564
0.24591604,0.26364845,-0.65369105,0.060380746,0.30557868,-0.16748318,0.08742789,0.13934784
-0.50016654,0.123001225,-0.11240224,0.12531109,0.052889396,0.19689286,0.14838114,0.22179018
-0.5068289,-0.15921834,-0.27070197,-0.060993385,0.27213925,0.068639114,0.20490324,-0.13629657
-0.008534708,-0.28487068,-0.01227228,-0.058388725,0.27467635,0.22782075,0.044765744,-0.07430145
-0.20270754,-0.054715324,-0.11174415,-0.07236453,0.199609,-0.024633313,0.09292596,0.04014087
-0.09112851,0.09840265,-0.08283493,-0.014694909,0.13541073,0.0036108696,0.012222093,0.26188302
-0.0535955,0.2577566,-0.18268865,0.027631393,-0.0068437494,-0.15029031,-0.07282291,0.0543753
-0.2721539,0.23082963,-0.03184058,-0.059989728,-0.068818964,-0.09827419,-0.2654028,0.059918843
-0.205099,0.016872419,-0.27191225,-0.033284888,0.057518683,-0.005836891,-0.20173185,-0.05915136
-0.17817755,-0.09884831,-0.18367086,0.039347738,0.023096748,-0.058720943,-0.08303046,0.07088994
-0.14674851,0.02613304,-0.13241266,-0.044129137,0.10128809,-0.05216336,-0.049781628,0.06516474
-0.1121474,0.12775058,-0.08618638,-0.06990408,-0.07327885,-0.03618288,-0.0097870985,0.13266541
-0.12052757,-0.30653554,-0.19225547,-0.109605685,-0.061695408,-0.0029096692,-0.16596542,-0.19400652
-0.13919634,-0.22756067,-0.04028726,-0.055335782,0.033504784,0.05875139,-0.22381389,0.05967129
0.034786806,-0.06443999,-0.13332374,-0.092359416,-0.02983843,-0.011402756,-0.21508452,-0.122718945
-0.12065242,-0.06933845,0.07454988,-0.047535207,0.11250414,0.07092467,0.044585053,-0.20879033
-0.0027864962,-0.06676635,0.100723036,-0.11473657,-0.008982069,-0.18714209,0.14843151,-0.18911126
0.14897662,0.040875148,-0.43090615,0.055797156,0.0588919,0.21818095,0.124072,-0.9044125
-0.055547677,-0.75746965,-0.5657556,-1.091444,0.3503054,-0.29824302,-0.06628861,-0.940241
0.1680836,0.23657547,-0.2089541,-0.5316747,-0.49070957,-0.12016118,-0.2611912,-0.107556604
-0.39268592,0.267108,-0.15744807,-0.27886423,-1.3411683,1.1049954,-0.28798977,0.20866412
-0.2645113,-0.30325258,-0.91601247,-0.03772659,-0.0005515007,0.2082643,-1.0510288,0.25332507
0.071554765,0.06312906,0.040384248,-0.061647475,-0.05877682,-0.052534033,-0.058892753,-0.022966295
-0.005094145,0.053556114,-0.2879499,-0.18219797,-0.08590387,0.3299262,-0.029540505,0.4424276
0.059442222,-0.0059442148,-0.004174368,0.3005467,0.15316002,0.41715556,0.3898127,0.31555012
0.2338419,0.08815358,-0.60634756,0.40981114,-0.27030376,-0.046406515,-0.10115431,-0.010076163
0.24234284,-0.07078839,-0.3211397,-0.024426032,-0.31093016,0.40256548,-0.23132181,0.2279267
-0.33250698,-0.6731143,-0.33233604,-0.27474684,0.19424067,0.11220608,0.51386124,0.094583146
-0.23766205,-0.092832156,-0.47197336,-0.43317765,-0.0309576,0.40501565,-0.022508534,0.70780057
-0.44546226,-0.19188343,0.020498158,0.106152,0.12602682,0.38707942,0.24116269,0.057218485
-0.26727447,-0.03752609,-0.055108845,-0.11990254,-0.05757085,0.12587589,0.093528286,0.09673661
0.0071786856,-0.07203175,0.049862772,-0.11124958,0.02963992,-0.043289173,-0.12964629,0.1083808
0.068189904,0.056577407,0.059922352,0.09212688,0.12252936,0.088603936,-0.17523894,-0.03691335
-0.20628847,0.014699516,0.11929229,0.040770296,0.13817742,-0.043653175,-0.010802808,-0.1836184
-0.08667854,0.0862875,-0.083413735,-0.0061606136,0.34930956,0.052328724,0.043746,-0.25071523
-0.18821475,-0.21833712,-0.06402554,-0.082373045,0.15372835,-0.04378516,-0.03545409,-0.26191324
-0.16973838,0.35165307,-0.106868185,0.015027745,-0.041225955,-0.10699441,0.06210998,-0.22154303
-0.26483586,-0.066499576,-0.06376701,0.019040873,0.10075925,0.07799372,-0.061376132,0.10603882
-0.060766533,-0.14582233,-0.050065834,-0.01939352,-0.019659555,-0.055639666,-0.18112037,-0.18676637
-0.17293115,0.07040898,-0.13377915,0.1967617,-0.029234322,8.968675e-05,-0.050968785,0.013205313
0.024671929,0.017282877,-0.025671836,0.036347732,0.010229416,-0.062968604,0.07221596,0.2716489
0.111059144,-0.15846439,-0.16442107,-0.27848157,0.095869854,0.038464494,0.029352916,0.26566747
0.28762913,0.16390884,-0.4259376,0.061708514,-0.02697539,0.12378789,0.060563356,0.38141397
0.15715408,0.032672394,-0.0043355646,0.0985323,-0.028998218,0.1330447,-0.10395154,0.33968472
0.14833473,0.22611529,-0.43688524,0.26713035,-0.08873903,-0.14227651,-0.047785304,-0.50563574
0.025025995,-0.29479966,-0.19867283,-0.18423156,0.004790623,-0.066513985,0.03232046,-0.8935707
-0.30783704,-0.07413479,0.014429234,-0.9404985,0.20419808,0.5117919,-0.66759294,-0.933922
0.19744247,0.24110542,0.07648347,-0.061394133,-0.45786083,0.20772693,-0.10100073,-0.13798249
-0.08389902,0.24930687,-0.3880723,0.025043922,-0.7660577,0.6558829,0.83225864,0.33562517
0.13600847,0.13669877,-0.8563883,0.11125996,0.62981665,-0.4193259,0.029465336,-0.23315804
-0.06469274,-0.011014461,0.044652537,-0.08524784,-0.053470377,-0.054853015,-0.01105386,0.027688771
0.033254184,0.04379393,0.078088224,0.045039415,-0.032181446,0.014874697,0.07076618,-0.057949923
0.05540496,0.009152897,0.0045773014,-0.045534093,-0.03369217,-0.063863754,-0.04022982,-0.038471527
0.3150643,-0.0806706,-1.0721862,0.33257794,0.95237774,0.11948837,-1.0307229,0.023124093
0.40083063,-1.0045224,-0.7723185,0.45569396,0.08145323,0.2477437,-0.008509586,-0.32409105
-0.46196163,-0.8823097,0.3396031,-0.032830503,-0.13224337,0.14347197,0.048376717,-0.6932399
-0.35461202,-0.41436097,-0.060604323,-0.057735927,-0.01801959,0.330667,-0.2627796,0.020063756
0.018078256,0.089695565,-0.50121075,-0.15653096,0.2197745,0.31785345,0.22090058,0.3097832
-0.023185048,0.003595487,0.089447305,-0.014260699,0.12779582,0.16659226,-0.14033978,-0.056249406
-0.027352123,0.13690513,-0.23477334,-0.17205562,0.21024916,-0.12030896,0.10395545,0.059771847
0.01392265,0.1387233,-0.31706902,0.049054783,-0.046730947,0.19297668,0.18984461,-0.15023139
-0.050578162,0.035234377,0.059311356,-0.13649109,0.0525822,0.036964912,-0.040939987,-0.13808918
-0.015992556,0.1399184,-0.22732365,0.07197264,0.006546164,0.026510075,0.022120392,-0.055839077
-0.03720993,0.349109,-0.08980917,0.025772259,0.09400159,-0.04761914,0.056972817,0.07845029
-0.09451912,-0.031644665,-0.10604189,-0.06086323,0.048987865,0.11891358,0.02313972,-0.13372944
0.03846637,0.028103694,-0.21086068,-0.07016922,0.0012196437,-0.15771694,-0.040643748,-0.35311052
-0.12973362,-0.23299016,-0.20277521,0.19640921,0.059716117,0.045817092,-0.029923154,-0.09193883
-0.10443367,0.04547493,-0.32154918,-0.10771408,0.07435635,-0.15457943,0.1316148,-0.14170383
-0.20849846,0.13886529,-0.27687624,-0.15449631,0.11551165,-0.33070126,-0.032564946,0.10355112
-0.096989535,-0.31112897,-0.1098306,-0.08772322,-0.010510709,0.22972286,0.04363226,-0.2619842
-0.09281821,-0.07387778,-0.22972657,-0.025750075,-0.1865315,0.1406076,0.07780393,0.00090516795
-0.089958034,-0.33341798,-0.625085,0.008967319,0.04929726,-0.06352769,-0.0984543,-0.40270692
0.11488847,-0.07353209,-0.2731821,-0.26104972,-0.096832745,0.19120985,-0.17045173,-0.40602624
-0.5103769,-0.20002638,0.01127903,-0.7181186,0.022879424,0.45820045,-0.26438525,-0.3043196
-0.16187969,-0.14740609,-0.3008179,-0.7539575,0.016173644,-0.28256586,0.8950345,-0.22759129
0.023642888,0.19994585,0.07097089,0.15890862,-0.7152606,0.83684605,-0.0453578,0.34899408
0.5421335,0.28974524,-0.50114167,-0.016795337,-0.24553163,0.58328134,0.4857599,0.33393484
0.37058043,-0.0052666636,-0.47636113,0.086335376,0.76014686,1.2520257,-0.6650966,0.84566283
-0.013748437,-0.054340065,-0.024594303,0.022135876,-0.059889436,0.068831295,0.03779903,-0.06636672
0.0644148,-0.06518923,-0.05192619,0.02001796,-0.00348109,0.080477834,-0.031058326,0.056531116
0.017238833,-0.063996375,-0.027706847,-0.03039286,0.06786063,-0.07219238,0.010203138,-0.00022196025
0.12803964,-0.28701484,-0.022664296,-0.08654359,-0.6814415,-0.45915854,-0.83262676,0.034517694
0.114900276,-0.2943424,0.39954138,0.24660553,0.12518275,0.18064524,0.17236823,-0.5266199
-0.42180568,-0.261777,0.57213986,-0.739713,0.5200507,-0.5687928,-0.44789344,-0.8230372
0.541229,0.13165948,0.392622,-0.0064578536,0.29196987,0.18485959,-0.3729921,-0.17229088
0.16639805,0.037419785,0.30725873,-0.2225184,0.5241682,0.11361502,-0.07114998,0.18207961
-0.023333693,-0.22178404,0.14171103,0.035346862,0.20955528,-0.04892976,-0.21206354,-0.13219881
-0.14294402,-0.24263906,0.19154608,-0.33181804,-0.07612258,0.019362336,0.08312765,-0.24075314
0.103852384,0.11873307,-0.02659743,-0.31374177,0.44004285,-0.0010228016,-0.06106671,-0.057753224
0.08036658,-0.091386236,-0.027794495,-0.37845308,0.28011978,-0.004070855,0.20662393,-0.11188165
-0.0123062,-0.12550901,-0.22669388,-0.11347316,0.22305137,0.09638593,0.012250771,-0.23439972
-0.07836354,-0.102713905,-0.2355718,-0.21131994,0.095730186,0.05978654,-0.07623779,-0.15562981
-0.07589246,0.3244415,-0.28466582,-0.17491709,0.056387708,0.20048004,0.12113383,-0.2809731
-0.14234841,-0.08944385,-0.24449562,-0.1255597,0.20613568,0.19007802,0.002686183,0.038823172
-0.20960431,-0.16793038,-0.10052487,0.01170459,0.061616458,0.107024506,-0.11713734,-0.060766023
-0.12628752,0.09945424,-0.14866519,-0.2737046,0.0022892712,0.0772823,-0.0550224,-0.35275653
-0.050955642,0.20766641,-0.00027272612,0.14233829,-0.043882173,-0.12055365,-0.26572087,0.28657222
-0.34175804,-0.069604315,-0.15859473,0.07043406,0.08829627,-0.49417323,0.053999577,-0.019014036
-0.22395411,0.015490777,0.0635691,-0.44432104,0.039270107,-0.5077385,0.1834462,0.07870386
-0.22072072,-0.83751965,0.29289052,-0.17373088,-0.029256666,-0.2167364,0.09094997,-0.15371448
-0.07957059,0.061132725,0.23937862,-0.2290212,0.055451233,-0.31909934,0.065396026,0.0047070896
-0.2315989,-0.3728828,-0.40146494,-0.07058865,0.18820558,0.30195734,-0.5584691,-0.050074894
-0.40637657,-0.69049186,-0.18763489,0.12286285,-0.14333835,-0.47744563,0.4305807,0.7453302
-0.47493637,-0.5704514,-0.3258109,-0.39201862,-0.23701951,0.23380674,-0.29253986,-0.040592104
0.5695913,-0.13312167,-0.62265724,-0.26479056,-0.15451892,0.1634731,-0.18460569,0.54052776
-0.06546637,0.03968312,0.37268582,-0.36743143,-0.3289053,-0.36712766,-0.53013694,0.4679365
0.0489735,-0.07865679,0.015057683,-0.0186079,0.08333847,-0.05448136,-0.025023468,-0.060169294
0.032031536,-0.036307503,0.021883719,0.06748095,0.04080619,-0.050391313,0.045088828,0.0049737617
-0.041111328,-0.008858182,0.056805626,-0.06712791,0.01805979,0.051020727,0.035623074,-0.0045693517
0.00771995,-0.053278208,0.40368128,-0.072341524,-0.035911374,-0.272078,0.26886567,-0.0155280605
0.042050693,0.015685176,0.8293906,-0.17456044,-0.9748899,-0.68244016,0.78128946,-0.037794396
-0.62376165,-0.09207992,0.41973555,-0.09637433,-0.421145,-0.064553134,-0.4197447,-0.22241655
-0.69269973,-0.31006104,0.7575939,-0.46647823,0.09447024,-0.1553848,-0.45630544,-0.13277316
-0.21370982,-0.2940748,-0.045832645,-1.1841778,0.27655116,-0.019348994,0.028219804,-0.42832834
-0.082661904,-0.016983153,0.13534336,-0.5745864,0.36009088,-0.30183914,-0.294631,-0.7836362
-0.22689696,-0.36209363,0.06422746,-0.27877486,0.11516018,0.104118384,-0.27187315,-0.30051687
-0.3213862,-0.39046186,0.16671124,0.17334862,-0.02785077,-0.07955613,-0.37294284,-0.10624604
-0.2078633,-0.5049992,0.027307848,-0.21442369,0.24925537,-0.11888922,-0.17226908,-0.68866813
-0.11732815,0.044804037,0.22518913,-0.2835659,0.04891308,0.1107175,-0.21238057,-0.8256984
-0.057707313,-0.53132176,0.20004076,-0.14424232,0.24340256,0.0405936,-0.15763162,-0.40331677
-0.09300769,-0.11314492,0.27086976,-0.840159,0.029346172,-0.06304156,-0.24084763,-0.5091521
-0.10480427,-0.34562495,0.14119108,-1.4421892,0.06335971,0.10214541,-0.05409707,-0.3580582
-0.042412214,-0.19715467,-0.130595,-0.54063725,0.053795453,0.083451085,-0.11686322,-0.760308
-0.3762386,-0.43106043,0.090177186,-0.891213,-0.09943973,0.0577498,-0.13403232,-1.1268697
-0.051165793,-0.83164346,-0.08328732,-0.9947277,0.27925467,-0.12670869,-0.020117648,-0.77856183
0.10517253,-0.6363155,0.15970236,-0.67819333,0.13585441,0.08483856,-0.18349908,-0.6701501
-0.24669363,-0.5067872,0.013889205,-0.34754857,0.17543267,0.032285944,0.063613884,-0.81368846
-0.49449235,-0.59238523,0.1907832,-0.24726072,-0.22080658,-0.31627378,0.21421634,-0.24938032
-0.57951087,-0.4731397,0.25705025,0.17281614,0.2121023,-1.2889892,0.40027508,0.07832525
-0.26971856,-0.4546068,0.35574132,-0.26750246,0.572096,-0.65050286,0.29258433,0.59164923
-0.15927869,-0.5506474,0.6706471,0.42500514,-0.15166306,-0.65220577,0.13718662,1.1816185
-0.28634262,-0.06273971,0.21380861,-0.061637975,-0.66508657,-0.26079774,-0.17133428,0.7184509
-0.13106222,0.03223771,0.55355895,-0.022761516,0.109338924,-0.66313213,0.20878437,-0.04054844
0.0015784726,0.019141905,0.31553236,-0.06858316,0.06882191,-0.5014666,-0.42219242,-0.051674075
-0.04065554,-0.053942733,0.07674734,0.024286367,0.035340227,-0.032946937,-0.037510745,-0.034915645
0.06297381,0.025468677,0.0077447295,0.047192454,-0.007918239,-0.02652977,0.061884254,-0.08619729
-0.04910973,-0.02112975,0.033274375,-0.075479835,0.080246046,0.020643204,-0.0043305606,0.07076824
-0.03467694,-0.07825865,0.081884906,0.0624097,-0.07618016,-0.0020157173,0.05615878,-0.00031860173
-0.007563837,-0.06609456,-0.077457145,0.03457295,0.23527086,-0.2705008,0.5945457,-0.078376696
-0.27872115,0.15460804,-0.874803,0.07128494,0.9302925,-1.0388013,0.33023477,-0.15603387
-0.5024685,-0.42814538,-0.013833487,-0.18962935,0.44338965,-0.98905957,-0.13306941,-0.6127431
-0.4124185,-0.33515164,0.31913903,-0.578987,0.09397849,-1.1320555,-0.011648985,-0.7004524
-0.80453926,-0.30036718,0.49678737,-0.38460204,-0.3043313,-0.66704696,0.41765893,-0.66024333
-0.50465757,0.012237584,0.39663115,-0.3392924,-0.52493364,-0.028992519,0.2010135,-0.5921585
-0.4543526,-0.046977937,0.24800502,-0.69930464,-0.17899702,-0.41746214,0.10872604,-0.9526512
-0.553684,-0.3780263,0.11346656,-0.3434498,0.06098716,-0.14928836,-0.005940084,-0.7742255
-0.30152124,-0.2347723,0.04802927,-0.6129298,0.033102755,-0.5170699,-0.18998009,-0.6415121
-0.30895895,-0.48778307,-0.028442329,-0.81200737,-0.03290085,-0.47007337,-0.24990785,-0.8398037
-0.7130433,-0.72037613,0.018203055,-1.0035955,0.2613495,-0.479754,-0.15878697,-1.267728
-0.6281103,-0.2170167,0.0984024,0.06287486,-0.16187483,-0.4454726,-0.11386389,-1.3211273
-0.14988703,-0.51126254,0.12830107,0.066920646,-0.09491052,-0.55300224,-0.20233521,-0.79359967
-0.6012538,-0.52122927,0.2674071,0.015880149,0.010860295,-0.478283,-0.23469765,-1.1217229
-0.45473444,0.029274248,-0.011012577,-0.3736968,-0.2661325,-0.5929177,0.05761262,-0.72664803
-0.6472115,0.3480991,0.52980334,-0.22403234,-0.64215285,-0.5084457,0.07049936,-0.7911001
-0.35223994,0.54789144,0.1938201,-0.12774797,-0.038835373,-0.32143593,-0.069425285,-0.8172646
-0.59129995,-0.2771561,0.064471915,-0.048142992,0.37477008,0.086151615,-0.2190948,-0.41323823
-0.9279809,-0.47091386,-0.07736396,0.31647432,0.27081022,-0.43389308,-0.0216383,-0.10568802
-0.68783057,-0.07446989,0.17774534,0.19003132,-0.30722022,0.39961478,0.08503863,-0.12433326
-0.6006973,-0.1746099,-0.37158245,-0.2782611,0.03330811,0.25993323,0.42680657,-0.36345434
-0.027209088,-0.08038147,-0.25890702,0.07375462,0.055324882,0.0320227,0.23351365,-0.007758602
0.11352478,0.035042573,-0.25647882,-0.062235788,0.032118857,0.19395697,0.15185632,-0.04296595
0.08685599,0.06986219,0.05677183,-0.06295344,0.07001668,0.034937605,0.033999667,-0.001544714
0.028584376,0.035903446,0.03636457,0.027425535,0.00082641095,0.0066425726,-0.016705744,-0.07692156
0.019591533,0.010001227,-0.025725726,0.028826833,-0.0500813,-0.00101123,-0.04937894,0.03180968
0.056990236,-0.070121504,-0.08150212,-0.018916517,-0.043220963,-0.03624886,0.05050181,0.057173014
0.07834217,-0.030526813,-0.05315427,-0.07561979,-0.07944596,0.06744979,0.06981863,9.5292926e-05
0.05278389,-0.03239193,-0.0255025,0.0496805,0.044842795,-0.027870826,0.07236761,-0.058600735
-0.013478604,0.09947849,0.22168143,-0.04302114,0.077178866,0.15658806,-0.5280879,0.012058526
-0.50506663,0.1185804,-0.5288036,-0.028653031,0.08569821,0.17927237,-0.5181952,-0.0065316483
-0.8562841,0.1935031,-0.26023856,-0.08694478,0.04660572,0.0581001,-0.32332927,0.0032234476
-0.6102481,0.26854572,0.04641338,-0.15749675,0.09129378,0.3243503,0.066751964,0.04506967
-0.58237696,0.527449,-0.00407362,-0.23397607,-0.09201541,0.3102419,-0.16084357,-0.07585163
-0.97561496,-0.7609349,-0.3433368,-0.3276238,-0.14941086,0.48566544,-0.10170595,-0.09345967
-0.3428734,-1.0131357,-0.014736573,0.019375788,0.015938746,-0.06207406,0.101501524,0.00051378954
-0.6316657,-0.86232036,0.110520236,-0.37162203,0.17320904,-0.043807663,0.034680948,-0.06364196
-0.72343266,-0.36018237,-0.25538254,-0.08498423,0.1398318,0.11032757,0.23944376,-0.08714606
-0.030469507,-0.4642448,0.02683023,0.02213774,-0.10550841,0.5061891,-0.35829866,-0.41440105
-1.0495869,-0.9210649,0.14500943,-0.21325581,0.5501738,0.6589929,0.1914407,-0.38560858
-1.122092,-0.48794296,0.0032003538,-0.46518075,-0.34903473,0.83045167,0.45199707,0.051678866
-0.118652865,-0.51226676,-0.084915884,-0.2067196,-0.34164596,0.5452885,0.26451537,-0.06661245
-0.038420193,-0.40307903,-0.15300383,-0.25321734,0.100535214,0.5582204,-0.1544951,-0.42286432
-0.67837006,-0.42266706,-0.3453013,-0.0869413,0.49849895,0.0264812,0.14214772,-0.51091033
-0.037203606,0.3048264,0.23103908,-0.3011924,0.0061157304,0.44935334,-0.16841727,-0.33322585
0.30190405,0.18661118,-0.40455997,0.01934586,-0.7862259,-0.08231489,0.11312663,-0.08250428
-0.4493946,-0.09825583,-0.09221722,0.24757758,-0.6385225,-0.2592717,-0.27599233,-0.03181105
-0.044917468,-0.5602438,0.048408672,0.80896455,-0.53980243,-0.29727903,-0.96703225,-0.044650733
0.034401476,-0.47728384,0.14142652,-0.023882397,-0.0011998639,0.046112463,0.29117522,-0.07518203
0.0741577,-0.039922547,-0.05633847,0.012933277,0.013058446,-0.0527863,-0.058539726,-0.02273763
-0.06108826,0.03295754,-0.031841617,0.05023536,0.06581533,0.041125685,-0.009795435,-0.08543408
-0.04096279,0.058316186,0.03821473,-0.06326652,-0.010567933,0.05388604,0.06031263,0.047974154
0.02598425,0.031395704,-0.055953525,0.026970394,0.064352304,-0.059593663,0.055570975,-0.0042406693
8,1
0.55832326
-0.4688095
0.89280486
0.22690916
0.31296012
0.098966196
-0.07361974
0.3027306
8,8
0.17216434,-0.31553838,1.0623251,-0.30714697,0.11973599,0.16059816,-1.0279046,0.36163324
-0.35990667,0.108934194,-0.18490727,0.25022438,-0.36885744,1.0244353,-0.7775551,0.7445491
-0.032612205,0.26497716,-0.5901352,-0.42385083,0.056498215,0.33966738,-0.46492353,0.34520185
-0.95455945,0.31789222,0.23597546,0.42111543,-0.02500711,-0.5721056,0.17746417,-0.13956864
-0.52460843,0.70344806,-0.2549041,0.57663226,-0.15146953,-0.62110007,0.060485806,0.022145784
0.18512616,0.58910173,0.42828888,0.03682764,0.12739067,-0.03414946,0.31941208,0.76232797
-0.3468548,-0.4447484,0.14010197,-0.23867022,0.045803063,-0.05734328,0.09860209,-0.4646294
-0.123632595,0.7020602,0.6163766,-1.0389898,-1.0617821,0.5791165,-0.081904136,-1.2653364
8,1
0.811031
-0.00301046
0.485444
0.8222094
0.98492754
0.116803624
0.6149886
-0.30981678
8,8
0.06289021,0.07074112,0.13302438,-0.33070472,0.5746852,-0.59455466,-0.07359721,-1.093517
0.10410975,0.8554962,-0.36790594,0.0863428,0.15914819,-0.60731995,-0.36677605,0.36606506
-0.22374025,0.45005685,0.3709092,-0.96603525,0.27928483,-0.28462029,0.40081277,0.022269402
-0.7537539,0.5980772,-0.06454472,0.5513423,-1.2199523,-0.014303148,0.6879147,-0.15737395
0.8187381,0.08270876,0.18386935,0.29117244,0.085023716,-0.023325358,0.27434564,0.68265474
0.29106757,-0.27933845,-1.0746024,-0.11214677,0.45656446,-0.19923994,-0.08386888,0.1535284
0.9551146,0.2712571,0.67850703,-0.37953174,0.03265753,-0.4385142,-0.7465248,-0.27742594
-0.01015259,-0.6049458,-0.5928224,-1.4091455,-0.53313905,-0.13761145,-0.6598615,-0.23398334
8,1
-0.32888228
-0.39705682
1.2999153
0.5638658
0.79655164
-0.01992825
0.1840356
0.4779928
8,10
-0.39763898,-0.6579295,0.03874864,-0.0070341756,-0.501049,-1.3068736,-0.06956638,0.42332178,0.12687398,-0.06970289
-0.4771691,-0.00908277,0.09005747,0.04102236,-1.1715642,-0.03372184,-1.3921632,-0.46666217,-0.83527666,-1.2897413
-0.06925797,0.25878963,0.25078636,0.15112834,0.27203444,0.30882087,0.7758327,-0.23622255,0.8514459,-0.0020269263
-0.42865467,-0.29830152,-1.2547309,-0.1937309,-0.6386936,0.3087347,0.41195127,-0.6724032,-1.0608358,1.1331347
-0.51253843,0.5220521,-0.2922901,-0.6714609,0.48975977,-0.7223831,-0.50472057,0.3655653,-0.81889665,0.03313606
0.52779794,-0.119128555,-0.4052723,0.32191014,0.105870545,0.43430138,-0.13233012,-0.4621424,-0.16638803,0.013137271
-0.086797975,-1.8343467,-0.6674086,-0.7750708,0.5294903,0.2105514,-0.060241487,-0.9846431,-0.3596761,-0.05944446
-0.118028656,0.027716938,-1.5006692,0.7180453,0.13053726,0.055812817,-2.121034,-0.12140666,0.27168053,0.08374182
10,1
1.04481
-0.16405854
0.4601411
-0.30320072
-0.41044128
-0.05493379
0.46261677
0.045644976
-0.21199626
-0.040144257
