784,8
-0.03621248,-0.051080227,0.006160736,0.0106635615,-0.014505111,0.053585976,-0.0011793599,0.08671318
0.03424719,-0.06521408,0.0365244,0.028272934,0.012578256,-0.023543395,-0.013835989,0.022640012
0.072035596,0.028139167,0.058050305,-0.072423615,-0.038338967,-0.08433659,0.039406583,0.046224356
0.031310767,0.0056972057,0.04465337,-0.07878373,-0.078270294,0.043822914,-0.05697339,-0.03273788
-0.03631715,-0.06954187,-0.058199253,0.046942666,0.014914937,0.08390711,0.07221311,-0.06237806
-0.07005485,0.0185007,-0.056066625,0.0031424463,0.083926514,-0.056439552,-0.07909538,0.016979791
0.01095894,0.05310662,0.014609762,-0.069086805,0.07744792,-0.037844807,0.009200253,-0.038385037
-0.07319881,-0.019236617,-0.07488617,-0.07973899,0.073791265,0.06531629,-0.0055773854,-0.005236849
0.022238113,0.04007712,0.07573402,-0.024754733,-0.05110712,0.017966755,-0.01710131,0.015344761
0.064282045,0.05542393,-0.085766606,-0.045085877,-0.052058917,-0.07996674,0.08321045,-0.05741314
0.03441742,0.041209072,0.059741125,0.04106182,0.040234238,-0.054367207,0.041000575,-0.054221034
0.014428601,-0.08030774,0.029872924,0.015070282,-0.08688367,-0.0045208335,0.07890664,0.04059641
0.1359873,-0.04149959,0.033969667,-0.07671363,0.032267567,-0.29393893,0.053956144,0.29591644
-0.006679918,-0.0058996393,-0.081875354,0.040053308,0.12938835,-0.37696505,0.062341876,0.22233613
-0.20202062,-0.008084347,0.010998428,-0.06909824,0.17312256,-0.015024139,0.06387506,0.015434891
-0.14339063,-0.03345494,-0.048188604,0.029260442,-0.03299189,0.06644919,0.055634685,0.023932181
0.042179957,0.035370298,-0.018379532,0.08676478,0.021536417,-0.017659798,0.037540607,-0.06985877
-0.023545101,-0.030102503,-0.014194474,0.017786056,0.03188692,0.024984933,0.070405096,-0.0790738
-0.0065543354,-0.0059656054,-0.028053962,-0.06535713,-0.04097028,-0.00047256052,-0.07708359,-0.014617436
-0.049241025,-0.041636553,-0.0049218014,0.07331103,-0.08407006,-0.050078854,0.032729894,0.037479393
-0.058496356,-0.0684594,-0.07873908,0.0146770775,0.020179532,0.07424733,0.034734964,-0.04642411
0.05150585,0.051170886,0.013865083,0.017120503,-0.04744777,-0.049747676,-0.05722762,0.07931918
0.022562154,0.06605896,0.024308324,0.051099256,-0.036946986,0.04192415,-0.07340789,0.0063379332
-0.011867009,0.013891958,0.055523723,0.046134755,-0.010956779,-0.08179905,0.07201591,0.019082427
-0.015504174,0.053759262,0.04428281,-0.03241582,0.0830358,0.03254296,-0.07508414,-0.05457852
0.016421795,-0.007009499,0.011408381,-0.06514239,-0.060376912,0.04736422,-0.07811572,0.020896815
0.02941724,-0.08138767,-0.06391132,-0.025553487,-0.06969429,-0.045878902,-0.018075831,-0.06276655
0.073199704,0.026526801,0.03597697,0.07183848,0.0138577,0.07082264,-0.040035687,-0.010414496
0.080846265,-0.058350407,0.08308649,-0.059298366,0.03544423,0.038801357,0.054774225,-0.04857747
0.018867299,0.049443126,-0.018331073,0.020946011,-0.06913059,0.05280745,-0.04314244,0.05783327
0.025593951,0.06389049,0.08135913,-0.06545308,-0.0009562969,-0.05383115,0.03599131,0.03937383
-0.03202581,0.07945493,-0.045044478,0.08610891,0.05172324,0.055446833,0.021918334,-0.0093235
0.22849526,0.06767881,0.083743334,0.083761126,0.05940681,-0.009467513,0.0055563273,0.06670296
0.25407135,-0.096229725,-0.089440286,0.051982656,-0.030859731,0.0429603,0.14740318,0.11013966
0.053108018,-0.5393397,-0.30166373,-0.015962139,0.07071891,-0.0204123,0.1186102,0.3605394
-0.27459913,-0.47439495,-0.3374558,-0.011946777,0.13139315,-0.31582832,0.00417599,0.20121476
0.16063693,-0.5599652,-0.22261839,0.17930876,0.32066596,-0.584009,0.03766664,-0.18676731
-0.27570632,-0.70242804,-0.1853587,0.27773276,0.26129615,-0.9853822,-0.15516749,-0.4288821
-0.7180152,-0.7423108,-0.004980864,0.1469034,0.01425083,-0.96264756,-0.18220691,0.000264871
-0.18446292,-0.116576605,-0.6059731,0.495406,0.7078361,-1.1789584,-0.5504064,-0.3814752
0.22572005,-0.14615323,-0.5092725,0.71193403,0.7701148,-1.0218745,-0.83666337,-0.38795823
0.06499345,-0.035037972,-0.57630634,0.63597345,0.5490086,-0.6536179,-0.34392253,-0.2235414
-0.2302313,0.5468871,0.051816683,-0.37341002,-0.6983799,0.13656342,0.036792126,0.866896
-0.12340493,0.27843407,0.41751897,-0.41412267,-0.639937,0.12154018,-0.070933625,0.8505946
-0.2381754,-0.16637638,0.45409486,-0.68748945,-1.1611927,0.6032495,-0.3740298,0.5595211
0.8682216,-0.7248513,0.5114484,-0.36283168,-0.7795632,-0.15763041,-0.3572281,0.45982304
0.14421144,-0.7759649,-0.0105589265,-0.16522905,-0.21608461,-0.35201824,-0.17229117,-0.061546378
0.3165075,-0.89273506,-0.18006755,0.0028217721,0.017096695,-0.08454665,0.1361602,-0.08261492
0.43942496,-1.2033259,-0.19788192,-0.14392373,0.3770749,-0.11056608,0.15980023,0.08570296
0.33487406,-0.8559026,-0.14377156,-0.15436697,0.17594247,-0.44441137,0.33058393,0.11515958
0.47186327,-0.777146,-0.38126794,0.07865463,0.18886152,-0.23214523,-0.05067996,0.2217394
0.32200098,-0.39940977,-0.55389845,-0.07662101,0.0575565,0.022314508,-0.1312119,0.20372865
-0.017803751,-0.06886445,0.022630304,-0.02981086,0.05240713,0.058906227,-0.03609175,-0.0027434975
-0.024254866,0.0012102574,-0.065751515,-0.031815033,-0.031410564,-0.045582753,0.053434163,0.046039745
-0.03562307,0.003255792,0.032256007,-0.055915926,-0.065034375,0.0381698,0.0015561655,-0.076297015
-0.028277643,-0.032701485,0.010424025,0.08271682,0.008177407,0.040617213,-0.04875938,0.052472413
-0.060892675,0.081762284,0.03346224,0.010568872,-0.005305931,-0.08602538,0.086640134,0.049824163
-0.012356587,-0.04099871,0.0012303889,-0.034530226,-0.05186736,0.06174849,-0.048385162,0.08031319
-0.30596623,0.0023182705,-0.061555423,0.058698058,0.016150268,-0.070232004,-0.032080464,-0.17949145
0.14748527,-0.7814923,-0.7414123,0.29682332,0.29361552,0.031516276,-0.2528098,0.050201625
0.27640268,-1.0813943,-0.44167984,-0.097959384,-0.03990745,0.8711523,0.44077832,0.26952276
-0.08347472,-0.24260502,0.012191369,-0.32307816,-0.01949661,-0.122584224,0.012743822,-0.12992194
-0.39481667,-0.78702134,-0.18501006,-0.224121,0.31786057,-0.56243056,0.13994825,0.33573413
0.14466241,-0.6581685,-0.54389423,-0.43493167,0.44064698,-0.9923433,0.337414,-0.021362726
0.4277405,-0.6578108,-0.6761645,-0.6737276,-0.44960865,-0.9640772,0.7820442,-0.24922201
0.09810589,-0.808554,-0.7629816,-0.7807242,-0.0019366734,-0.42272857,0.2432435,-0.04677868
0.053066835,-0.967678,-0.61251694,-0.7280122,0.75159377,-0.5477802,-0.6328782,0.3114261
0.10976999,-0.7042344,-0.6371761,-0.71617997,0.080991305,0.13267726,0.05827469,0.10835573
0.1986652,-0.6800979,-0.6439138,-0.2703884,-0.5880268,0.23237349,1.0619234,-0.060320333
0.05646678,-1.1599016,-1.0807961,0.2077118,-0.3531548,0.12503947,0.71025115,-0.5099444
0.06152338,-0.9013652,-0.9690519,-0.59425306,-0.9195995,-0.16585301,0.47673294,0.5268456
-0.15337019,-0.14258936,-0.6889477,-0.37292394,-1.0542712,0.04194774,-0.00061601115,0.27269435
-0.07670885,-0.5729815,-0.57177824,0.42691725,-0.94137543,0.24053721,0.27951974,0.375538
-0.11834223,-0.8918753,-0.4231012,-0.009126116,-0.60991293,-0.6793264,0.6517302,-1.1337454
-0.3806464,-0.15014796,-0.09686787,-0.5339601,-0.20390078,-0.28353345,0.55582607,-0.52227813
0.012006045,-1.2200942,-0.1290435,-0.29466495,0.3083927,-0.60688585,0.63894343,0.23580505
-0.28831396,-0.69546807,0.051904183,-0.65757394,0.21291688,0.092197195,0.4673208,0.3408732
-0.10147938,-0.5428118,0.12822159,-0.78013223,0.18405591,-0.4438547,0.8252253,-0.18016413
-0.00710277,-0.61000246,-0.31794322,-0.19581467,-0.12691468,-0.5533492,0.45445925,-0.05800616
0.32056218,-1.1247293,-0.5688654,0.0973242,0.12130217,-0.31058112,-0.17476517,0.1601398
-0.26789576,-1.0547723,0.1467018,0.22507297,-0.28415078,0.30283338,0.1401732,-0.11846832
-0.6363151,-0.5426051,0.096612655,-0.2094443,-0.29978982,0.6409788,0.5923559,-0.40400964
0.0088524595,0.020908266,0.026104525,0.028520666,0.080168486,-0.074084595,-0.07918922,0.07165769
-0.017633528,-0.005712457,-0.051855177,-0.070552245,-0.064172,0.058943138,-0.07258543,-0.0225259
0.045780957,-0.015813857,0.053548798,-0.033322,0.011443801,-0.07235403,0.08314653,0.002847895
-0.054747567,-0.072195694,0.0058247223,-0.07271725,-0.07107774,0.013756514,-0.060656145,0.020909905
-0.32607564,-0.047521833,0.05455853,0.010559842,0.072740525,-0.004156054,-0.09823139,-0.1438898
0.3835756,-0.7671455,-0.95425767,0.31752992,0.22168508,0.057181682,-0.5322104,0.13913433
-0.22715805,-0.040700298,-0.6453181,0.21426052,0.25350723,-0.31635123,-0.36545208,-0.2139454
-0.23065461,-0.17587084,-0.013634472,-0.13424794,0.43104938,-0.22002171,-0.2730807,0.20463152
0.41320243,-0.49319527,-0.2495203,-0.6079996,0.13318193,-0.0875809,-0.5167387,0.12023438
0.45174298,-0.8312413,-0.72411704,-0.3125933,0.15197738,-0.25802505,0.02976949,0.122019015
0.19697806,-0.96456856,-0.37629893,0.19243167,-0.89340127,0.3962534,-0.17527358,-0.6331905
0.14068401,-1.2246164,-0.72336185,-0.3504284,-0.18646464,0.032609504,0.072838366,-0.19780743
0.044412024,-1.4012133,-1.2564977,0.013084209,-0.38692048,0.1078643,0.12740812,-0.014828647
0.14220472,-0.85838157,-1.1564234,0.41521728,-0.4575215,0.20306167,0.41367042,0.66925263
0.04718416,-0.7622001,-1.0959996,0.15609106,-0.54332435,0.35129356,0.21755205,0.6769861
-0.036860485,-1.0704911,-1.4884856,-0.17378539,-0.044879038,-0.043573387,0.34539604,-0.12195054
0.112459116,-0.7305251,-0.865686,0.07932587,-0.30103424,0.25068,-0.17859235,-0.11238216
0.19318946,-0.57077426,-1.087697,0.19097623,0.24166839,0.05101655,-0.05367271,0.10028162
-0.09905834,-0.2705317,-0.6647671,0.25373876,0.056291826,0.30789423,0.11314202,-0.19485341
0.05108164,-0.4320438,-0.34194475,0.110221624,0.42095128,0.025850646,0.007968317,0.03252837
0.21377341,-0.02560549,-0.7218956,0.14246076,0.17303193,0.32456866,-0.16238378,-0.14049014
0.1322223,0.35858098,-0.46908593,0.06438716,0.008411409,-0.40976563,0.19889462,-0.6992058
0.10244112,-0.023216052,0.10117716,0.37923455,-0.0020651883,-0.1790727,-0.33656913,-0.31736276
-0.051267583,0.26203278,0.09355925,-0.36995783,-0.38602138,-0.16525464,-0.114468865,-0.59576
0.22692859,0.22066757,-0.17997925,-0.33317357,-0.0050734626,-0.4351359,-0.34041268,0.3526171
0.3982807,-0.23807243,-0.08478986,0.22679965,0.4157015,-0.97516674,-0.6149692,0.39431795
-0.014626014,-0.6103214,-0.3625744,0.48720226,0.010727095,-0.3503014,0.09486488,0.29082927
-0.7862117,-0.28015873,0.16106783,-0.26270506,-0.39459532,0.32350048,-0.52758336,-0.24049363
-0.022780392,-0.0075542387,-0.017844282,0.0721824,-0.44757667,0.5145337,-1.0166581,-0.06921809
-0.07530249,0.074324876,0.059696987,0.08183123,-0.030953094,0.006874077,0.0034389645,0.04367651
-0.014608242,0.06444055,0.036320657,-0.055528514,-0.051233914,-0.027724799,-0.073942885,-0.035094485
-0.08611135,-0.021211572,0.0010148808,-0.04676624,0.037050188,-0.17152072,-0.041351605,-0.006284917
0.07130715,0.064871654,0.07212554,0.23288244,0.0957343,-0.17057887,-0.011795718,0.027168714
0.059440527,-0.05688112,-0.19357364,0.6223612,-0.1741335,0.41262,-0.64399195,-0.34689006
0.19695553,-0.002090526,0.07876807,0.17382278,-0.18493071,0.15350996,0.05107983,-0.052277703
0.043803282,0.030696437,-0.25996277,0.34179738,-0.34008038,0.35898185,-0.09443837,-0.1740488
0.0023189827,-0.4257661,-0.5962246,-0.32877484,0.5179346,0.27468458,-0.19599475,-0.23328339
-0.01080801,-0.35442603,-0.70584565,0.41951585,0.07909256,0.5789086,0.17353188,0.017383948
-0.16104802,-0.39502853,-0.30213177,0.6380121,-0.14909425,0.4128153,0.32058907,0.22361043
-0.21083207,-0.33287287,-0.90890175,-0.034113392,0.25497362,-0.12623456,0.18208222,-0.04369385
0.09100964,-0.35031646,-0.8273131,0.23044224,0.15592106,-0.04543548,0.0560152,0.3198172
-0.39578605,-0.4182129,-0.457627,0.33547682,-0.043762013,-0.09782711,-0.10721657,0.0007981407
-0.34117782,-0.23652686,-0.52131796,0.062339358,-0.006242974,-0.08897547,0.07343418,0.0768247
0.022259612,-0.19125885,0.0864898,0.16410796,-0.16612788,0.099815875,0.19319588,0.22120818
0.2189072,-0.33984345,-0.19703892,-0.23041292,0.033194087,-0.17977764,0.12752241,0.049272127
-0.049833693,-0.057959273,-0.41777506,-0.005705,0.028669802,0.12887976,-0.04039662,0.085788496
-0.07711739,0.036887772,-0.40452623,-0.044546377,0.1890242,0.1211302,0.043583907,-0.10889739
0.089471504,-0.24956073,-0.7148207,0.042832162,0.084125265,0.052952792,0.1504803,-0.19505599
0.1250865,-0.2699583,-0.15673108,-0.06287559,-0.041385766,0.21240914,-0.09250421,0.05937767
0.095035076,-0.15593188,-0.33294216,0.04367667,-0.041167557,-0.11232704,-0.16577317,-0.20229189
0.12044949,-0.10731207,-0.04652203,-0.12170119,0.12652746,0.17235428,-0.0042287484,0.10394453
0.019151878,0.25639206,0.1847155,0.22884415,-0.09667262,-0.07809245,-0.04048996,-0.28099188
0.27004272,0.28928682,0.17372605,-0.06794553,-0.15833402,-0.12160144,-0.04673747,-0.429237
0.32278535,0.29259038,0.10608764,0.06505931,-0.05473101,-0.31200483,-0.14703728,-0.12583293
-0.29258567,0.12197756,-0.12814216,-0.05446688,-0.21142207,-0.111516386,0.06784985,-0.6204689
0.0073798196,-0.53905153,-0.40897524,-0.50534034,-0.81631404,0.5632998,-0.2309677,-0.6132211
-0.036436483,-0.57097465,-0.36666444,0.13883933,-0.4206483,0.10028005,-0.4349221,0.042206336
-0.012297109,-0.19121245,-0.13724893,-0.0700746,-0.016393367,-0.09847438,0.04840748,-0.004538141
-0.017677374,-0.023243412,-0.067681044,0.018869229,0.073067605,-0.04060781,0.02395901,0.06601708
0.017934926,0.04086341,-0.07154499,-0.07941554,0.07855028,0.04465893,0.046472043,-0.08236682
0.4148149,-1.0036966,-0.32609907,-0.493078,0.14658363,0.21493798,0.13560234,0.2832086
-0.8796775,0.13991646,-0.63287324,0.5769359,0.4910616,-0.61955047,-0.33723104,0.12312234
-0.16617684,0.49197716,-1.3301517,0.30136195,-0.30868068,0.062066272,0.07532464,0.73264426
0.011458384,0.36603156,-0.13706723,0.09613462,0.02546209,-0.022601789,-0.27205503,0.7636971
-0.38854533,0.0029532567,-0.35406566,-0.025853943,0.47507256,-0.19974262,0.14880441,0.061080385
-0.66568863,0.009343046,-0.41522852,0.11420046,-0.14693566,0.63538873,-0.031996474,0.24342074
-0.0513442,0.01285139,-0.16920549,0.08788127,-0.11008058,-0.12640636,0.26084426,-0.112042025
-0.36466822,0.20506394,0.222893,-0.032014187,-0.18563762,-0.06925253,-0.11958083,0.17548913
0.116886236,-0.15494788,-0.03814607,0.092906296,-0.26958454,0.08697604,0.30070093,0.19235887
-0.56613404,-0.1770226,-0.21460225,0.089887135,0.050698575,-0.031880498,-0.00087917387,-0.2297715
-0.2674125,-0.06643769,0.015884703,0.011981979,0.14832203,-0.021418467,-0.057505157,-0.10780769
-0.5655227,-0.26550698,0.09208733,0.17956181,-0.012311543,0.07119377,0.075538464,-0.004520065
-0.14893974,-0.12057076,-0.30232394,0.025294648,0.10739365,-0.009004796,0.019802071,-0.07411913
-0.22157581,-0.1137906,-0.16434267,0.21283045,-0.031453468,0.015715053,-0.001819961,-0.06900458
-0.27384394,0.08958462,-0.16146442,0.21178772,-0.18394415,-0.097795434,0.057323884,-0.04578136
-0.03091928,-0.06544068,-0.33623722,0.11860696,0.025026618,-0.11929659,0.056050915,-0.26364222
-0.1034712,0.19314621,-0.09790282,0.09026937,-0.037329257,0.038588103,0.0704881,-0.10747726
-0.07207988,-0.11923328,-0.3243327,0.073222175,-0.03681373,-0.15153047,-0.1198648,-0.026287712
0.029518314,-0.2003856,-0.10735169,-0.33621752,-0.050709143,0.088545196,-0.07764974,-0.20694253
0.29899395,-0.13469969,-0.45227772,-0.046786264,0.1632377,0.039516002,0.073139876,-0.4512452
0.228917,0.07496902,-0.30746,-0.024769884,-0.0067093247,-0.079823785,-0.106846586,-0.07045105
-0.04387954,0.02474319,0.2137392,-0.36000153,-0.18199323,-0.02789955,-0.15033455,-0.36414602
-0.2510638,-0.28663173,0.01750538,-0.1880549,-0.2925253,-0.10852819,-0.10275276,-0.63525075
-0.31585485,-0.30819896,-0.27127132,-0.71936804,-0.041873038,0.43534556,-0.44506428,-0.6268023
0.012819838,-0.4568398,-0.47652403,0.48969936,0.056188524,-0.018481912,-0.6982964,-0.08005002
-0.022881968,0.08643962,-0.085793614,-0.08863064,-0.2340953,-0.1421248,-0.39528137,0.01691653
-0.0404303,0.05159983,-0.0039906725,0.042808384,-0.03751079,-0.067608915,-0.03358422,-0.012676038
-0.05497527,-0.0020869523,0.036379714,-0.06404907,-0.018056702,0.00048583772,-0.045005884,-0.07254175
0.19616166,-0.38109815,0.48193887,0.3020914,0.32644594,0.2977878,0.42949295,0.07806667
-0.83776575,-0.392408,-0.20180844,0.4545901,0.32595202,0.39193022,-0.09886767,0.17177702
-0.036144763,0.24649218,-0.14933385,0.1418658,-0.48057848,0.28213975,-0.06052049,0.34776995
0.08582967,0.35058907,0.17634323,0.32927227,-0.17773831,0.19279604,-0.39215884,-0.21221125
0.0032914001,-0.062742256,0.26839995,0.14149539,-0.08235518,0.15686552,0.13649091,0.12875715
-0.007380682,0.14343828,0.21849778,0.11265961,0.15375485,-0.17982702,-0.11979739,-0.34873486
0.16377072,0.03608705,0.28355747,0.23499973,-0.115747295,0.027306875,-0.07966482,0.019858338
-0.06889679,0.19649285,0.15531078,0.020309415,0.035500657,0.035065275,0.046084758,0.07597025
-0.19714034,-0.07553517,-0.038230065,0.14437194,-0.23019913,0.036257066,0.15147637,0.13559946
-0.076471366,-0.3613849,0.08509937,-0.027624989,-0.04062074,-0.031004868,-0.08852812,0.06790071
-0.36070028,-0.21389022,-0.0017985508,0.032108117,-0.037733708,-0.026654795,-0.018129162,0.058148585
-0.3614916,-0.2805072,-0.11037024,-0.14794813,-0.010064269,-0.06117281,-0.019628005,-0.072292194
-0.22921723,-0.34672606,0.047005843,-0.13752596,-0.09801683,0.031133145,0.07276938,0.13008459
-0.18082978,-0.30329102,-0.07420566,-0.09263223,0.03476301,-0.026491798,0.08237271,-0.12752827
-0.27716625,-0.35547373,0.054366644,-0.10556574,0.008215365,0.017524539,-0.02455785,-0.025833987
-0.29554233,-0.19760747,0.02586995,-0.11023185,0.0636711,-0.056636177,-0.086770296,-0.006427462
-0.22802913,-0.33476454,0.045450192,-0.052972935,-0.14946374,0.053858783,-0.05671878,0.09643397
0.17831084,-0.17871282,-0.19763169,-0.24209756,-0.031608827,-0.11011703,0.014123574,-0.22063631
-0.11002016,-0.03825047,-0.16674978,-0.034858316,-0.024485182,0.08258557,-0.002427423,-0.55841947
0.055710535,-0.008259421,0.16611396,0.10459604,-0.0043464405,-0.14209287,0.09293437,-0.22121732
-0.5379789,0.2441712,-0.12549387,-0.077469066,-0.19744755,-0.22292502,-0.0088536795,-0.539684
-0.9981571,0.3420826,-0.24867159,-0.18405336,-0.14444576,-0.31739452,-0.23505712,-0.30255508
-0.72156405,-0.23111667,-0.26250857,-0.122674696,-0.40673652,-0.37194553,-0.5827983,-0.7711282
-0.35501507,-0.34792957,0.048282616,0.21041563,-0.3517794,-0.7537595,-0.60129976,-0.5529681
-0.03981362,0.1317497,-0.11634638,-0.44303414,-0.43822443,0.5082434,-0.4734282,-0.6607111
-0.4236563,0.122989416,0.016623002,0.14596266,-0.41382518,0.5031916,-0.6810481,-0.22851893
0.083816275,0.068456054,-0.38103932,-0.13259149,-0.028211,-0.30364627,-0.048917588,-0.012662008
-0.04679152,-0.7118443,-0.19343694,0.80089605,-0.5601595,0.29857293,-0.15211697,0.6299272
0.26111692,-0.57534933,0.50475615,0.07027015,0.1704409,0.40498707,0.44553253,0.18141787
-0.7934833,-0.30379218,0.5425031,0.8595184,-0.3110662,0.09481598,-0.35961628,-0.09244772
-0.10185242,0.1695144,0.05391158,0.08219508,-0.34689066,-0.2938798,0.10693498,0.23692861
-0.022547392,0.4448206,-0.07573248,-0.0677661,0.054847762,0.014583365,0.08784758,0.13063712
-0.022996455,0.07612411,0.020848285,0.08345831,-0.0005509428,0.3387736,0.033100057,0.028696524
0.33648714,-0.2262127,0.12906702,0.019666364,0.030946901,0.1224495,0.08156258,-0.03168754
0.21996082,-0.08087849,-0.059173837,-0.085844554,0.041032564,0.020532997,0.0043082703,-0.15688841
-0.014692166,-0.014476345,0.12161055,0.08643029,-0.10776769,0.04361871,-0.042108037,-0.2858279
0.03992409,-0.16089657,0.08769178,0.027778361,0.09542646,-0.087938525,-0.007776761,-0.029544026
-0.050171047,-0.09126916,0.07816377,-0.015748443,-0.114836715,0.0068994947,0.07343973,-0.03646176
-0.3712779,-0.30265352,0.16250572,0.19441824,-0.1559002,-0.14038417,-0.06979982,-0.03555515
-0.19907503,-0.22885032,0.18222515,-0.013621404,-0.16826682,-0.067398176,0.044858653,-0.08682187
-0.18002026,-0.484555,0.08135012,0.049292654,-0.2525619,0.05929028,0.027919987,0.13273415
-0.13475022,-0.3638197,-0.023175139,-0.12015288,0.0062118974,-0.07329723,0.013820872,-0.17210801
-0.27519011,-0.23367755,0.19888139,0.008172645,-0.05039239,0.11314311,0.035866268,-0.032183778
-0.24418029,-0.18139376,0.03846874,0.10709583,-0.017187033,0.01656216,-0.063436024,-0.061556943
-0.07794624,-0.09169669,-0.0345109,-0.0270942,-0.026439564,-0.020371802,0.050894212,-0.059401765
-0.87420225,-0.1037525,-0.09837133,-0.016060561,0.05047071,0.17858289,0.09419596,-0.022251757
-0.7701019,-0.2786613,0.14920928,0.046924874,-0.11420504,-0.04416182,-0.06565686,-0.32688034
-0.80103284,-0.05505837,-0.095580675,-0.20684919,0.04912858,0.029805064,0.0132560255,-0.9982006
-0.8484188,-0.23796502,0.010845245,0.067564085,-0.17166416,-0.040879715,-0.12986559,-0.5044165
-0.68383706,0.10572882,-0.16514473,-0.094363235,-0.23485787,-0.3853404,-0.20844194,-0.6432939
0.103199415,0.17354386,-0.39398867,-0.12993044,-0.42073274,-0.086007215,-0.53032064,-0.82356685
0.42330956,0.011783493,0.062817596,0.050077118,-0.24161823,-0.72791743,-0.7474633,-0.4422694
-0.35169196,-0.23277919,0.07921888,0.021266533,-0.17519203,0.46391594,-1.1395898,-0.070169
-0.7459022,0.120165095,-0.038276106,0.08582507,-0.35803,0.4817197,-1.0816019,-0.4329864
-0.07408802,0.062069207,-0.3507698,-0.26364422,-0.005086659,-0.45867306,0.065626465,0.042213112
0.06794104,-0.7111771,0.2965025,0.50053227,-0.6823521,-0.9339218,-0.044671547,0.46383643
0.23815511,-0.0834268,0.16907263,0.094250254,0.35237557,0.09544852,0.64963573,0.06417413
-0.769351,-0.18932077,-0.12915367,0.281723,0.042227354,0.02568722,-0.2659382,0.6285551
-0.030020801,0.1368184,0.10360095,0.093045086,-0.20032729,0.36213174,-0.026201446,0.3868663
-0.08504173,0.39253497,0.23518814,0.020022843,0.06481187,-0.11096448,-0.023179475,0.06420952
-0.18767512,0.020771936,-0.05258254,0.21526283,0.25649542,-0.08213342,-0.18920071,-0.117029734
-0.3561142,0.19798766,0.11886901,0.11132653,0.1420675,0.22611067,-0.05102199,-0.10653771
-0.24090277,-0.056973446,0.29479146,-0.017942568,-0.059783358,0.04240067,0.045547284,-0.037684146
-0.12722059,0.10560946,0.13804814,-0.043418888,0.14273474,0.17687641,-0.02757507,-0.024515893
-0.36692584,0.015067187,0.13406894,0.024848033,0.11352406,0.11822101,0.021714892,0.065793656
-0.23425092,-0.18775874,0.10851311,0.048048027,0.015364465,0.1562675,0.10887363,-0.14412278
-0.24393198,-0.2954109,0.014044495,0.022375682,0.13852005,-0.035072144,0.062133778,-0.28080988
-0.31908098,-0.13639274,0.021071466,-0.029885575,0.021565517,-0.16277313,-0.016635444,-0.010352165
-0.37551013,-0.36912888,0.17706618,-0.00951945,-0.15580446,-0.08300498,0.097230405,-0.15219614
-0.34709144,-0.25503004,0.012672817,0.003536377,-0.022963542,0.00049420685,0.179516,-0.020566074
-0.543465,-0.38872477,-0.0784455,0.09755412,-0.06040508,-0.15456147,0.0947079,-0.2593045
-0.25610682,-0.16535479,-0.010501184,-0.01622142,-0.043447696,0.13419504,0.00025800912,-0.039759338
-0.59161484,-0.106059305,0.114775546,-0.0010027395,-0.061925642,0.07605033,-0.094721094,-0.012756998
-1.0150431,-0.08626881,-0.08957979,0.07244396,0.019574214,0.18609554,-0.1569414,-0.095817395
-0.40889966,0.06633433,0.025720568,0.08126979,-0.15326916,-0.02515047,-0.07185829,-0.5376792
-0.95348907,0.011431639,-0.05509084,0.006900144,0.12952551,-0.104761735,0.031015854,-0.8690496
-0.91443646,-0.18843956,-0.1662477,0.02699564,-0.18330884,0.18082759,-0.17889985,-0.26034006
-0.9705089,0.13508731,0.06169427,0.20779139,-0.09525255,-0.5359805,0.2878284,-0.36159453
-0.71331,0.091256365,-0.43441564,0.0018291613,-0.3202561,-1.8064839,-0.6216045,-0.8433473
-0.5418559,0.33767736,-0.23341693,0.5145761,-0.11822841,-1.0828736,-1.6063821,-0.41104138
-0.7162619,-0.26919988,-0.20138426,0.2900038,-0.16425791,0.14346068,-1.1186566,-0.22179191
-0.54198337,0.21910681,-0.53090775,-0.27936202,0.03967496,0.01251195,-0.91780597,-0.29473445
-0.049769487,0.05379218,0.046231292,-0.040761955,-0.081957676,-0.34754777,0.034859985,0.020838259
0.08333327,-0.2429755,-0.05127514,0.34907094,-0.12247534,-0.014071926,-0.013941582,0.10469566
0.17437008,0.040928144,0.5814388,0.61977,-0.55636847,-0.17373458,-0.15164365,-0.33634007
-0.49325287,-0.49781597,0.25224867,-0.20258169,0.2605246,-0.13387965,0.38150695,0.18184254
0.15204266,-0.051987007,0.13771339,-0.099390216,-0.40231073,0.3372008,-0.090152316,0.39545453
-0.0772397,-0.08543253,0.28556243,-0.13352457,0.22551006,-0.22422653,0.32157803,0.24949424
-0.17803966,-0.2112189,0.09942436,0.16254626,0.02903588,0.05005233,-0.06299111,0.14611404
-0.11422757,-0.014918603,0.06272136,0.05158904,0.16598816,0.103285655,-0.07371591,-0.043830175
-0.24137507,0.047916975,0.064806126,-0.12360825,0.2226402,-0.0131922765,-0.16141184,-0.26457104
-0.12601101,0.05027109,0.086592436,-0.052455254,0.14616875,0.19673519,0.03618805,-0.20218645
-0.062510505,0.044968788,0.07486378,0.0019059704,0.045444317,0.08857387,0.039212663,-0.46212772
0.012058402,-0.031707067,0.03711103,0.098468736,0.046064705,0.033967085,-0.13209017,-0.17839879
-0.030569471,-0.19714041,0.11648708,0.15390737,-0.02237927,0.19213867,-0.08848396,-0.16432965
-0.32142168,-0.028676657,0.19245563,-0.01867825,-0.027486356,-0.07424618,0.05793946,0.28979427
-0.04771528,-0.4052151,0.087317295,0.22632354,-0.004144516,-0.060581032,0.19104584,0.5624891
-0.21444795,-0.4476531,-0.004313312,0.11547971,-0.29532224,0.13692187,0.12927245,0.4482027
-0.35791668,-0.11953133,-0.10357622,0.14864965,-0.044194773,0.08921551,0.1903686,0.31326514
-0.5684273,-0.1707531,0.096613094,0.0060724677,0.16437559,0.15084791,0.1741696,0.019591466
-0.68756235,-0.004463536,0.021539269,0.13892542,0.11032621,0.1754276,0.035701353,-0.023483042
-0.46987545,-0.051589243,0.027296176,0.066378176,0.030493595,0.052036013,-0.055351082,-0.036321875
0.23325425,0.025483076,0.020697033,0.15584014,-0.05257694,0.14216554,0.041785564,-0.85848653
0.0640912,0.2041957,0.07875647,0.26883,0.062989324,0.1603699,-0.17940117,-0.7278474
0.011878045,0.12620322,-0.10794195,-0.012106292,0.10254597,0.23285997,-0.2918265,-0.27453324
-0.3402744,0.20939991,-0.20620632,0.23720409,0.001428858,-0.16599663,0.3128443,-0.24114712
-0.4829895,0.47722223,-0.08408776,0.12725663,-0.079602025,-2.4608319,-0.37496153,-0.24055448
-0.68508214,0.022660239,-0.79264635,0.26313743,0.09177148,-0.88428,-1.3972112,-0.50315326
-0.34106064,-0.31832567,-0.49923524,-0.45583153,0.61204815,0.2366871,-0.8510686,0.26537618
0.403027,0.11479274,-0.35233787,-0.15534288,-0.5666182,-0.14203368,-0.07242955,-0.1560214
0.014095724,-0.024370953,0.31041372,0.07147301,-0.057972327,0.05846508,-0.06855314,-0.030885417
0.0073349546,-0.24192084,-0.27128753,-0.5548343,0.18302245,0.0031788023,0.11705636,-0.1718743
-0.5267799,0.49961966,0.45344287,0.8439684,-0.94536835,-0.7582125,-0.40518954,-0.22507153
-0.78984326,-0.122140996,0.34932265,0.1279892,-0.48878992,0.3514549,0.024113767,0.1912304
-0.2744297,0.11523683,-0.19168182,0.018514438,0.0028574013,0.300565,-0.032528147,0.079114534
0.4031214,-0.22152641,-0.11695622,0.23333068,0.21993881,0.17093861,0.4326022,0.19774471
0.124298155,-0.060144655,-0.014452191,0.1893311,-0.13111824,0.25565606,0.038379133,-0.14329888
0.028744427,0.07340295,-0.17629777,0.13738808,0.12773138,-0.0042342143,-0.09841897,-0.022182824
0.07208376,-0.0598867,0.06632944,0.066365704,0.06325952,0.24092853,-0.11836327,-0.40523133
-0.046221536,0.10027686,0.1783583,0.06112663,0.058058742,0.028122826,0.16616619,-0.16758613
-0.07563028,0.03279784,0.07076877,0.04472962,-0.014867603,-0.3487957,-0.23968959,-0.027178349
-0.008384162,0.06400073,0.11787849,0.014100041,-0.05668865,-0.31133667,-0.101288944,0.008624623
-0.041781414,-0.022671983,0.20483743,-0.09765455,0.17676233,-0.7106199,0.13396265,0.00064304366
-0.036456805,-0.2784887,0.44750798,0.32077804,0.18307467,-0.77320033,-0.103746355,0.47952005
-0.007200644,-0.53726006,-0.055662535,0.40853184,0.28234342,-0.20976482,-0.020373655,0.6162124
-0.21129547,0.20744342,0.112527914,0.11199861,0.34604964,0.25955287,0.007550859,0.27373675
-0.17717606,0.15206116,0.145833,0.34598333,0.2450206,0.30850828,0.085753806,0.11819515
-0.19839777,0.078847334,0.08091788,0.20542279,0.25028443,0.22888976,0.26962674,0.11996397
-0.33049452,0.03617011,0.04295155,0.28414983,0.3718487,0.15638876,0.15196781,-0.14503849
-0.31273562,0.1811239,0.16642672,0.11921309,0.49456638,0.22493647,0.13691889,-0.09966361
-0.0009826588,0.051246338,0.042461213,0.15606448,0.46759218,-0.02373557,0.07487532,-0.70702523
-0.0717141,-0.14974904,0.122980416,0.39715418,0.33206376,0.086033344,0.02441169,-0.4221517
-0.20204265,-0.07813987,0.053375635,0.17655931,0.5862095,0.023710918,-0.19463266,-0.15773308
-0.038198307,-0.25467992,-0.3002463,0.35173908,0.13688628,-0.16238357,0.0021675471,-0.1633681
-0.38768476,0.050106667,-0.31134084,0.4694304,-0.3177914,-0.8509232,-0.22656971,-1.1247568
-0.6872822,0.19476472,-0.63131046,0.525322,-0.74117684,-0.05132438,-0.4906725,-0.6817873
-0.5105189,-0.5440889,-1.0498847,0.18038155,-0.33449435,-0.10225355,-0.35571522,0.09117087
-0.08297094,0.32764846,0.0673688,-0.17052701,-0.3211877,0.67906076,-0.16780336,0.20319133
-0.07186759,0.063014284,0.044982105,0.24981336,-0.13531533,-0.21229933,0.06444679,0.07737652
0.041194186,-0.09094531,-0.23289484,-0.5126494,0.29511547,-0.3369051,-0.08977055,-0.15184508
-0.37234592,-0.13935992,0.6197438,0.9013348,-0.5232643,-0.6838561,0.59348893,-0.5892514
-0.64426625,-0.1719713,0.73799366,0.4450332,-0.52747995,0.4033665,0.039440017,-0.1167977
-0.090797,0.10610361,0.25833,0.5163209,0.11277572,-0.02408163,-0.522948,-0.18134235
-0.009280534,-0.15362795,0.0054014125,-0.20479915,0.16428865,0.046388853,-0.12024804,-0.29059857
0.113857105,0.09375157,0.2902368,-0.09234134,-0.20853215,0.16018152,0.038768895,-0.17766808
0.03672217,-0.20781113,0.014214208,0.014300875,0.15219165,-0.51005965,-0.3750156,-0.19465348
0.07669837,0.05416406,0.09572095,-0.033142988,0.10659083,-0.67263526,-0.3778079,-0.25153714
0.008044988,0.08896069,0.16715589,0.14777033,0.2508958,-0.7387718,-0.30701914,-0.0074513825
0.06392188,0.17413619,0.28039253,-0.015757324,0.22428122,-0.4614202,-0.1331927,0.116844796
-0.029113526,0.16751371,0.29303265,0.15018669,0.30537376,-0.61795807,-0.12263913,0.0011814191
0.08003979,0.2535987,0.14467353,0.09114238,0.06606607,-0.4310252,-0.16714562,0.27054977
0.15520282,-0.19334888,-0.13157237,0.33365223,0.017723262,-0.3675389,-0.43061125,0.28409505
-0.10082161,-0.27342895,-0.048214085,-0.070989944,0.20637518,-0.17390573,-0.3874254,0.42314687
-0.29334864,0.2333198,0.34508577,0.050372414,0.20731,0.32214457,-0.26124963,0.19808353
-0.27584708,0.14620703,0.27771673,0.072713256,0.14013179,0.21932925,-0.17720234,-0.08897686
0.08790942,-0.0064887987,0.3076919,0.18660134,0.044490155,0.27065566,-0.15419509,-0.2809091
0.1368414,-0.024693983,0.17084113,0.05964002,0.13029155,-0.044977255,-0.015549796,-0.2798974
-0.21157238,0.12871176,0.06604643,0.1579535,0.28298315,0.123065315,0.19983818,-0.58426267
-0.08893839,-0.20407999,0.008941621,0.1233459,0.29350376,0.15813571,0.07312934,-0.5028859
-0.10934599,0.017422732,0.27409413,0.06827819,0.39481518,-0.110188626,0.26406685,-0.052897405
0.15251228,-0.06989156,0.12456267,-0.215362,0.72843206,0.22883867,0.22759704,-0.26535255
0.16211076,-0.24668592,-0.12817621,0.25064358,0.1317942,0.23570682,0.079093784,0.27955782
0.03717127,-0.36489546,-0.42718664,0.37622067,-0.026649553,-0.006397853,-0.018241612,-0.20557651
-0.61542016,-0.033194974,-0.18407927,0.4750847,-0.590001,0.22458598,-0.6890931,-0.2626182
-1.0778704,-0.15534586,-0.10204207,0.736555,-0.18907535,-0.47268513,-1.1891633,-0.27862254
-0.13176048,0.66432774,-0.44621193,-0.26090163,0.16008902,0.4266428,-0.032141916,-0.065190226
-0.0060293153,-0.010122918,-0.12320526,0.14727424,-0.023203254,-0.075570285,0.10875605,0.015327416
-0.31482854,0.141708,-0.9818361,0.15379657,0.64119714,-0.15654819,-0.59759116,-0.59226274
0.5403285,-0.41870612,0.7543718,0.46779323,-1.0748422,-0.19107723,0.27450243,0.14395788
0.47688246,-0.10705224,0.10627602,-0.17613493,-0.30049413,-0.096199475,0.6258553,0.3870143
-0.092428595,-0.123806275,0.4742215,0.28344774,0.29907414,-0.55456245,-0.4071708,0.0147616
0.2362987,-0.11903649,0.15663178,-0.07845835,0.025967719,-0.38288748,-0.08610178,0.019118313
0.010420933,0.05245149,0.31536305,0.04427021,0.10847051,-0.9449795,-0.569292,-0.33119366
0.098127395,0.023194904,0.48712453,-0.13655213,0.2320569,-0.86306983,-0.48032543,0.058956727
0.14386363,0.23151204,0.09225994,0.14998628,-0.013250635,-0.7000466,-0.19546638,0.26327989
-0.06214417,0.14951898,-0.038929418,0.07954608,0.108357236,-0.48855245,-0.14647916,0.0045336518
-0.14714697,0.2544419,0.0070871226,0.082876205,-0.05190782,-0.15552215,-0.18922526,-0.09051485
-0.036474355,0.26997712,-0.119123936,0.2252781,-0.07229847,-0.26696515,-0.20219794,-0.26485923
0.059472587,0.5864703,-0.3053724,0.08084611,-0.084061384,0.054029778,-0.105246484,0.20809504
0.079594016,0.09195559,-0.3631323,-0.30177012,-0.27040398,-0.13225906,-0.44813997,0.010296858
0.053373106,-0.40816987,-0.12546499,-0.5159438,-0.007167886,-0.12789467,-0.5823128,0.36342087
0.023296727,0.1430818,0.117785916,-0.27007547,0.08141115,-0.014121321,-0.2655289,0.009761644
0.11157224,0.10460157,0.2674794,-0.12618402,0.15100607,0.10853023,-0.18810709,-0.17093122
0.17217109,-0.20673339,0.24083112,0.073179886,-0.050579794,0.012697633,-0.1359343,-0.26849616
-0.060599472,-0.16188462,0.17580396,-0.13827509,-0.085970126,0.094766356,-0.09905724,-0.16922218
0.085700035,-0.18492198,0.15045768,-0.10142708,0.028559437,0.10078946,0.095634945,-0.0668046
-0.038694717,-0.1948081,0.060948286,-0.21681745,0.05554229,-0.093637906,-0.017646886,0.06021329
0.16484374,0.044599842,-0.040195707,-0.20502718,0.44936496,-0.28230402,0.17208895,0.068086796
0.16151494,-0.3671015,0.39767733,-0.14697741,0.7001544,-0.17251539,0.43694544,0.0024656332
0.19051589,-0.21360469,-0.2069297,-0.45856383,1.0885222,-0.22774185,0.4293863,-0.10533753
-0.19151138,-0.22685035,-0.7284237,-0.798801,1.2442192,0.11001229,0.6330312,0.067327686
-0.26114252,-0.30879954,0.07951867,0.20602413,0.134875,1.1270641,-0.12477669,-0.104480445
-0.2698144,-0.38268885,-0.08978731,0.71411866,0.15087657,-0.3869577,-0.29119492,-0.38068935
0.2134928,0.054065503,0.0015903362,-0.12723152,0.022641178,0.34480867,0.29648733,-0.08518917
-0.014049608,-0.035777193,0.023030499,0.057021596,-0.06995924,-0.013424349,0.075790316,-0.08841707
-0.43009534,0.32259306,-0.90545577,0.5961268,0.8082248,0.05523246,-0.68629783,-0.61833906
0.31924906,0.048706777,0.31554896,0.77748084,-0.39268178,0.759988,-0.23963866,-0.44343355
0.819947,-0.458335,0.04361463,-0.36963913,-1.1748724,-0.2930677,0.41595942,0.34477323
0.0013504951,-0.4942745,0.6288283,-0.36094388,-0.44688827,-1.219375,-0.21287622,0.25160098
0.14882083,0.23583528,0.15523279,0.11814385,-0.2697856,-1.2468344,0.07811643,0.25112814
0.41441762,0.1538247,0.052511703,0.18645939,0.12437021,-0.7603483,-0.28320348,0.13782842
0.03369418,0.13859157,0.3017627,-0.092521265,-0.035181973,-0.4161266,-0.15164377,0.043515705
-0.20661733,0.2320383,0.05682568,0.025507987,-0.14462881,0.040406905,-0.2200948,0.13362844
0.1425623,0.09958657,0.017642546,-0.06553991,-0.13465045,-0.06278439,-0.014067906,-0.02887399
-0.056319494,0.3499656,0.21318045,-0.0349804,-0.15125333,-0.17557833,-0.18264699,0.035162617
0.08247139,0.42825124,-0.021587465,-0.09686902,-0.11885017,-0.0651957,-0.13999994,0.033083428
-0.009005176,0.46136004,-0.25878224,-0.12412698,-0.05323531,-0.15796353,-0.33944976,0.22052105
0.17562222,-0.4097892,-0.14375095,-0.29249004,-0.13511002,-0.0031262576,-0.3036111,0.07881881
-0.04732501,-0.19521353,0.0736157,-0.35639557,-0.07789714,0.075749926,-0.3628866,0.2145395
0.013148745,0.11246309,0.16949637,-0.3169578,0.24207814,-0.01611313,-0.31813577,-0.06809351
0.07192142,-0.000595616,0.118778065,-0.15374726,0.07744174,0.122618645,-0.22905956,0.24162573
0.04486052,0.13821931,0.19349746,-0.19191863,-0.1517378,0.09671683,-0.19946212,-0.05938885
0.11426105,-0.04029153,0.2930079,-0.13494472,0.076982394,-0.05234257,-0.19058593,-0.06279518
-0.057718746,-0.030638853,0.23764056,-0.26389712,-0.16415781,-0.30744806,-0.12092205,-0.063522615
-0.112650245,-0.24895978,0.2786638,-0.1378554,0.13563241,0.020413335,-0.21775804,0.049064383
-0.08075523,0.22533613,0.42374104,-0.15079957,0.01701735,0.015899917,0.041685175,0.02577601
0.21741492,0.020430814,0.21747506,-0.06954333,0.29394734,-0.26491162,0.02980842,-0.17250845
0.3396921,0.09087427,-0.63502526,-0.3242303,0.6895348,-0.29524866,0.26141644,0.25656447
0.4029979,-0.38683954,-0.734769,-0.43699917,0.71570444,0.23714226,0.71367997,0.21461867
-0.17198317,-0.19950143,0.31548992,-0.26281232,0.25189888,0.7468134,0.25047132,0.22701396
-0.39728156,-0.5723619,0.4891348,-0.69782895,0.21984287,0.4637474,0.4485426,0.44063473
-0.17066862,-0.31206352,0.22622405,-0.35835677,0.11443907,0.31831706,0.47880065,-0.054363925
0.06930819,0.063169,-0.035540957,0.025303472,0.018487008,0.013332755,0.0033881462,0.0061009075
-0.20026486,0.6000388,-0.5733221,-0.44392037,-0.09594807,0.10134008,-0.1812008,-0.6657574
-0.09724493,0.21899164,0.788598,1.0611194,-0.037268825,0.36826244,-0.21199663,-0.06545124
0.24320465,-0.06918407,0.52688116,-0.11232251,-0.95325035,-0.86406636,-0.10692931,0.8946706
-0.16299543,0.17732917,0.17818859,-0.118945725,-0.8063072,-0.5008296,0.41691616,0.29649898
-0.44288996,0.37861517,-0.09384732,0.1323939,-0.4410806,-0.60714316,0.27600464,0.13387993
0.15012261,0.14717095,0.033339906,-0.104263484,-0.14945732,-0.12616263,0.32788032,-0.04663864
-0.012828143,0.32693893,-0.14102416,-0.0084795505,-0.19234836,-0.076715276,0.1671972,-0.11713272
0.2012675,0.1657469,0.15279779,0.010521198,-0.33028707,-0.21654375,-0.059797544,0.11953502
0.22165711,0.2813499,0.0379432,-0.16679072,-0.16841568,-0.07092337,0.053378046,0.19849662
0.1263441,0.12776187,-0.044238802,-0.073891774,-0.040830147,-0.1380645,0.04115597,-0.12817168
0.28258428,0.29213715,-0.0262475,-0.21583943,0.027906846,0.03568626,-0.13382526,-0.13615654
0.24907829,0.26732522,-0.27879196,-0.26288036,-0.08338921,0.06360603,-0.13830192,-0.043153286
-0.08189878,-0.13421498,-0.030461568,-0.19716452,-0.0688587,0.06524997,-0.13976839,-0.11142449
-0.054179236,-0.111518815,0.008797035,-0.16861464,0.110391915,0.0017447297,-0.1645772,0.37608457
0.07886217,0.047972646,0.17531255,-0.16445096,0.091465816,0.012754979,-0.32865712,-0.18839209
0.19071585,0.12567785,0.17127582,-0.14399657,-0.023990134,0.13555437,-0.15550514,-0.14388068
-0.023494598,0.24423243,0.12131419,-0.14564651,-0.01498702,0.053095676,-0.30397213,-0.17724417
0.118370004,0.13291311,0.25268492,-0.06883327,0.0476939,0.045542322,-0.21789812,-0.23200771
-0.2613391,0.3713154,0.2441551,-0.23552327,0.1090713,0.21144176,-0.20776753,0.09623018
0.06535342,0.16663513,0.22542477,-0.13122444,0.08499988,0.14154409,-0.036399476,-0.33730325
0.32040784,0.091118425,0.03143384,0.05857608,0.21831559,0.15272763,-0.17261551,0.16688974
0.39238596,0.123209134,0.20637296,0.15787485,0.0145952245,0.28954902,0.013900964,-0.056964636
0.20954971,0.027727205,-0.31397548,0.46029136,-0.010502133,-0.023258787,0.42192662,0.27791238
-0.14371143,-0.08647727,-0.13194379,0.16505474,0.16294487,0.00814774,0.18618332,0.15690185
0.26941758,-0.3758759,0.20276056,-0.5503305,0.3904299,-0.12335343,-0.28108078,0.542112
-0.6507365,-0.57871,0.2641436,-0.6843111,0.009217676,0.8979393,0.3512417,0.68448883
0.035821334,-0.3260691,0.16818835,-0.06368257,0.45040333,0.27090058,0.6659683,-0.09434575
-0.09213321,0.04109825,0.54819113,-0.15976559,-0.2032083,-0.042328276,-0.04081739,0.09089834
0.011692636,0.076349236,-0.12969457,0.015362386,-0.06015958,0.04591932,-0.1580519,-0.035123825
-0.17527524,0.84802717,-0.74636614,0.82616174,0.38624814,-0.079202704,0.005976839,0.19232468
-0.4634481,0.47303653,0.071253516,0.28877982,-0.59355086,0.07987788,-0.1462012,0.90136015
-0.49924007,0.07405162,0.2872394,0.08284969,-0.118717074,-0.09154218,0.42561018,0.16847526
-0.36601967,0.036650017,-0.23392385,-0.093209215,0.0019369683,-0.14012574,0.6981912,0.09220596
0.25221297,-0.020785311,-0.022464095,-0.25129002,0.15141453,0.012918116,0.41548994,-0.11455892
0.22952063,0.08510866,0.035805132,-0.07002623,0.13415276,-0.07146161,0.4191125,-0.34697223
0.15758318,0.025941515,-0.04981937,-0.26558837,0.110390626,-0.12678182,0.42828596,-0.3133339
0.21993405,0.2644002,-0.11196524,-0.008065041,-0.034944557,-0.18485232,0.18953857,0.04736796
0.114075065,0.036894947,0.043366615,0.124855585,-0.054905627,-0.097732864,-0.07685718,-0.00011738214
0.40517974,0.19716421,-0.008458137,-0.2844186,-0.102216356,0.18344201,-0.21668011,-0.12780133
0.23896232,0.23522796,-0.19009793,-0.16163072,0.027732007,-0.019461755,-0.27842814,-0.065042675
0.011560051,-0.03808557,-0.1836222,-0.31165507,0.011726526,0.088672794,-0.11745809,0.09329728
0.2117026,0.09139395,-0.073174715,-0.18531777,0.21761435,0.03956526,-0.18148814,0.3089962
0.26154238,0.08367078,0.19428526,-0.19432376,0.13667786,0.10569681,-0.085037574,-0.10413756
-0.03115481,0.16739476,0.18604209,-0.11626239,0.0721897,-0.026076166,-0.13590276,0.0073215542
-0.08564241,0.18462555,0.29533908,-0.07876304,0.04138978,-0.0089823725,-0.062670305,-0.1369433
-0.1128667,-0.14970645,0.11127663,0.029978132,0.16689897,0.088081375,-0.1567765,-0.09426236
0.1090775,0.21810718,0.108570576,0.14298494,0.095756434,0.10732553,-0.09798271,0.17580922
0.55510455,-0.1310636,0.09742799,0.27519014,-0.10277074,0.04779342,0.15832362,-0.038291022
0.229797,0.029875593,0.14613982,0.33442035,-0.018605951,0.18575089,-0.01664683,0.28434792
0.28728938,0.3055811,0.19450082,0.20511077,-0.07541475,-0.14317992,-0.046073005,-0.061752353
-0.15285897,0.009154554,-0.27399766,0.10876104,-0.29844368,0.13213892,0.023841474,-0.5018917
-0.0708557,-0.70371115,-0.4455118,0.41868955,0.092787296,0.33154216,0.017457454,-0.2808874
0.36000475,-0.67841977,-0.3597378,-0.31687602,0.5120054,0.105351925,-0.029027514,-0.247243
-0.65102524,-0.6716434,-0.5922913,-0.55782974,-0.51261103,1.3015485,0.8129853,0.23331659
-0.359773,-0.40181327,0.32956538,0.02921512,-0.0008839986,0.671237,0.51632833,-0.016325219
-0.032306507,0.069704235,0.77210665,-0.39277172,-0.5533721,0.012147494,0.054377723,0.0081005115
0.029633354,0.023178888,-0.0036130678,0.10117832,-0.14455315,0.05928489,-0.07206763,0.17574091
0.06545288,-0.3035525,-1.066361,0.10315372,0.23944385,0.16984843,0.3012089,0.30042613
-0.30105478,-0.018621333,-0.30643648,0.13575007,-0.4223621,0.11743403,-0.32424906,0.5271868
-0.19756085,-0.47203737,0.31709483,-0.0224248,-0.034006912,-0.06614731,0.15519023,-0.272746
-0.21715839,-0.14960441,0.01422273,-0.108679555,-0.09711804,0.12494901,0.1774239,-0.35879818
0.306731,-0.14778113,-0.020748638,-0.04379943,0.14700314,0.23581566,0.39225426,0.074508294
0.1629915,-0.045049094,0.0822187,-0.09844767,0.26989773,-0.026715841,0.3707036,0.052769143
-0.012073328,0.20752032,0.19780083,-0.06602296,0.27493247,0.05678063,0.32984042,-0.060370296
0.15012087,0.091716796,-0.08823499,-0.08336192,0.1664506,0.08539723,0.42607617,-0.0017247425
0.14500116,0.0953551,0.0032813381,-0.30475792,0.0040854993,-0.050832927,0.18596248,-0.31904104
0.32634884,-0.100456074,-0.027740652,-0.339716,-0.00118416,0.06731275,-0.17050296,-0.16209237
-0.09755592,0.03124569,-0.022859976,-0.29267147,-0.037923425,0.23172124,-0.1266474,-0.20211905
0.0025770757,-0.02994587,-0.10520504,-0.18817228,-0.05111591,0.13514733,-0.14018784,-0.2090214
0.2786761,0.1843076,0.011628439,-0.26218987,0.18677011,0.07807545,-0.14383404,0.20663367
0.37826988,0.14389715,0.07341436,-0.18718407,0.1120054,0.08761811,-0.16277397,-0.35063243
0.0067499764,0.05389892,0.2504822,-0.07536644,0.09076694,0.047676772,-0.01745592,-0.03527946
0.16848221,0.2363681,0.18046327,-0.09027539,-0.09846093,0.2869928,-0.04076058,-0.28727156
0.09054661,0.2997311,0.09576899,0.010553588,0.048491374,0.17511629,0.08119195,0.0034554568
0.18685609,0.17023021,0.122797154,0.36832523,-0.19939293,0.11536889,0.08800421,0.074244775
0.21051979,0.1755499,0.18804492,0.07383558,-0.21822898,-0.0038604727,0.2767665,0.0021343732
0.077497065,0.22195184,-0.04177815,0.057889085,-0.19976437,0.2373765,0.17318477,-0.2271338
0.21058285,0.14911678,-0.1930124,0.20831674,-0.47759882,0.060299546,0.2684767,0.05335612
-0.03547746,-0.066185646,-0.15047696,-0.08092438,-0.37034428,0.24869023,0.16074455,-0.5280139
-0.120119445,-0.111105606,-0.34885052,0.5973826,0.07628756,0.32982987,-0.3504632,-0.40797466
-0.5564089,-0.6106034,-0.16300951,-1.3559066,1.0911003,0.56059045,0.25273663,-0.5471839
-0.16486211,-1.1047456,-1.2175243,-1.1184752,-0.2811355,1.8349892,0.7064895,0.15733434
-0.38132113,-0.45815256,-0.5766691,0.4263874,-0.17483583,0.6743021,0.35305685,0.15383354
0.082012564,-0.040973745,0.010584913,-0.07458681,-0.052327942,-0.03295733,0.021173723,-0.0243221
-0.05048521,-0.060893588,-0.4865808,-0.10464357,-0.03246671,-0.39709437,-0.04549832,-0.08791032
0.6578908,-0.35810387,-1.0502598,-0.1281121,0.20058088,0.07302497,0.40359178,0.43956643
0.30816552,-0.34756637,-0.36630332,0.35966328,-0.51557463,0.39647424,-0.54642135,-0.08241328
-0.090550825,-0.28328,-0.1715242,-0.21380408,0.06353759,0.71694034,-0.020817632,0.10159541
-0.09717267,0.09535889,-0.28025398,0.093317896,-0.31095138,-0.035758473,-0.11037037,-0.22551984
0.1795728,0.116718024,-0.019412844,-0.31746152,-0.4168158,-0.103228696,0.19924058,0.26423147
0.05248656,0.07150585,0.28197908,-0.2136643,0.06410358,-0.04706935,0.21548147,0.24433236
0.056643683,0.2009987,0.119434565,-0.14737493,0.27710238,-0.044607695,0.2179561,0.007964812
0.08298307,0.21667966,-0.0040209237,-0.2226448,0.42995405,-0.20453928,0.49688816,0.12864414
0.35595116,-0.02847407,0.06446232,-0.14507316,0.23808572,-0.17334476,0.49198487,-0.19531894
0.4894921,-0.04677664,0.085024804,-0.07216073,0.31299782,0.016519763,0.17436722,-0.24357763
0.08487282,-0.122608416,0.013313563,-0.20023286,0.17231166,0.02322697,0.13374762,-0.25193042
0.06980662,0.17496198,0.09345563,-0.2668232,0.16936031,0.12418175,0.10321497,0.061439082
0.20940208,0.2429864,0.057938352,-0.11362174,0.2983448,0.1892569,0.026131326,0.26156202
0.12568998,0.22113417,0.2530106,-0.061791874,-0.013814604,0.14946838,0.10151784,-0.20113106
-0.14424323,0.0666839,-0.040645532,0.027020104,0.0053106127,0.04603202,0.017566698,-0.27103937
0.0018836648,-0.1019016,-0.045557402,0.17306572,-0.044885095,0.08878215,-0.0054584485,-0.17575635
0.06511928,0.007676758,0.100850716,0.019822465,-0.17453587,-0.03918426,0.1410192,-0.19579148
-0.08008014,-0.11795671,-0.31264555,0.13477206,-0.16166541,0.06576903,0.0414234,-0.053017665
-0.08441613,0.039135788,-0.0934325,0.13389735,-0.06285468,-0.026689045,-0.03546105,0.05583787
-0.05153057,0.12635304,-0.036930066,-0.21839212,-0.35402095,-0.033316277,-0.073069304,-0.050152875
0.18161276,-0.07690311,-0.34916627,0.27994207,0.03011967,-0.08157206,0.15545961,0.14805962
0.23879248,-0.18991646,0.053562105,0.060172558,-0.059278205,0.12427834,0.011513303,0.022936482
0.15185907,-0.58374065,-0.0784804,-0.30127192,0.33408216,0.14466271,0.5180739,-0.23526077
-0.32162893,-0.41335404,-0.4959635,-1.6477767,0.35729033,0.46348915,0.947075,-0.13425884
-0.4144294,-0.3722452,-1.0917865,0.057286654,-0.3893012,1.3262306,0.8167439,0.09574107
0.6951151,-0.5552959,-0.77918154,0.35418996,-0.024318175,0.9191447,-0.25658146,0.66699785
0.029959895,0.065372586,-0.09339521,-0.16448095,-0.11773327,-0.005335401,0.0021561864,0.02216877
-0.011004053,-0.074158415,-0.3488316,-0.06906106,0.010528191,-0.23597296,0.0013769772,0.06369607
0.57386595,-0.4350752,-0.90000445,0.006384417,-0.03538343,-0.27357516,-0.02887688,0.18940295
0.6009216,-0.18312892,-0.49538794,0.37256387,-0.8966189,0.3948618,-0.29110092,0.07758932
0.135682,-0.5302493,-0.3986371,0.054538567,-0.14523578,0.23890202,0.014851064,0.49745467
-0.0141551,-0.0729497,-0.07764539,-0.08002969,-0.28050616,-0.27829465,0.114428215,0.21785481
-0.12659651,0.013165565,-0.334364,0.018309992,-0.1470539,-0.09286878,-0.12565854,0.0069010155
0.066972375,0.16733672,-0.21588637,0.12033902,0.1430135,0.012552446,0.018849153,-0.013202862
0.33514777,0.26249233,-0.14253037,-0.03764306,0.1287821,-0.031441744,-0.024386184,-0.026841609
0.2442229,0.028002992,0.08620487,-0.06929727,0.106370494,-0.018507801,0.0092968345,0.40893626
0.24779661,-0.2107024,0.16081075,-0.0010842949,0.29827636,-0.076534726,0.4059826,0.08111733
0.39320597,-0.12317408,0.20336498,-0.10649051,0.36385396,0.102291204,0.31831807,-0.24130219
0.310169,0.25147268,-0.06543458,-0.072533414,0.22407153,0.11619578,0.34366637,-0.11660387
0.22817266,0.12233033,0.0072103865,-0.09332165,0.2050344,0.17758423,0.101746924,0.08769502
0.0562609,0.15063013,-0.113133654,-0.10282257,0.072361805,0.106808126,0.0035984213,0.15072413
0.15172961,0.06891585,0.03344404,0.021244278,-0.016913902,0.14708559,-0.045111705,-0.23750617
0.04496393,-0.038963996,-0.039696075,-0.035160188,-0.1363218,0.03377706,0.12854391,-0.2400436
-0.070654675,-0.1499363,-0.14752659,0.1491505,-0.03095436,0.224641,0.23426335,-0.08311681
-0.021828705,0.03715107,-0.11431354,0.019423153,-0.21750687,0.12783852,0.14534226,-0.09360683
-0.090382,-0.1054948,-0.057630464,0.0682156,-0.18429354,0.14932545,0.012718281,-0.054588765
-0.1122187,-0.0013710797,-0.29294422,0.026468536,-0.15462703,0.007568513,0.045378167,-0.09110506
-0.19829854,-0.13370785,0.016578509,0.06616431,-0.09324646,0.17361547,-0.06267552,0.1464011
-0.23687528,-0.09267587,-0.20760304,0.19979805,0.2257071,-0.27058145,0.050481107,0.4035442
0.21794984,-0.23194122,-0.76115066,0.02910421,-0.08084208,-0.013333012,0.05186882,0.4480302
-0.27214843,-0.8195747,-0.24145451,-0.7226037,-0.14002712,0.15850967,0.8079076,-0.39565548
-0.29140177,-0.69508404,-1.0148908,-1.3883086,0.35566464,0.26000127,0.36687326,0.28048208
-1.5412271,0.70858544,-0.047478374,-0.04577609,-0.05925599,0.92718506,-0.0004118038,0.1597774
-0.29162872,0.08304208,0.4574267,-0.04654448,0.37539926,0.8313999,0.7279376,0.63859594
-0.052805852,0.022008352,-0.086529545,-0.077146485,-0.0091000665,0.053297713,-0.0047716796,-0.0022999283
-0.13767684,0.025621533,0.030727794,0.1613971,0.37999868,-0.45628953,-0.16592912,0.2301891
0.33322906,-0.3918535,0.03468748,-0.1590394,-0.056123003,-0.3340777,-0.20794469,0.22530851
0.40527296,0.452871,0.3381515,0.4522521,-0.8359629,-0.006529437,0.37568343,0.1703556
-0.1613316,-0.32751712,0.15560687,0.086896814,-0.44764844,-0.08584667,0.123267986,-0.17755255
-0.081262045,0.018500246,-0.17690746,0.3477157,-0.13475569,0.0355868,-0.12117705,-0.08460405
-0.20036514,0.24466527,-0.44042698,0.1395101,0.12913011,-0.046984635,0.27459374,-0.18224859
0.013712902,-0.11993354,-0.31627938,0.1953914,-0.0765793,0.29030478,0.14195396,0.025310384
0.20454417,-0.09498906,-0.12534298,0.1308978,0.050790176,-0.09751984,0.08518165,-0.40461665
0.10252005,-0.2561372,-0.36517817,0.11321003,0.05335635,0.008651729,0.018350836,0.029395215
0.18212572,-0.1664343,-0.1844167,0.2634335,0.14595105,-0.04119649,0.23083661,-0.06053631
0.42801642,-0.025285779,-0.12894475,-0.07450648,0.1869729,-0.06001471,0.23353845,-0.045102958
0.23882402,-0.21558797,-0.088815555,0.005791633,0.17505309,-0.08024348,0.3373305,0.27203882
0.06388424,0.2715746,0.058703966,0.08263269,0.019859888,0.05660163,0.119516365,0.15439832
-0.04654942,-0.08862462,-0.071872324,0.056660026,0.02395005,-0.12867111,0.22678238,-0.01577883
-0.009604573,0.043630168,-0.15856704,-0.12101479,-0.19451658,-0.02222146,-0.04164194,0.20912594
0.25230372,-0.03667678,-0.2657598,-0.16940552,-0.06287157,0.15666512,0.18637595,-0.015879327
0.14264983,-0.016531633,-0.09473588,0.12245789,-0.048008397,0.10520493,0.04156886,-0.060559414
0.11430942,-0.13602659,-0.25321698,0.03284883,-0.110435136,-0.0543162,-0.054385897,-0.10757544
0.07152884,-0.26749343,-0.10940489,0.062210124,-0.095920004,0.09261478,0.14653781,0.056156572
0.014990368,-0.23040085,-0.38053024,-0.047391526,0.111131884,0.26710707,0.1703739,0.0748942
-0.19292066,-0.1555302,-0.068158515,-0.10471409,-0.14931406,0.122865155,0.12048374,-0.24503496
0.039770473,-0.39965975,-0.7027464,-0.010657377,-0.013491536,0.14563902,0.025455076,0.093273364
0.09433307,-0.47204298,-0.2768993,-0.07516315,0.06425656,0.26590937,0.17041142,0.05460268
-0.49851066,-0.6274589,-0.29091024,-0.5685643,-0.033414856,0.12227521,0.8028097,-0.29472524
-0.7657095,-0.23124373,-0.33147293,-0.4937194,0.08938801,1.1446077,0.23335071,0.29890576
-0.5167547,0.041089553,-0.8268257,0.005923472,0.15305626,1.0706135,-0.26634756,0.04892256
-0.20723028,-0.013087809,-0.059195,-0.080526106,-0.031722266,0.5952236,0.23669034,0.09646003
0.047809333,0.0035092756,0.045893744,-0.056326102,0.036367,0.036144167,0.028386027,0.011464037
-0.078072324,-0.060535062,0.046752162,-0.012665848,0.40280986,-0.40533718,-0.2913385,0.13250656
0.13901287,-0.04062679,-0.27980798,-0.6128129,0.14338137,-0.4850212,0.38890728,0.42885444
0.15843733,0.32034832,-0.02487151,0.13901459,-0.90276015,0.35796478,0.3136432,0.14694326
0.32088187,-0.38148555,0.23270062,0.23559727,-0.378821,0.1802267,0.25686005,0.078333564
0.029894572,-0.46117848,-0.23858227,0.15026213,0.026717106,0.17736407,0.24414968,0.050433937
-0.09214069,0.015163164,-0.4622488,0.2920865,-0.10832807,0.120773494,0.069968745,-0.04912212
-0.09127584,-0.22985871,-0.3916816,0.24206927,0.0871882,0.016295938,0.1527328,0.21292332
0.014245814,-0.17145218,-0.2798236,0.14463226,-0.022011863,0.023763763,0.07683253,-0.06357508
-0.14604378,-0.163909,-0.38245693,0.08834102,0.17084612,0.32480997,0.055811033,-0.199108
0.017887305,-0.12833415,-0.43615294,0.1885261,0.1075737,0.10463594,0.108003594,-0.17182319
0.072200306,-0.022611868,-0.2439576,0.20952152,-0.084142126,-0.03911637,0.1248164,-0.025617875
0.23964323,-0.0067579295,-0.10584029,0.24802339,0.07835568,-0.13854837,0.13234784,0.23175552
0.037035413,-0.16061646,-0.034799337,0.13456334,-0.033819705,-0.24532765,0.13628769,0.024034722
0.25563225,-0.015085234,0.00885999,0.03171271,-0.10975027,-0.10164114,0.17013478,0.0794189
-0.0043977825,0.06128833,-0.27570164,0.04799492,-0.020706875,-0.099441566,0.10494918,0.1549562
0.0845209,0.0731511,-0.2909723,-0.1626249,-0.24406688,-0.081135266,0.010189451,0.084097676
0.04256887,0.08074972,-0.40028828,0.04535673,-0.056176133,-0.07762503,0.029534964,0.10746727
0.18691947,-0.020946568,-0.3917056,-0.18015274,-0.05556961,0.3231188,-0.02706711,0.078172915
0.055531763,-0.39562473,-0.3698836,-0.020868551,0.16037653,-0.073088594,0.041955672,-0.15942776
0.21860069,-0.36026868,-0.440823,-0.12352156,0.11596203,-0.019075125,0.04673174,0.18723777
-0.07562147,-0.022445172,-0.37678695,-0.09948304,0.097984344,0.07474422,0.071108826,-0.19747351
-0.2750566,-0.40338472,-0.5383072,0.25808182,-0.007851908,-0.14639692,0.18101788,0.09038571
-0.003979064,-0.39074674,-0.7702401,-0.2576739,0.037238367,0.2647045,0.31239444,-0.19816379
-0.3435819,-0.24740699,-0.18977962,-0.21779995,-0.16753016,0.31234384,0.23530115,0.007906155
-0.53331435,0.28798828,-0.02898926,-0.29847616,-0.09938347,0.014793215,0.64178216,0.15193626
0.16658178,-0.0693785,-0.830425,-0.08638821,0.016399909,0.5547274,-0.4417564,0.080338374
0.009783603,0.015051167,0.005684279,0.010582684,-0.11607359,-0.0075961724,-0.010356724,-0.037859667
0.039237842,-0.06751935,-0.034584202,-0.078306176,0.054603167,-0.013947563,-0.0862517,0.014095271
0.06688838,0.022195205,0.008602026,-0.24707158,0.0029516562,0.015265963,-0.12737164,0.06580837
-0.7780623,0.010868204,-0.2923954,-0.3604457,-0.37240908,0.65124404,0.29714096,-0.70762455
-0.18187062,0.053891458,-0.8036774,-0.48938513,-0.7867642,0.19818152,-0.00941641,0.30873328
0.019522794,-0.13527438,-0.13369347,-0.13768966,-0.26690042,0.08459858,-0.007067841,0.01356828
-0.21599515,0.04483954,-0.47612414,0.20809975,0.081432514,-0.04662825,-0.016857838,-0.10848036
-0.25390133,-0.31864566,-0.23486365,0.20456496,0.110905066,0.17161304,-0.055025164,0.1461134
-0.062396046,-0.43615353,-0.22832455,-0.078937374,0.15132633,0.07718477,0.05378034,-0.13365178
0.09123408,-0.2635526,-0.11509262,0.289352,-0.1625873,0.03240688,-0.071724765,-0.27538124
-0.04658422,-0.16247691,-0.011120708,-0.015476158,0.1627319,-0.035958562,0.14468884,0.018110441
-0.009808095,-0.14113633,-0.2592793,0.15430993,-0.095965676,0.14259537,0.0857546,0.15902679
0.3145057,-0.17409612,-0.30087346,0.15153211,0.035104014,-0.0538242,0.17332895,0.026275577
0.3138439,-0.23277643,-0.23224655,0.19313687,-0.18307157,-0.02599201,0.01569605,-0.0059543108
0.2910238,-0.13185567,-0.26063016,0.14687483,-0.04199056,0.057012085,0.07421276,-0.19420475
0.27414495,-0.06790267,-0.16185805,0.07729476,0.007856057,-0.10701941,-0.024455769,-0.15820277
0.07793736,-0.13727678,-0.16680326,0.07371438,-0.037716076,-0.030006407,0.08828002,0.047781967
-0.16055869,0.04636297,0.028345088,-0.11242597,-0.12932037,0.07248534,0.10652247,0.1770816
-0.012557221,-0.13152769,-0.31246355,-0.2535122,-0.038074885,-0.010207744,0.12707311,0.01671602
0.12664182,-0.13392267,-0.17051308,-0.08833194,-0.14144142,-0.01768942,-0.0064020334,0.01808356
0.10794662,0.08517426,-0.43511125,-0.13551903,-0.012242867,0.13274226,0.13801612,-0.04336539
0.034471393,-0.15696089,-0.06354876,0.09205938,-0.12411971,0.0713276,0.17005305,-0.08173102
-0.39754686,0.013870847,-0.18096778,0.06232407,-0.10921001,-0.07063715,0.12896456,-0.18863897
-0.4665667,0.033185564,-0.34745735,0.16110761,0.07194243,-0.050930426,-0.14791763,-0.09195356
-0.5359096,-0.229475,-0.37671033,-0.5145641,0.07696812,0.027286561,0.17248496,-0.4507368
-0.4742749,-0.052468732,0.2260711,-0.7249341,-0.47344854,0.07060787,-0.18571301,0.2908206
0.17559153,0.32529664,0.106254116,0.1596276,0.38343692,-0.043648656,0.7804064,0.7097032
0.36617577,-0.10581463,-0.99915683,0.8053926,0.5406937,1.191465,0.18632546,-0.3596834
0.071554765,0.084810376,0.040384248,-0.102455966,-0.09825252,0.008971979,-0.044264436,-0.01228798
-0.014994331,0.053556114,-0.06597252,-0.02322071,0.030089667,0.07624362,0.0119857285,-0.07394689
0.055251077,-0.0059442148,-0.011151222,-0.101892,-0.050008494,-0.13362402,0.06303447,-0.016353725
-0.06394533,-0.026992073,-0.5359372,-0.08409581,-0.18409559,0.42733228,0.45683783,-0.40091422
-0.08249612,0.010469303,-0.3418857,-0.56913173,-0.4211317,0.6922738,-0.2229656,-0.048986815
0.11433628,-0.4237727,-0.5467109,-0.52161473,-0.18426281,0.31433752,0.105097644,0.31167325
-0.37581447,-0.06748984,0.008178609,-0.1149552,0.034636777,0.35344857,0.15508239,-0.7734789
-0.53050756,-0.1346833,-0.13918297,0.15471895,-0.060001016,0.14355724,0.03087672,-0.047881573
0.1384438,-0.31518978,-0.1814828,-0.102564596,0.046403166,0.13677087,0.053420305,0.21187341
-0.2967891,-0.23248897,-0.011888751,-0.12055258,-0.20235641,0.162936,-0.03337585,0.045958985
-0.028388117,-0.019170575,0.06867018,-0.022024209,-0.05317373,0.09990109,0.055430338,0.074463435
0.04277303,-0.22664577,-0.052754212,-0.048489287,-0.06775381,-0.046322756,-0.0053625153,0.10011905
-0.12091325,-0.027105317,-0.2068937,0.032491148,-0.043131422,-0.10159656,0.1524722,-0.012705928
-0.10037115,-0.17678158,-0.15674776,-0.027058251,-0.13154641,-0.12407151,0.141988,-0.1759649
0.015873656,0.118146166,-0.35801798,0.046147216,0.007308926,-0.11651872,0.05535592,-0.16271016
0.039603867,-0.24909066,-0.062104233,0.107582934,-0.02388945,-0.070510484,0.046310514,0.045424953
-0.007687654,-0.20167924,-0.21618515,0.17074478,0.035666265,0.020723443,-0.107187286,-0.0063758404
0.07500172,-0.11685512,-0.09067971,-0.03779191,0.035282638,-0.14382647,0.05275223,-0.053470194
-0.15532196,-0.08119507,-0.19648235,-0.0030131876,-0.044319324,-0.054825757,-0.009327217,0.21146701
-0.16480578,0.13024913,-0.23258452,-0.06771049,-0.14261664,0.0012908228,0.23260736,0.22702853
-0.19733028,0.23730043,-0.17392987,-0.07362547,-0.10471474,0.22826219,-0.051627833,0.08031668
-0.19649108,0.10306874,-0.17489973,-0.25420356,-0.06624049,-0.10211518,0.22573867,0.075626664
-0.5894906,0.14642055,-0.5625095,0.030880526,-0.07405671,0.07680441,-0.08611811,-0.062097535
-0.6369709,0.12970957,-0.08072643,0.11418827,0.105434075,0.07881201,0.067635156,-0.1423473
-0.5558383,-0.23583077,-0.14496453,-0.5764488,0.1903072,0.083999544,0.5459571,-0.20332155
-0.5614891,-0.4457345,0.11123661,-0.5369265,-0.7618264,-0.056493312,0.308999,0.4092801
-0.48062298,-0.5894974,-0.2675721,-0.032988563,0.03804771,-0.20530948,0.2855197,0.6340235
0.13435334,0.2559479,-1.010302,0.60010105,-0.2095614,1.0111591,-0.017525187,-0.081846
-0.06469274,0.012178823,0.044652537,-0.1499902,-0.10614812,0.027097106,0.01550167,0.041121848
0.033254184,0.04379393,0.078088224,0.045039415,-0.032181446,0.014874697,0.07076618,-0.057949923
0.05540496,0.009152897,0.0045773014,-0.045534093,-0.03369217,-0.063863754,-0.04022982,-0.038471527
0.019422092,-0.0881299,-0.5418799,0.093931615,0.2776171,-0.46856856,0.33064306,-0.2703674
-6.044656e-05,-0.14334635,-0.11055034,0.20007752,-0.05997958,0.45176697,0.25892422,-0.118544646
-0.03435652,-0.60954,-0.44690087,0.016556578,0.061984353,-0.17210732,-0.17810021,0.5438652
-0.22814061,0.1981118,0.1766682,-0.18514416,-0.046290267,0.4222303,0.099869326,-0.4997005
0.29061216,0.39859152,-0.12146095,-0.072422765,0.01907495,0.14371994,0.13610546,0.12665801
-0.8288034,0.04357266,0.107346945,-0.10634198,0.050119873,0.15832005,0.11050325,0.21526144
-0.38436738,0.18437377,-0.10304144,-0.08456276,0.06996283,0.17456572,-0.026627284,-0.4289328
-0.3235628,-0.14088312,-0.15607215,0.24433589,0.066370554,-0.010258949,0.1413336,0.21992576
-0.2580997,-0.19890648,0.102693856,0.07218329,-0.042284556,0.0075325165,0.031891897,0.0705969
-0.81593513,0.09756666,-0.13691945,0.33466297,-0.05623977,-0.050892692,0.1556437,0.09764528
-0.32597378,-0.2503665,-0.17287146,0.08435771,0.043880846,-0.08646304,0.096731186,0.19396152
-0.12123523,-0.27694982,-0.10640275,0.0066891606,0.1610353,0.0013958667,-0.048986427,0.051505018
-0.13339956,0.066870086,-0.21966922,0.035985414,-0.10834922,-0.1141027,-0.032067,-0.20640899
-0.114301875,-0.19092125,-0.10055117,0.057397813,0.01848734,0.006447179,-0.19439411,-0.22066958
-0.23936507,-0.12895714,-0.3060662,0.020851046,0.14848012,-0.14531028,-0.069509976,-0.027586766
-0.2798493,-0.08752023,-0.0894658,0.11252481,-0.061004657,0.008973807,-0.098996,0.19963972
-0.21463166,-0.03455325,-0.1291726,0.053986166,0.14136015,0.22545536,0.11253958,-0.049219403
0.118067704,-0.22195046,-0.048706472,-0.045576043,0.0959742,0.11196765,0.14315191,-0.049826674
-0.102619275,0.21721958,-0.1722792,-0.11565861,-0.04449262,-0.07113461,0.35737097,-0.029465673
-0.46331358,0.07318928,-0.041145176,-0.15720926,-0.0064797876,-0.031343475,0.7436437,0.044662397
-0.74830717,-0.12991539,0.288923,-0.45839828,-0.26129392,0.3823788,0.97411585,-0.46731254
-0.54780275,-0.4527942,-0.33598068,-1.0769397,0.15880448,-0.13090546,0.33868453,-0.115044415
-0.48660514,-0.16745482,-0.17795187,-0.056572713,-0.4586766,0.37420627,-0.018909367,0.8076799
-0.5399129,0.7218546,-0.3226652,-0.014153485,-0.20036648,-0.005771156,0.12689595,0.8141715
-0.35070202,0.43050054,-0.40852848,-0.02803073,-0.66852266,0.73620635,-0.13768537,0.5220671
-0.013748437,-0.054340065,-0.024594303,0.022135876,-0.059889436,0.068831295,0.03779903,-0.06636672
0.0644148,-0.06518923,-0.05192619,0.02001796,-0.00348109,0.080477834,-0.031058326,0.056531116
0.017238833,-0.063996375,-0.027706847,-0.03039286,0.06786063,-0.07219238,0.010203138,-0.00022196025
-0.0064928234,0.045259405,0.30664814,-0.041402422,0.2337652,-0.34593827,0.13035348,0.07309733
-0.058920935,0.0163888,0.27089396,0.27170366,-0.9772025,0.56942314,-0.1316843,0.10731829
-0.013301959,-0.35819694,-0.4580144,0.16459323,-0.33520454,0.01394384,-0.2519193,0.13060941
0.034969635,-0.35441637,0.34304723,0.1677745,0.14298135,0.011737552,-0.15247136,-0.17779094
0.041895494,0.34912062,0.28154,0.06618456,-0.25675976,0.22585797,-0.15389304,0.42336485
-0.19092542,-0.025450686,-0.1389067,0.11444338,-0.25970727,0.075647414,-0.15517674,0.9009314
-0.119835734,-0.12209302,0.04384332,0.055808824,-0.08977427,-0.16051121,0.0019552105,0.046840485
-0.11616725,-0.06414263,-0.39580446,-0.09070661,-0.11796899,-0.015750157,-0.059902333,0.22612679
-0.22750801,-0.108602636,-0.14643694,-0.08183747,-0.20038559,0.014539517,-0.077951185,-0.014258386
-0.4372842,-0.019328775,-0.24070506,-0.027745396,-0.0050919624,-0.005044063,-0.011809095,-0.21424173
-0.2049901,-0.092815295,-0.26649225,-0.09909028,-0.061179895,0.07476814,0.22675604,-0.08572546
-0.34168145,-0.22849947,-0.12104802,-0.01726639,-0.09277426,0.06567523,0.21372676,-0.19288082
-0.26586407,-0.21011665,-0.40996358,0.06316818,0.07488134,-0.081324555,0.027452769,0.34657323
-0.27631903,0.06509678,-0.08486089,0.15858738,-0.09969307,-0.07423361,0.077157766,0.01814059
-0.09329215,-0.1461771,-0.32921568,0.026546886,0.1434805,-0.15541774,-0.055006597,-0.00364708
-0.5029066,-0.013210463,0.06875228,0.12427636,-0.019387035,-0.18319015,-0.0064509325,0.07716974
-0.1549925,-0.37425607,-0.12202118,-0.14992334,-0.08293227,-0.44509208,-0.004194173,-0.24325174
-0.34966478,-0.010104066,-0.1333779,-0.5231965,0.19286896,-0.25036603,-0.32566163,0.29711124
-0.7359607,-0.36939085,0.10678123,-0.75682366,-0.06633974,-0.027483169,-0.0662647,-0.1588234
-0.11247712,-0.26549876,0.24258822,-0.24977088,0.36645326,-0.03067775,-0.25178853,-0.29557094
-0.34205776,-0.20042233,-0.2575607,0.13830115,0.014996046,-0.24231549,0.1214534,0.4091987
-0.14417051,-0.24682592,-0.2659166,-0.6165725,-0.28829673,-0.094569035,-0.24103914,0.25016704
-0.025014536,-0.5270625,-0.31298593,-0.44140956,-0.062016163,0.9294292,0.28058055,0.07161155
-0.03533513,0.951264,-0.6075025,-0.18162109,-0.07573508,0.2633559,0.9853379,0.4420842
-0.06479237,0.055918332,-0.20263195,0.060789257,-0.24339311,0.47105968,-0.0019441897,0.39947394
0.0489735,-0.07865679,0.015057683,-0.0186079,0.08333847,-0.05448136,-0.025023468,-0.060169294
0.032031536,-0.036307503,0.021883719,0.06748095,0.04080619,-0.050391313,0.045088828,0.0049737617
-0.041111328,-0.008858182,0.056805626,-0.06712791,0.01805979,0.051020727,0.035623074,-0.0045693517
0.011490308,-0.033172194,-0.09515027,-0.0156103205,-0.26381728,0.18437614,-0.16696341,0.004904384
0.006770462,0.030540569,0.5998511,0.1258388,0.009314897,-0.23921198,0.5009099,0.15561835
-0.05007518,-0.10917241,-0.12040357,0.96320826,-0.71726954,0.40133053,0.7530867,0.3987233
-0.011620094,-0.702431,0.11570447,0.19389258,-0.61339086,0.2523048,0.29321423,0.038381528
-0.027302684,-0.22920659,-0.20873904,-0.081640005,-0.11808536,-0.2972799,-0.53539705,-0.065555654
-0.1012621,-0.2857051,-0.06705537,0.16740596,-0.4486652,-0.60139424,-0.9220771,0.6268404
-0.024962617,-0.4422026,0.11838845,0.069217406,-0.1066027,-0.0026369132,-0.1277955,0.22406006
0.2591002,-0.28308943,-0.07756521,0.07376597,-0.28219265,0.16012624,-0.50522107,-0.84668785
0.5995275,-0.23249197,-0.14118247,-0.18842433,-0.14139104,-0.006932687,-1.1118873,-1.0937076
0.41913408,-0.29291874,0.04142395,0.005879398,-0.27948803,0.13091749,-0.9083134,-0.22154315
0.29812548,-0.37942865,-0.070395194,0.24689172,-0.17827691,-0.03838741,-0.5053405,-0.24956518
0.45085278,-0.009315159,-0.00043775234,0.10117828,-0.115898505,0.08106046,-0.5324518,-0.1508787
0.36579266,-0.26186496,-0.014845404,0.03409728,-0.007677402,0.07284959,-0.6310475,-0.049816314
-0.1087138,-0.10809283,-0.15669681,0.17261487,-0.0010267948,-0.06527155,-0.76851785,-0.42266336
0.26265967,-0.38382348,0.004183381,-0.028141523,-0.08928259,-0.01573668,-0.757065,-0.059294324
0.26080453,-0.16145174,-0.09332771,0.039238926,-0.24118413,-0.06119971,-0.70354974,-0.11556407
0.23474862,-0.2985991,-0.08525653,0.4819559,-0.4576917,-0.32843047,-0.36265513,-0.045524843
0.21074532,-0.3571493,-0.1727962,0.37525448,-0.14885977,-0.68296444,-0.5127523,-0.22770289
-0.116248526,-0.2805076,0.14058131,0.059140734,-0.3748157,-0.5585555,-0.71334535,-0.0058941506
0.39009607,-0.12664233,-0.048860695,0.04188639,-0.6303306,-0.8604092,-0.40898433,-0.057112925
-0.08326972,-0.9870276,-0.21315594,0.50906026,-0.80979717,-1.2036443,-0.5603812,0.5519984
-0.069366254,0.095779434,0.31580716,0.011274185,-0.91981053,-0.19319288,-1.5937005,0.25327468
0.017089892,0.008106633,0.3250453,-0.3226317,-1.0885137,0.08416277,-1.3983852,-0.12286364
-0.04709578,0.03372114,-0.12637036,-0.03684955,-0.43868634,-0.39469388,0.14309902,-0.04054844
0.0015784726,0.035429996,-0.25966644,-0.06858316,-0.07950724,0.44210985,0.025270684,-0.051674075
-0.04065554,-0.053942733,0.07674734,0.024286367,0.035340227,-0.032946937,-0.037510745,-0.034915645
0.06297381,0.025468677,0.0077447295,0.047192454,-0.007918239,-0.02652977,0.061884254,-0.08619729
-0.04910973,-0.02112975,0.033274375,-0.075479835,0.080246046,0.020643204,-0.0043305606,0.07076824
-0.03467694,-0.07825865,0.081884906,0.0624097,-0.07618016,-0.0020157173,0.05615878,-0.00031860173
-0.007563837,-0.06609456,-0.002517685,-0.079181544,-0.08806962,-0.48570833,0.084845856,-0.18303062
-0.005498819,-0.14292783,-0.038429283,-0.609942,-0.705414,-0.28714493,-0.2848919,-0.18301663
-0.055861972,-1.0713007,0.36789814,0.3574089,-0.95921373,-0.7388565,-0.050279237,-0.15971492
0.035379216,-0.8504306,0.69869816,-0.21969922,-1.330983,-0.50914395,-0.42570582,-0.53514445
0.024555884,-1.2264467,0.37724152,-0.3199563,-0.92395526,0.48865235,-0.3589901,-0.6251704
-0.22267716,-0.7281162,0.427893,-0.16863668,-0.14423752,0.23396352,-0.38622612,-0.66115797
-0.30074736,-0.89048594,0.6905185,-0.22075503,-0.34473947,0.2484809,-0.39156199,-1.0130919
0.38763523,-0.5550698,0.25532565,-0.10909112,-0.15405959,-0.12331906,-0.9614753,-0.62458926
0.57017034,-0.77188426,0.4269526,-0.16790906,0.13634974,-0.24379537,-0.1383691,-0.22752938
0.6533973,-0.7110908,-0.04035759,-0.21923767,-0.15717381,-0.026978524,0.3891931,-1.0718296
-0.2191568,-0.7582725,0.1262812,-0.20368679,-0.5220082,0.107267655,-0.75658864,-1.289872
-0.2733382,-1.1135608,0.4223389,-0.35002145,-0.64007115,0.22374523,-0.5048081,-1.0608021
0.48330912,-0.52077544,0.06558231,0.23381582,-0.9757057,-0.16098998,0.19857284,-0.3363397
0.9020178,-0.97110933,-0.0972557,0.11985867,-0.44042292,0.1465768,-0.12797004,-0.8102649
-0.018917542,-0.40819728,-0.059570596,-0.20248017,-0.639578,-0.11832805,-0.15605658,-0.8494786
-0.64226323,-0.94306064,-0.061655845,-0.15278739,-0.94701374,-0.13113357,-0.48326984,-0.79640955
0.06579634,-0.66181886,0.1972795,0.5552811,-0.48846737,-0.8105806,0.007602344,-0.087097436
0.4203546,-1.2101047,0.24818024,-0.1192603,-0.44708768,-0.16230933,0.0051455055,-0.004067619
0.7796683,-0.9553336,-0.28189301,-0.02612074,-0.36856103,0.013517146,0.025124019,0.3229748
0.6346671,-1.1529264,-0.2960345,0.8249486,-0.5190661,-0.7088309,0.023161838,0.5004794
-0.14525786,-0.17957939,-0.49110287,0.13067786,-0.28896123,-0.2776933,-0.23665269,0.1624956
-0.06850665,-0.04185278,-0.18653274,0.065197475,0.11670569,0.03339275,0.0076873633,-0.014283754
0.016631536,0.043468386,0.31837288,0.09499623,-0.1373586,0.15973757,-0.100933164,-0.04296595
0.08685599,0.06986219,0.05677183,-0.06295344,0.07001668,0.034937605,0.033999667,-0.001544714
0.028584376,0.035903446,0.03636457,0.027425535,0.00082641095,0.0066425726,-0.016705744,-0.07692156
0.019591533,0.010001227,-0.025725726,0.028826833,-0.0500813,-0.00101123,-0.04937894,0.03180968
0.056990236,-0.070121504,-0.08150212,-0.018916517,-0.043220963,-0.03624886,0.05050181,0.057173014
0.07834217,-0.030526813,-0.05315427,-0.07561979,-0.07944596,0.06744979,0.06981863,9.5292926e-05
0.05278389,-0.03239193,-0.0255025,0.0496805,0.044842795,-0.027870826,0.07236761,-0.058600735
-0.053559884,0.0269221,-0.023454692,0.08110628,-0.008480524,0.09790036,-0.04055173,-0.05054174
-0.085685015,-0.07695213,-0.44706446,-0.17401578,0.0640399,0.06393718,-0.027859962,-0.19024643
-0.052314285,-0.6799027,0.016364668,-0.4800233,-0.25793833,0.0075781494,-0.025238628,-0.12037861
0.03603153,-0.72374225,0.045966376,-0.6837641,-0.3121755,-0.16966859,0.04853286,0.1870592
0.08044129,-0.7936435,-0.10879983,-0.032508537,-0.39966112,-0.49874988,0.022645399,0.047667
-0.03468232,-0.70651233,-0.50208014,-0.51209867,-0.5613186,-0.88154817,0.101791784,-0.11993268
0.14119604,-0.96155345,0.45951846,0.16642608,-0.31383896,0.7777072,-0.48500356,0.1117
0.15321529,-0.9852204,0.09090835,-0.20951232,-0.4550698,-0.11610167,-0.7465065,-0.22186364
0.24774742,-0.80212426,0.15887594,-0.2301276,-0.66368335,-0.59709466,0.050904904,-0.33237463
-0.34332892,-1.0164149,0.7897334,0.1521681,-0.74581975,-0.3457552,0.10285435,-0.44870874
-0.9117895,-1.4734203,0.92512095,-0.034105957,-1.0529995,-1.0356756,-0.06688759,-0.5882356
-1.0000929,-0.5936806,0.5642957,-0.4060905,-1.0008928,-1.0949111,-0.30471706,-0.4146566
-0.10297754,-0.33162746,0.721754,-0.19604675,-0.62692255,-0.95905256,-0.31094655,-0.33586043
-0.27609828,-0.7422181,0.72674876,-0.311937,-0.84225786,0.3254985,-0.5516155,-0.78988856
-0.26815048,-0.54883134,0.38408628,-0.64636457,-0.46901178,0.10713164,-0.3973945,-0.7305238
0.077513225,-0.44781426,0.23958641,0.009874019,-0.07920003,-0.12307788,-0.27687538,-0.02690882
0.72165173,-0.36382797,0.43185687,-0.26805934,0.14311406,-0.18088953,-0.24709581,0.18712908
0.8106158,-0.52486366,1.11634,-0.36447564,-0.4873261,-0.42365536,-0.61796147,-0.0011116423
0.84452707,-0.4686653,0.6705129,0.55640864,-0.21042521,-0.67805994,-0.4897278,-0.002807132
-0.06638427,-0.039483316,0.44475555,0.6232873,-0.22129644,0.046112463,-0.4769945,0.044345755
0.0741577,-0.039922547,-0.05633847,0.012933277,0.013058446,-0.0527863,-0.058539726,-0.02273763
-0.06108826,0.03295754,-0.031841617,0.05023536,0.06581533,0.041125685,-0.009795435,-0.08543408
-0.04096279,0.058316186,0.03821473,-0.06326652,-0.010567933,0.05388604,0.06031263,0.047974154
0.02598425,0.031395704,-0.055953525,0.026970394,0.064352304,-0.059593663,0.055570975,-0.0042406693
8,1
0.10577863
0.2911882
0.4838131
1.0315546
0.4460112
0.49829283
0.19734915
0.4978903
8,8
0.7921394,-0.10624213,0.7657933,-0.55116767,0.6770354,-0.4011494,-0.64957803,-0.049841333
-0.77677673,0.22824101,0.35617185,-1.0437356,-1.7791591,0.5167068,-0.4514542,0.8890646
-0.6150459,0.68435794,-0.07848159,-0.8434204,0.35437524,0.6813762,-0.7234205,-0.71035224
-0.039541617,0.58804315,0.488607,-0.3169547,-0.055055957,-0.21733382,0.031138705,0.40888673
-0.11062897,-0.07842116,0.08682791,0.56091964,-0.014782294,-0.108990595,-0.19631998,-0.16035552
0.2652759,0.5187027,0.55014277,-0.105276965,0.66550046,0.44696116,0.45340547,0.15420383
-0.0056269453,-0.61911756,0.023548923,-0.8759775,0.034290757,0.06649914,-1.1930602,-0.7778756
0.8148196,0.34235808,0.47333145,0.40478104,0.5533527,0.35773596,0.34650907,0.15079232
8,1
0.43097037
-0.70049894
0.0741637
0.1108642
0.48916924
0.53872776
0.02753366
0.26670894
8,8
0.22916065,0.9485596,0.026130836,0.052143812,-0.15398471,-0.59455466,0.55333114,-0.11895535
0.15332854,0.47280338,-0.89600587,0.26284003,0.24171333,-0.60731995,-0.13162786,-0.7376082
-0.22513054,0.29458103,0.47257945,-0.83345103,0.15733324,-0.28462029,-0.16063419,0.102759235
-0.46030363,-0.29178613,0.98918843,0.88521254,-0.38609502,-0.014303148,0.22066244,0.8516672
0.49615467,0.49382457,0.5252507,0.50378793,0.37581035,0.001608789,0.64992464,0.06854099
0.16475107,-0.43238753,-0.7359893,-0.21473391,0.39186928,-0.19923994,-0.14693937,0.70505494
-1.233735,0.8302676,-0.22376956,0.6594821,-0.8316767,-0.4385142,0.57843924,-1.3901645
-0.47981837,-0.34385493,-1.389682,-0.18176405,-0.34811315,-0.13761145,-0.3400359,-0.23679905
8,1
-0.23793945
-0.03204086
0.07823545
0.42774507
0.35143846
0.0
0.42076877
-0.20022082
8,8
-0.8998735,-0.2004523,0.57365954,0.28805062,-0.95928746,-0.113435775,0.121284485,0.44305554
0.28259823,0.12757275,-0.88778913,-0.060862772,-0.3164693,0.586164,-0.3233698,0.61523306
-0.4985914,-1.2442203,-0.19261366,-0.3745397,0.06075683,0.23300579,0.24340755,0.30600613
0.17982513,0.14959435,0.3770978,-0.3465958,0.9457954,0.55030394,-0.32413572,-1.036891
-0.6075555,0.18581155,-0.20392744,0.62220556,-0.33411378,-0.23785904,-0.51845896,0.111006044
0.28900397,0.48851424,0.058276594,-0.02828288,0.37491268,0.35623407,-0.40362686,0.45402592
0.049862325,0.17845556,0.643027,0.039144237,0.26136503,0.58877313,0.11229271,0.9262726
-0.2803366,-0.3561317,-0.022031182,0.47885883,-0.41590238,-0.65024024,-0.40959156,-0.93063986
8,1
-0.11779234
0.66156495
0.1449149
-0.04471606
0.2803617
-0.74368525
0.0
0.51187575
8,8
0.26761404,-0.25185192,1.0754201,0.25117046,-0.48992833,-0.4408101,0.13723004,-0.09667015
0.3346756,-0.9729526,-0.5235318,-0.55900854,-0.31272423,0.105002664,1.0438046,0.014490922
-0.49249092,0.28548455,0.26596114,-0.024973452,-0.99698913,0.05453178,-0.92508227,0.1995821
0.49685234,-0.16925378,0.03274109,-0.26018,0.337232,-1.0558734,-0.38572085,-0.10981756
-0.38308898,0.3686338,-0.5716484,0.01559278,0.62949985,-0.10315251,0.41756916,-0.54193866
0.46796617,0.22925287,-0.8753196,-0.07239678,-0.5932472,-0.08448575,-0.5251933,-0.24821159
0.39790374,0.4596334,0.33047467,0.17057729,-0.27155772,0.20767224,-0.24242365,-0.40235123
0.21669233,0.76298356,0.6944578,-0.37243944,0.05982935,0.1080893,0.124273755,-0.401173
8,1
-0.44900036
0.051125165
0.380031
-0.02436766
1.0714688
0.8847376
0.30526695
-0.07424239
8,10
-1.347725,-0.021575574,-0.430451,0.16199495,-0.44425756,-0.6290245,-0.24995175,0.23936385,-0.768074,-0.17306915
-0.031351015,0.0412377,0.25736248,-0.14570147,-1.6100711,-0.54539204,0.05937986,-0.40134847,0.1291406,-1.2439777
0.8268232,-0.6931057,0.3480966,0.06263755,-0.7944346,0.033747345,0.31047675,0.27231258,-0.55883,0.77315867
0.19708802,-0.54936236,0.22853994,0.06471056,0.040590107,0.062233854,0.25410217,0.575485,-0.15225483,0.17510933
-0.45761648,-1.9503889,0.13996495,-1.0080225,0.8124399,-0.25192374,-0.79729235,0.16149512,0.18464062,-0.53679776
0.62775815,-0.0021404282,-0.8855503,0.091055855,-1.2275299,0.5281577,0.81638116,-1.3307022,0.60108286,-0.9896398
-0.3421671,-1.2690825,-0.16662438,0.4817102,0.036185466,0.5554259,-0.9942588,0.6979867,-0.9607757,-0.48226544
-0.36285514,-0.10835911,-0.23415022,0.3181221,0.32081717,-0.18777382,-0.019816935,-0.06675893,-0.30411354,-0.48321688
10,1
-0.28616834
0.8211635
-0.17486294
0.13066487
0.15957579
0.07858645
-0.49357548
-0.7279327
0.23384847
0.77427715
