784,8
-0.03621248,-0.051080227,0.006160736,0.0106635615,-0.014505111,0.053585976,-0.0011793599,0.08671318
0.03424719,-0.06521408,0.0365244,0.028272934,0.012578256,-0.023543395,-0.013835989,0.022640012
0.072035596,0.028139167,0.058050305,-0.072423615,-0.038338967,-0.08433659,0.039406583,0.046224356
0.031310767,0.0056972057,0.04465337,-0.07878373,-0.078270294,0.043822914,-0.05697339,-0.03273788
-0.03631715,-0.06954187,-0.058199253,0.046942666,0.014914937,0.08390711,0.07221311,-0.06237806
-0.07005485,0.0185007,-0.056066625,0.0031424463,0.083926514,-0.056439552,-0.07909538,0.016979791
0.01095894,0.05310662,0.014609762,-0.069086805,0.07744792,-0.037844807,0.009200253,-0.038385037
-0.07319881,-0.019236617,-0.07488617,-0.07973899,0.073791265,0.06531629,-0.0055773854,-0.005236849
0.022238113,0.04007712,0.07573402,-0.024754733,-0.05110712,0.017966755,-0.01710131,0.015344761
0.064282045,0.05542393,-0.085766606,-0.045085877,-0.052058917,-0.07996674,0.08321045,-0.05741314
0.03441742,0.041209072,0.059741125,0.04106182,0.040234238,-0.054367207,0.041000575,-0.054221034
0.014428601,-0.08030774,0.029872924,0.015070282,-0.08688367,-0.0045208335,0.07890664,0.04059641
0.01595129,-0.021472093,0.033122413,-0.07671363,0.06311089,-0.09576198,-0.0752877,0.06932412
-0.0065848827,0.089334026,-0.08145268,0.040053308,0.07879386,-0.003236426,-0.078806244,-0.006980743
-0.058774095,0.07113351,0.010998428,-0.06909824,0.07790789,0.15741652,-0.005797647,0.015434891
-0.06999853,-0.029732978,-0.048188604,0.029260442,-0.039607186,0.081189275,0.044900507,0.023932181
0.042179957,0.035370298,-0.018379532,0.08676478,0.021536417,-0.017659798,0.037540607,-0.06985877
-0.023545101,-0.030102503,-0.014194474,0.017786056,0.03188692,0.024984933,0.070405096,-0.0790738
-0.0065543354,-0.0059656054,-0.028053962,-0.06535713,-0.04097028,-0.00047256052,-0.07708359,-0.014617436
-0.049241025,-0.041636553,-0.0049218014,0.07331103,-0.08407006,-0.050078854,0.032729894,0.037479393
-0.058496356,-0.0684594,-0.07873908,0.0146770775,0.020179532,0.07424733,0.034734964,-0.04642411
0.05150585,0.051170886,0.013865083,0.017120503,-0.04744777,-0.049747676,-0.05722762,0.07931918
0.022562154,0.06605896,0.024308324,0.051099256,-0.036946986,0.04192415,-0.07340789,0.0063379332
-0.011867009,0.013891958,0.055523723,0.046134755,-0.010956779,-0.08179905,0.07201591,0.019082427
-0.015504174,0.053759262,0.04428281,-0.03241582,0.0830358,0.03254296,-0.07508414,-0.05457852
0.016421795,-0.007009499,0.011408381,-0.06514239,-0.060376912,0.04736422,-0.07811572,0.020896815
0.02941724,-0.08138767,-0.06391132,-0.025553487,-0.06969429,-0.045878902,-0.018075831,-0.06276655
0.073199704,0.026526801,0.03597697,0.07183848,0.0138577,0.07082264,-0.040035687,-0.010414496
0.080846265,-0.058350407,0.08308649,-0.059298366,0.03544423,0.038801357,0.054774225,-0.04857747
0.018867299,0.049443126,-0.018331073,0.020946011,-0.06913059,0.05280745,-0.04314244,0.05783327
0.025593951,0.06389049,0.08135913,-0.06545308,-0.0009562969,-0.05383115,0.03599131,0.03937383
-0.03202581,0.07945493,-0.045044478,0.08610891,0.05172324,0.055446833,0.021918334,-0.0093235
0.06833811,0.06147103,0.083743334,0.083761126,0.058018893,-0.02966126,-0.07475197,-0.019252716
-0.018053003,0.054952644,-0.040799305,0.051982656,-0.033872105,-0.011589102,0.038742214,-0.037550054
-0.4497624,-0.040141206,-0.2952148,0.037124537,0.014205225,-0.030122858,-0.02815831,0.084788516
-0.4528567,-0.018928932,-0.30373213,-0.037633676,-0.05694992,-0.003418925,-0.10698119,0.012019353
-0.119220376,-0.09728355,-0.12588128,-0.012158933,-0.005395925,-0.35617918,0.03133706,0.3740678
-0.5331031,-0.083703905,-0.016051784,0.06404393,-0.021359311,-0.27530348,-0.53528637,0.24776384
-0.6126517,-0.06726726,-0.35773852,0.0025895834,-0.021079615,-0.21095477,-0.6365397,0.33752874
-0.49743214,0.69361264,-0.48601538,0.017826509,0.06237194,-0.26758412,-0.41937536,0.045690037
-0.121615164,0.72831994,-0.05517126,-0.19290654,0.038123973,-0.23959337,-0.40768448,-0.04575767
-0.14845589,0.52929664,-0.02976532,-0.19742402,0.1762196,-0.10097079,-0.32497516,0.057595383
-0.33414432,0.4935889,0.19186594,-0.2632963,0.38433003,-0.25500113,-0.87190264,0.006805981
0.43171299,0.16479515,-0.20918666,-0.5501597,0.5567996,-0.2951933,-0.24759081,0.3515504
0.122293174,-0.07420416,-0.4480077,-1.0189075,0.014079601,0.2578502,-0.129373,1.125267
0.33856446,-0.044832136,-0.33146262,-0.12953658,-0.038409494,-0.25380206,-0.17270254,0.20359229
-0.09992899,-0.0008824371,0.04878858,0.032959763,-0.0004224486,-0.5293056,-0.9981941,-0.09913952
-0.14223266,-0.08137533,-0.09137316,-0.15989448,-0.0012577313,-0.2852474,-0.9249958,-0.1545506
-0.24053623,-0.014830805,-0.500997,-0.26427636,0.006741157,-0.04474792,-1.2607747,-0.05128828
-0.32749236,-0.0669184,-0.4461939,-0.059282813,-0.09970867,-0.07480336,-0.89568883,-0.11174703
-0.7365169,-0.0072202757,-0.3750948,0.07865463,-0.0606165,-0.11476883,-0.95458025,0.052456677
-0.68109465,0.0688041,-0.5129426,-0.07662101,-0.061876073,-0.013530925,-0.6670488,0.08349949
-0.017803751,-0.06886445,0.022630304,-0.02981086,0.05240713,0.058906227,-0.03609175,-0.0027434975
-0.024254866,0.0012102574,-0.065751515,-0.031815033,-0.031410564,-0.045582753,0.053434163,0.046039745
-0.03562307,0.003255792,0.032256007,-0.055915926,-0.065034375,0.0381698,0.0015561655,-0.076297015
-0.028277643,-0.032701485,0.010424025,0.08271682,0.008177407,0.040617213,-0.04875938,0.052472413
-0.060892675,0.081762284,0.03346224,0.010568872,-0.005305931,-0.08602538,0.086640134,0.049824163
-0.012356587,-0.04099871,0.0012303889,-0.034530226,-0.05186736,0.06174849,-0.048385162,0.08031319
-0.02818621,0.0023182705,-0.061555423,0.058698058,0.0044705346,-0.070232004,0.07431662,-0.042363234
-0.70118445,0.31409064,0.058578644,0.05260031,0.14581096,0.06754878,-0.6322685,0.008669265
-0.64479464,0.3844262,0.0029139728,0.059205234,-0.16504057,-0.053511165,-0.60226583,-0.021995906
0.073328465,-0.09057942,0.047587294,-0.07426294,-0.121555835,-0.30987263,0.06697733,0.0037247536
-0.87800306,-0.2246901,-0.23591891,-0.2872545,-0.11432288,-0.2402189,-0.35744494,0.08454709
-0.88864267,0.32557613,-0.34308663,-0.24164875,-0.20929208,0.15414378,-0.3630359,0.20671412
-0.830339,-0.6319963,-0.44201416,-0.28406578,-0.058032356,-0.28848284,-0.6505322,-0.36708906
-0.6496262,-0.4846237,-0.58827645,-0.5567954,-0.30726185,0.29239416,-1.262284,-0.41989043
-0.7395887,-0.34691414,-0.1770938,-0.6291268,-0.99205375,-0.6053828,-0.5613493,-0.47230998
-1.3949553,-0.93063366,-0.7511187,-0.012485601,-0.95096815,-0.43561912,-1.1006311,0.09631745
-1.3465027,-1.0619745,-0.3032513,-0.5932228,-1.3184988,-0.11336018,-0.987685,-0.26805192
-0.90066725,-0.7918478,-1.0997953,-0.2711347,-0.32918432,-0.059811745,-0.5488955,-0.37383288
-1.4098552,-0.18269584,-0.84429896,-0.76711625,-0.48341668,-0.035255816,-0.87994874,-0.0015783374
-1.7098833,-0.29411718,-0.9102447,-0.53177327,-1.2142538,-0.9278834,-1.3682154,0.6044112
-0.6369779,-0.4955841,-0.4205971,-0.27531758,-0.02138862,-0.31009954,-1.5422407,-0.096214525
-0.5974022,-0.84216,-0.18719894,-0.62107754,0.46629593,-0.28308517,-1.2999814,-0.00010832334
-0.40581495,-0.5913481,0.12874797,-0.29612765,0.04692355,0.02341707,-0.9469368,-0.3533308
-0.5476754,-0.39974,-0.34990495,-0.17700823,0.36127993,-1.0037329,-1.0029494,-0.4815596
-1.0491091,-0.68969005,-0.28983104,-0.46093956,0.7916654,-0.82940567,-0.5313811,-0.25825277
-0.4647101,-0.2819218,-0.5213038,-0.33399662,-0.6334584,-1.09864,-1.4945387,0.07082878
-0.6503927,-0.026000977,-0.40904567,0.038377576,-0.17075802,-0.78026813,-1.3405616,-0.012595106
-1.3003459,-0.013537935,-0.521594,0.034606848,-0.046168234,-0.36753145,-1.3652935,-0.024363408
-0.8778211,-0.12989022,0.055772275,-0.7826735,-0.018006936,0.19679403,-0.82552934,-0.07307172
-0.04057714,-0.014830969,0.059953243,-0.06455161,0.09312234,0.096429944,-0.66740435,-0.06524291
0.0088524595,0.020908266,0.026104525,0.028520666,0.080168486,-0.074084595,-0.07918922,0.07165769
-0.017633528,-0.005712457,-0.051855177,-0.070552245,-0.064172,0.058943138,-0.07258543,-0.0225259
0.045780957,-0.015813857,0.053548798,-0.033322,0.011443801,-0.07235403,0.08314653,0.002847895
-0.054747567,-0.072195694,0.0058247223,-0.07271725,-0.07107774,0.013756514,-0.060656145,0.020909905
0.028025612,-0.058256984,0.05455853,0.010559842,0.03183159,-0.0033131337,0.022053787,0.015417457
-0.86373603,0.42328092,0.018500548,-0.07749096,0.38992995,0.14043212,-1.30576,-0.09389309
0.24509422,-0.6634805,-1.0367956,-0.9173041,-0.10175198,0.13721843,-0.07393849,0.048982665
0.59482765,-0.09592034,-0.08893576,0.047430888,0.5870063,0.19428334,-0.107425444,0.14452447
-1.214347,-0.50255746,-0.35934204,-0.23679888,0.86147696,0.036024105,-1.0458829,-0.5722213
-0.34590825,-0.8223146,-0.7447067,-0.42305163,-0.27262902,-0.6141697,-0.62301797,-0.3545983
-0.3766473,-0.09541613,-0.36834082,0.18588504,-0.77282834,-0.40041432,-0.5347501,0.10395879
-1.6975152,-0.17937618,-0.5847793,-0.2831655,-0.17192899,0.3026288,-0.8278469,-0.37564686
-1.695909,-0.7380341,-0.64172155,-0.32630184,0.086406946,-0.20430492,-0.5235262,-0.42244068
-0.5513559,-0.13513266,-0.9817846,-0.13858083,-0.04646134,-0.23643307,-1.0660203,0.10002885
-1.0492102,-0.64078385,-1.503661,-0.1202183,-0.2127481,0.002540863,-0.69423676,0.5041869
-1.8765912,-0.12846692,-1.166491,-0.14092219,-0.22400971,-0.045045327,-1.8815722,0.3328868
-0.47984126,-0.41359004,-0.33428544,-0.02980741,-0.40776068,0.07877318,-1.3192123,-0.45039916
-1.0082341,-0.29934478,-0.82580096,-0.047677364,-0.0025679823,-0.1799844,-1.037082,-0.07842841
-0.616867,-0.24943364,-0.3466988,-0.1448154,-0.30692038,0.2495463,-0.9462344,-0.1333132
-0.38253674,0.05797777,-0.45889714,-0.2176759,0.037002582,-0.16216658,-0.31818342,-0.47279707
-0.56578773,-0.23496772,-0.032233767,-0.21524546,-0.18869723,-0.24904323,-0.6084591,-0.4093733
-0.74214894,-0.038198695,-0.46766955,-0.36562702,-0.0011680755,-0.43802232,-0.6649016,-0.70835835
-0.28001374,-0.012629694,-0.45813736,-0.070883825,-0.21468125,-0.26234543,-0.592932,-0.3213071
0.3784939,-0.473652,-0.8101402,-0.11857974,-0.013429104,-0.35339057,-0.70490026,-1.3310206
0.44484416,-1.0784256,-0.656314,-0.38577121,0.072299644,-0.25147617,-0.66950285,-0.4374819
-0.1558096,-0.2799563,-0.51619804,-0.47368103,-0.10375738,-0.88838106,0.0026753887,-0.34326646
-0.9065382,0.0733638,-0.087911405,0.113423266,0.3575353,0.34712887,-1.107333,0.14618519
0.10573322,0.7173968,-0.20507304,0.12621683,-0.65073943,-0.16175298,-1.2148165,-0.024665803
0.040894717,0.6284513,-0.017844282,0.0721824,-0.36649647,-0.055496924,-1.1206812,0.026063198
-0.07530249,0.074324876,0.059696987,0.08183123,-0.030953094,0.006874077,0.0034389645,0.04367651
-0.014608242,0.06444055,0.036320657,-0.055528514,-0.051233914,-0.027724799,-0.073942885,-0.035094485
-0.08611135,0.37468374,-0.012100398,-0.6648845,-0.60004485,0.26612055,0.106466524,-0.0070084087
0.08998797,-0.1424919,0.11616549,0.42040944,0.24636178,-0.17348158,0.10129049,0.05081603
0.07279584,0.1883467,0.11839226,0.42787886,0.9627076,-0.85802287,-1.0866159,-0.28888294
-1.294563,-0.60064065,-0.009260904,-0.33456442,0.49977764,-0.32134816,-0.61661845,-0.3694009
-0.17376167,-0.23897025,0.24298096,-0.10460718,0.29966274,0.7241881,0.071575835,-0.9368426
-0.8461878,-0.11488199,-0.06262127,-0.19694261,0.01879035,0.11998784,-0.67745936,-0.3526645
-0.8545632,-0.3336468,-0.23058136,-0.10457574,-0.32464847,0.20334966,-0.25891232,0.28642547
-0.32266903,0.072369374,-0.19427729,0.6073061,0.23196322,0.3205734,-0.11662829,0.34815064
-0.83488464,-0.18002535,-0.50127053,0.018845344,0.09553488,0.34534973,0.047751706,-0.15321252
-0.26273346,0.055294164,-0.396835,-0.12715518,-0.06388767,0.19741665,0.05871518,0.15232705
0.09528454,0.6627952,0.21586771,0.01409863,0.15854442,0.3457884,-0.039061822,-0.029459108
-0.03938238,-0.043746796,-0.27842876,-0.08757165,0.21136336,0.08458308,0.04149162,0.18811981
0.01506713,0.18509965,-0.0021390337,0.07071212,-0.095017165,0.10285884,-0.13473602,0.17512299
-0.23326886,-0.17700917,-0.6432993,0.028902454,0.122669615,0.18900837,0.110000186,-0.1364506
-0.02975775,0.2747805,-0.5864333,-0.13058992,0.14305104,0.21997856,0.00056656013,0.03619462
0.24101749,-0.123095915,-0.2352013,-0.02845575,0.019834422,0.06017031,-0.016761966,0.0637659
-0.2681572,0.10598547,-0.47682208,0.013534106,-0.14510092,0.02113324,-0.10476832,-0.40412384
0.05977085,-0.22871825,-0.087776884,0.19588758,0.1427453,0.15747206,-0.049527835,0.05327271
-0.22906646,-0.05588077,-0.060770787,0.00062181434,-0.016511543,-0.048735492,0.26660013,-0.18236168
0.21481404,0.14744896,-0.30961522,0.023122443,0.013213629,0.1213461,-0.02137702,-0.09391504
0.32516328,-0.23357831,0.14950049,0.07276432,-0.07669694,-0.25894386,-0.14911622,-0.0050649066
0.018175775,-0.070878334,-0.06180256,-0.031689607,-0.095602356,-0.18373498,0.12050011,-0.5104592
0.25182873,0.099074535,-0.51975405,0.2485011,-0.110894434,-0.33213246,-0.28866538,-0.6938762
-0.51883054,-0.14207527,0.36208963,0.4678464,0.19924343,0.03164105,-0.008913677,-0.5733053
-0.018268773,0.18201458,0.35553187,0.39749712,0.8888709,-1.1918254,-0.91345334,0.22363147
-0.37478253,0.9216142,-0.055936623,-0.25761425,0.33877733,-0.54032695,0.6820636,0.05721487
0.014026659,-0.061188012,-0.761876,-0.0700746,-0.3271228,-0.43034858,-0.22475083,-0.022354716
-0.017677374,-0.023243412,-0.067681044,0.018869229,0.073067605,-0.04060781,0.02395901,0.06601708
0.017934926,0.04086341,-0.07154499,-0.07941554,0.07855028,0.04465893,0.046472043,-0.08236682
-0.65098137,0.22923248,-0.14159842,-0.67103773,0.10840635,0.68277544,-0.019644013,-0.17906237
0.14576547,0.91255987,-0.93152285,0.105838165,-0.13831542,-0.05614843,0.12915196,0.542329
-0.38017154,0.12576409,-0.45913973,-0.17371039,0.34227479,-0.2723393,-0.2107156,0.44177067
0.22643071,0.0612429,0.5044736,0.062393237,0.2186999,0.37642795,0.36602867,0.3739526
0.13522097,0.10463865,-0.06269999,0.28025347,0.039092556,-0.0035493197,0.19378911,0.049298782
-0.31851748,0.004507825,-0.17636435,-0.07508993,0.030355869,0.070436895,0.29216203,0.5011401
0.08161067,0.079381466,0.085145794,-0.10248766,0.03189845,-0.097675025,-0.518319,-0.033924833
-0.04353132,0.08762427,-0.04183329,-0.09290328,-0.07316959,-0.025208037,0.122834235,0.053393766
-0.14896248,0.10429928,-0.24837652,0.09695115,-0.035552178,0.0046634316,-0.14845589,0.05928849
-0.05335311,0.21727115,-0.28393453,0.14285122,0.1217882,0.1098823,0.05326396,-0.1395932
-0.0775567,0.05052026,-0.006137605,0.06856895,0.17450309,0.020856638,0.11332305,-0.019258171
-0.21189801,0.2347776,0.03262705,-0.022832517,0.10423418,0.10801686,0.052617587,0.16482288
-0.032817807,0.17652407,-0.31708792,-0.006748783,0.0067311428,0.12024618,0.048444923,-0.048576687
-0.25512218,0.13795574,-0.17899238,0.05031895,-0.08210644,0.19377674,-0.030056559,-0.08702904
-0.106904216,0.111569606,-0.26069844,0.18258618,0.15173101,0.113707334,0.0882658,0.0010895072
-0.033528417,0.2658069,-0.1882774,0.019725258,0.12918915,-0.117421746,0.07141594,-0.026239952
0.09685668,0.16967319,-0.10711569,0.2886148,0.027575802,0.09690607,-0.023703327,-0.04517505
-0.27409536,-0.018062579,-0.06668457,-0.03107159,-0.07960361,-0.023734093,0.1289422,-0.039284825
0.09365477,-0.16862959,0.08679318,-0.019350551,0.046558343,-0.09622697,0.010538655,-0.07773598
-0.13246539,-0.21793513,-0.3856656,-0.037565507,-0.1417629,0.052597117,0.036964145,-0.13236515
-0.09606604,-0.10639549,-0.05759066,-0.044999123,-0.12790538,-0.39333233,0.0037901872,-0.47910184
0.5642444,-0.13318616,0.035084147,-0.047011722,-0.25543135,-0.5564578,-0.2550519,-1.071735
-0.22372317,-0.41836253,0.1411834,0.23067582,-0.2597035,0.3343327,-0.0155961,-0.8989016
-0.4000241,-0.11986744,0.31794313,-0.15918572,0.6801294,0.22034962,0.3358396,-0.61546737
-0.6766845,-0.27922454,0.06461051,0.15914999,0.32709244,-0.34676963,-0.64931923,0.61803824
-0.008808151,-0.85062426,-0.06282428,0.8502503,-0.061078757,-0.5334067,-0.73299354,0.013207534
-0.0404303,0.05159983,-0.0039906725,0.042808384,-0.03751079,-0.067608915,-0.03358422,-0.012676038
-0.07724793,-0.3207445,0.5536673,0.5835133,0.10761979,0.56103283,-0.6433624,-0.124613665
-0.35614812,0.37585735,0.68124026,-0.55754095,-0.11988352,0.28761166,-0.45673263,0.41959316
-0.3729353,0.7240045,-0.11632742,0.18020076,0.41542184,-0.01840992,-0.49908566,-0.24917479
-0.55744064,-0.3900739,-0.025822341,-0.012807639,0.36094323,-0.1932396,0.03759375,0.33482036
-0.052020036,0.05181411,-0.10846856,0.21907502,-0.05815431,0.39057425,0.08122997,-0.119364925
-0.046516165,-0.3282622,0.15325867,0.12857342,0.04795296,0.27061892,-0.14819631,0.07745808
0.10432034,0.059602555,0.007678806,-0.101749994,0.0051633585,-0.027472092,-0.14875747,-0.2684092
0.22077031,0.026771093,0.41882312,0.11106753,0.12034481,0.05685415,0.17111282,0.0631386
0.116225116,-0.38608545,0.2641512,0.18490161,0.09115926,-0.0059799417,0.025834719,-0.09311086
-0.22327174,0.18623951,0.055357117,-0.10072206,0.18099238,0.16416742,0.059182208,0.17573752
-0.10253729,0.16345689,0.2716062,-0.07458997,0.036550693,-0.012267468,0.0018119415,0.13506067
-0.06528826,0.2209869,0.053638596,-0.017165512,0.06012453,0.06965784,-0.0004990395,-0.03606179
-0.12286553,0.045865458,0.14083317,-0.013622294,0.18064503,0.06995616,-0.03871099,0.0006022052
-0.20324071,0.09679959,0.19869193,0.00091776205,0.013604913,0.002872637,-0.036612436,0.030898914
-0.028738037,0.04710877,0.15244004,0.10093501,0.033614982,0.06854335,0.1312759,-0.05872353
-0.097246625,-0.08596548,0.13765179,-0.10928662,0.1783928,0.13642639,-0.14123699,0.053065445
-0.06086471,0.17985468,0.1857146,-0.06811707,0.094963126,-0.045513913,0.060783118,-0.018000577
-0.18383451,0.16928788,0.15126882,0.0055917404,0.01028145,0.09549939,0.051128138,0.10094034
-0.1941334,0.10054277,-0.028109143,0.001802245,0.2159774,-0.06750308,0.08423781,-0.201788
-0.051855516,0.06034674,-0.032550726,0.22434458,0.0379173,-0.023860894,0.0980459,-0.04638242
0.021672552,0.14643508,0.18011771,-0.05689738,0.1418713,0.07562872,-0.030776095,-0.2255717
0.108324796,0.061532393,0.0010696786,-0.28487158,0.12679218,0.031876933,0.07096109,-0.42423898
0.2577473,0.16454516,-0.056079213,-0.035940774,-0.029090028,-0.2774739,0.028394181,-0.19411054
-0.06559992,-0.7864422,0.3042973,0.043869615,0.06492873,-0.13523465,-0.38387585,-1.096732
0.453606,-0.31252566,0.0513714,0.05544768,0.45694703,0.050606456,0.15911189,0.18361835
-0.0434028,-0.0015086337,-0.09182578,0.6602637,0.9069714,-0.30477756,0.2164878,-0.08303539
-0.12437589,0.099988885,-0.02584563,-0.020788359,0.42894846,0.24375919,0.23003632,-0.068420894
-0.09660252,0.051719714,-0.17297663,0.02445833,0.0890695,-0.0043223146,-0.04033507,-0.012662008
0.22229846,-0.87503886,0.4114574,-0.3218281,-0.08236051,0.07621409,0.012403056,-0.011001026
-0.07652694,0.13724437,0.92416894,-0.002205119,-0.3252021,0.19842908,-0.7791398,0.111068234
0.29812196,0.89878845,0.19227636,0.20112684,-0.098838165,-0.22369196,0.22212109,-0.22487001
-0.22921652,-0.07879708,0.34457862,-0.19394624,-0.08769881,0.2751979,0.0986135,0.17940539
0.04449968,0.45712256,-0.49821046,-0.011520989,0.2535246,-0.17538328,0.013135352,0.2520846
0.03456372,0.165734,0.03658239,-0.13619858,0.1139781,0.1981513,-0.042679362,0.11263209
0.13132316,0.09841722,0.24024531,0.0025842022,-0.18398722,-0.14014971,0.10956437,-0.17143211
-0.0369725,0.0700451,0.23709898,-0.045100663,0.3696104,0.13232385,0.2402613,-0.07133998
0.12357726,0.121769734,0.045299187,-0.24300912,-0.014187757,0.26845917,-0.1787914,-0.12488713
-0.2604011,0.031625174,0.15261404,-0.021317324,0.19744682,0.13627811,0.082403935,-0.06357847
-0.038507897,-0.01485137,-0.013149532,0.0128389,0.018528558,0.082481496,-0.017333157,0.020449221
-0.32797885,0.103972845,0.1596976,-0.045868244,0.15445566,-0.030390946,-0.17464346,0.20073144
0.0001870163,0.107926525,0.17537525,-0.04770262,0.16031942,0.09524747,0.0936505,-0.09212134
-0.20862834,0.1491649,0.16982403,-0.022884235,0.02895469,0.16774291,-0.16164318,0.04008449
-0.19704609,-0.025805928,0.05167538,-0.029192276,0.25229275,-0.09949109,-0.0039454824,0.024761675
-0.16122611,0.03377219,0.25584492,-0.14178596,0.1062634,0.0674309,0.005616432,0.024041427
-0.022565974,0.30594194,0.10047222,0.12767717,0.13524054,0.04279656,0.068516076,-0.023920057
-0.09234931,0.07745856,0.10322765,-0.05951491,0.11697274,0.0062339753,0.13251604,-0.22944877
-0.0077607348,0.13996401,-0.020905837,-0.14993952,0.11732433,0.0839101,0.061415005,-0.08161723
-0.13947217,-0.02834239,0.12739521,-0.09832352,0.021256357,0.061500534,0.026801456,0.14886104
-0.11126685,0.2394362,-0.10071524,-0.15545839,0.09086729,0.010518965,0.018161798,-0.79288554
-0.0033779512,-0.071302906,-0.24173504,0.12535734,-0.037960175,0.028194558,-0.045096595,-0.7625563
0.006179425,0.05450632,-0.36316997,0.08285381,-0.019557517,-0.1278321,0.026243655,0.0015968905
-0.052970365,-0.2553252,-0.17730354,0.22247675,0.14955759,-0.72129256,-0.03577607,-1.042715
-0.13366379,-0.53690886,0.3601733,0.29438937,-0.040858984,-0.87219244,0.041794162,-0.116284356
0.11179099,-0.7438467,-0.063564554,0.7430913,0.30276597,-0.47585672,0.03337002,0.12795053
0.27274898,0.5309543,0.6531905,-0.49173045,0.7637684,0.72800857,0.48978612,-0.21940194
-0.36943337,0.010267665,-0.11147796,-0.0502245,0.23045169,0.0112409685,0.078575864,0.042213112
-0.24522822,0.15422331,0.535298,0.015092613,-0.4425278,0.39454806,-1.1623758,-1.0068216
-0.10958087,0.08684767,0.5683378,0.54562885,0.07879328,0.18630429,-0.89852816,0.09678207
-0.046416357,-0.32865274,-0.035819404,0.15056127,-0.08797814,0.2652622,0.1684966,-0.065817356
0.105917044,-0.1279437,0.12745143,-0.11125991,0.30445787,0.14517392,0.014120706,0.2851304
0.06254333,0.13280816,0.30389908,-0.093334004,0.26094043,-0.054280344,-0.12909336,0.045707785
-0.08048687,0.01379744,0.10098577,0.054436363,0.24090607,0.018481163,0.19966947,0.09090529
0.12253988,0.30773127,0.05818295,0.15509981,-0.089468926,0.29801556,0.07012726,0.33815625
-0.08228298,0.22052313,0.15533198,0.12040371,0.08991682,0.05334957,0.08108991,0.050967485
0.09233655,-0.037861533,0.18825845,0.1580819,0.10738718,0.0810775,0.26628795,-0.019062443
0.16046715,0.10620573,0.13884124,0.007460252,0.029252896,0.19742763,-0.01649591,0.033124294
0.014758909,0.0406757,0.14565563,0.09840688,-0.0602433,0.107061416,0.16054015,-0.075686626
-0.06898771,0.34606266,0.16976632,0.003692867,0.0421658,0.123957716,0.15197423,-0.19250272
-0.05471608,0.04649417,0.07673182,0.14558478,0.19345818,0.05203249,0.1089778,0.09363522
-0.09226072,0.15277761,0.14016785,-0.061725926,0.027695606,0.16006744,-0.15533538,0.12635547
0.023701515,0.04222939,0.1236782,-0.03408953,0.017878266,0.061831135,-0.004633049,0.123337306
-0.15734094,0.2699936,0.033809677,-0.16246592,0.1983407,-0.10001091,0.04413852,-0.090424225
-0.106678925,0.13767365,0.12184119,-0.088186696,-0.019396815,0.051347565,0.06298002,0.16480632
-0.011151785,0.22514863,0.17464942,0.07852235,0.20549496,0.2936692,0.12363384,0.03227168
-0.08403169,0.15295185,-0.0017313882,0.12687886,0.06129584,0.28398988,0.03939758,0.07446902
0.13900445,0.3411764,-0.0025031362,0.29715246,0.07844853,-0.0024938507,-0.028806051,-0.16276905
-0.10101736,0.28866374,0.16579898,0.27321193,0.018482251,0.0762011,0.14057553,-1.2143699
-0.14391905,-0.21350065,-0.030642552,0.16951872,0.038103495,-0.018090962,0.15592018,-0.43641993
0.023912277,0.23896818,-0.05079581,0.09225967,-0.075634316,-0.30755752,-0.2783523,-0.5184875
-0.05848712,-0.3695981,-0.045140833,0.23732917,-0.0012885716,-1.0637956,0.030238135,-0.62084323
0.044067964,-1.3881361,-0.054096263,0.20218474,0.028762411,-1.5127567,-0.004656503,-0.26358885
-0.28647748,-0.54356414,-0.36913586,0.44589204,0.31360507,-0.45229673,-0.021282993,-0.5331922
-0.56006616,0.81352025,0.22124451,-0.545932,0.7352636,0.40589282,1.2499354,-0.17395304
-0.1321415,0.077849016,-0.11588642,-0.010964442,0.047424313,-0.15391444,0.026126295,-0.0019836393
-0.6882654,0.16261041,0.25908887,-0.32829988,0.08945192,-0.051186804,-0.55866456,-0.3166512
0.42070302,0.07461684,-0.107947834,-0.912494,-0.044372074,0.17695059,-0.7934896,-0.09593871
-0.3283437,-0.1449462,0.5604631,0.01708839,0.11240208,0.2834567,-0.20075466,-0.19748585
0.29742265,0.0908175,0.35054627,0.31957266,0.2196691,0.26997095,-0.14747524,0.36822498
0.22352456,-0.11182846,0.16529945,-0.07350857,-0.32062408,0.36053467,0.08243852,-0.19355452
0.0640753,-0.06125752,0.09196581,-0.07509602,0.032540083,0.026791332,0.0640418,0.10782607
0.086842746,0.006869843,0.24453574,-0.051118784,0.12427889,0.18204167,-0.18315224,0.07592267
0.05302103,-0.08828103,0.031102784,-0.071536765,0.16030964,-0.035273552,0.039284546,-0.26506677
-0.057647865,0.08007098,0.1660923,-0.19896707,0.17416522,0.18715522,-0.009508385,-0.118278675
-0.057832737,0.043731634,0.06936175,-0.014179064,-0.009389668,0.101654224,0.18895109,-0.35702386
0.059542272,0.009761849,-0.06969911,-0.052233897,0.03508145,0.114575565,-0.15216155,-0.23920482
0.0075997435,-0.07459933,0.12228804,0.07429567,-0.018907046,0.047536515,-0.0417373,-0.25676134
-0.07135203,0.08307634,0.096495576,-0.10419225,-0.07383736,-0.056365084,0.055213463,0.20087647
-0.19558597,0.12877354,0.023857018,0.010526742,-0.009448839,-0.071461156,-0.31011522,0.3607153
-0.17709015,0.042530417,0.13426599,0.20038904,-0.03900813,0.12378886,-0.2016987,0.47739103
-0.10794247,0.39306292,0.052670546,0.06843096,0.047226287,0.19020264,0.102193356,0.43256944
-0.019647732,0.35177702,0.0917624,0.12508045,0.11693343,0.17086832,0.21789621,0.17284907
-0.10409279,0.32464048,0.07873469,0.102876216,0.06937884,0.22610502,0.14320484,0.0833186
-0.08533931,0.27270856,0.19657388,0.03847642,0.07035992,0.036937322,0.14418595,-0.012074198
-0.045320082,0.09366281,0.0036799344,-0.0859369,0.14588588,0.11373392,0.15520586,-0.26172173
0.20901488,-0.0061768284,0.05710897,0.066184044,0.1379467,0.08335851,0.044638693,-0.93722844
0.07658759,0.033456117,0.13487847,0.31175175,0.11722371,0.01420434,0.12678233,-0.15725948
-0.09657105,0.35405427,-0.07317431,0.11498133,0.045216102,-0.14927466,0.019222768,0.10697255
-0.6577469,0.36016443,-0.28007057,0.5244382,0.24978305,-2.2316668,0.0071528954,-0.4258291
-0.8072012,-1.073445,-0.52215284,0.6710784,0.8649223,-0.5627535,-0.056389935,-0.56522906
-1.1924392,-0.38115618,-0.7391501,0.3556865,0.37506524,-0.07216364,-0.15125756,-0.08524748
-0.3197437,0.67700475,0.237884,-0.22105971,0.24845174,0.018064953,-0.5802394,0.057665046
0.10362397,0.027371684,-0.010613543,-0.0138806105,0.022216387,0.023763595,-0.07997708,-0.066269316
-0.19523144,0.015922686,-0.24389721,-0.23104444,0.20061481,-0.16835018,0.050276626,0.08789402
-0.04358606,0.19239616,0.099612124,-0.4046709,-0.23782013,-0.9931533,-0.15482496,0.27814996
-0.5963194,0.17476007,0.5677278,0.2289676,0.33937603,-0.48500794,-0.44972545,-0.15304254
0.012192063,0.034807634,-0.023865381,0.13776316,0.2635427,0.0926896,0.122618645,0.47126907
0.1443564,-0.1619128,-0.035888363,-0.10957628,-0.12046823,0.091419145,-0.1891983,-0.29887688
0.02922766,-0.26993203,-0.12584692,-0.0029465675,0.030220443,0.3035458,-0.2000522,-0.30517343
0.14909129,0.06117776,-0.08030041,-0.050213244,0.010535632,0.09197613,0.06883213,-0.090808176
0.022830466,-0.15230678,0.01823881,0.10522923,-0.15947092,0.086725466,0.049302187,-0.15907241
0.21580166,-0.07456256,0.14944029,0.09213766,-0.10691202,-0.084974565,0.014193285,-0.27366057
0.0087753525,-0.18155934,0.14329568,-0.20550315,0.04299562,-0.4010725,-0.09324205,0.0003382542
0.062551,0.026523538,0.1311822,-0.14394376,0.1167452,-0.31713957,-0.037753154,-0.038087636
0.13802218,0.13195427,0.2282399,-0.045523353,0.103591256,-0.5310739,0.10241384,-0.04091877
0.16318183,0.23981595,0.19701074,0.22911982,-0.17800282,-0.47362238,-0.101284035,0.11850837
0.021881603,0.13072868,0.17850398,0.12721798,-0.009298423,-0.31088072,-0.3195559,0.5011157
0.124445856,0.02027125,-0.030222872,0.23775423,-0.049920246,0.13363965,0.02365595,0.44116706
0.106014736,0.20242104,0.14501004,0.2928858,-0.04121664,0.24832515,0.049390554,0.19857524
0.040171213,0.44895452,0.115079135,0.09727075,0.060489256,0.32454303,0.20636655,0.09915853
0.037266757,0.29322866,0.23924398,0.047432434,0.033090238,0.14368337,0.16041219,-0.11824377
0.023795662,0.26479754,0.09947541,0.10927408,0.010474398,0.21928523,0.24604183,0.315542
-0.07906246,0.07558837,0.07059888,0.10201748,0.15657623,0.31578222,0.021740587,-0.92233914
0.12179347,0.47333443,0.05023699,0.13788794,0.029619794,-0.026392208,0.04543683,-0.88791525
-0.047906157,0.19659983,0.13940056,0.22604537,0.13200195,0.13211787,0.4094856,-0.18223214
0.022484284,0.25904235,-0.12919609,0.26303193,0.1526014,0.0792959,-0.22148669,-0.02103884
-0.032709647,0.32316867,-0.6946578,0.79203165,-0.05723678,-1.5276052,-0.226602,-0.91155183
-0.711168,-0.5349249,-0.2146257,0.8357241,-0.2971183,0.43268746,-0.4320024,0.19303037
-0.8310897,-0.66990256,-0.7019391,0.31941602,0.5624076,0.19329907,-0.08794477,0.43222213
0.045442227,-0.18575338,0.094231255,-0.5935533,-0.26185995,0.47486576,-0.2982525,0.90948653
-0.26819015,-0.113598056,0.24476805,-0.20622249,0.60960954,-0.17588998,-0.0024118633,-0.08720148
-0.23099868,-0.1625004,0.009712686,0.018799847,0.0023857986,-0.34692997,-0.1161218,-0.018403752
-0.11421408,-0.44521365,0.25350487,-0.26066414,-0.24502923,-0.7517013,-0.3877149,0.16592035
0.42282715,0.16090623,0.096325345,0.14430673,-0.14294602,0.258838,0.24776937,0.18567033
0.35481218,-0.051868588,-0.09935857,-0.06645722,0.25790256,-0.2301698,-0.25157753,0.14589989
-0.08405628,0.066513464,-0.0359791,-0.3066128,0.05242025,0.18112485,0.091893315,-0.24396825
-0.1044308,0.25565475,0.091166556,0.13483164,-0.12004917,-0.11188836,-0.15475993,-0.28770658
0.12942737,-0.123575166,0.15911955,0.07532569,-0.041124713,-0.5406516,0.17041849,-0.5878412
-0.024618436,-0.110557735,0.19508637,-0.037645806,-0.039430402,-0.3560685,0.02178539,-0.18078463
0.1876233,0.22703159,0.20984074,0.0051010465,-0.063663125,-0.5477413,0.028282804,-0.08069972
0.19702655,-0.07050835,0.113439605,-0.08906114,-0.005925346,-0.49526393,0.085372336,-0.20002492
0.012768437,0.10534795,0.16198881,0.03894619,-0.16059478,-0.46369332,0.04067665,-0.052817926
0.063093044,-0.0943574,0.03885791,0.18712041,0.05420345,-0.18685718,0.09577884,0.22235645
-0.09483192,0.0069898767,0.021943063,0.07430855,-0.0048431316,-0.48983023,-0.055138495,0.11419509
0.04638124,-0.37700477,0.16158514,0.12641118,0.006696366,-0.26810655,-0.02851489,0.43485844
0.15379441,-0.36567914,0.2820628,0.11664547,-0.060754076,0.027855333,0.09341523,0.24836735
0.27104554,-0.026047932,0.30248284,0.07466455,0.051149048,0.07641513,0.1719738,-0.05250164
0.15755083,0.25264132,0.31995234,0.06237336,0.18225512,0.23634063,0.08991179,-0.072514296
0.052217484,0.012598444,0.19091621,0.13928801,0.008486272,0.1113193,0.20109059,-0.09925358
0.12966293,0.07515139,0.13448687,0.084468514,-0.029189128,0.02016956,0.13902453,-0.52412355
-0.15792999,0.13719806,0.12607019,-0.0042709736,-0.22708374,0.12086952,0.03658171,-0.7218066
0.033104148,0.13110115,0.18232167,-0.050529066,-0.010900787,-0.19308335,-0.098363176,-0.27058956
0.0023422767,0.009786539,-0.044423167,-0.5053054,-0.021415705,0.04575091,0.10839145,-0.57800597
-0.028040275,-0.1854343,-0.06791466,0.042240582,0.020510364,0.15960345,-0.17513508,0.17635125
-0.83913493,-0.2997899,-0.1927489,0.13260983,0.58633137,-0.42258182,0.27298892,-0.16473083
-0.43038002,-0.37679747,0.5622082,0.29242456,0.63154525,-0.5571303,0.16259602,0.0327968
0.420293,0.0034630618,0.17493658,-0.029280748,0.8646617,-0.04390863,0.10529619,0.19586219
0.59754276,-0.5795851,-0.47786486,-0.64355695,-0.38719156,0.29937646,0.77910554,0.81640273
-0.2516941,-0.15105145,0.36815605,-0.20015557,-0.2730359,-0.0704855,-0.0012201959,0.015327416
-0.045328297,0.2064838,-0.03053909,0.051423214,-0.06821931,-0.33852416,-0.20231575,-0.38045996
0.21795896,-0.5483506,0.34253395,-0.64522666,-0.61063164,-0.70237523,-0.4823238,-0.09543558
0.4047689,-0.3660264,-0.037895862,0.23772849,-0.77394193,-0.23645958,0.18708713,0.32772908
0.14182244,-0.1445559,0.36912364,0.055959903,0.119117,-0.46082738,0.017883565,-0.27765182
0.059898052,0.2784176,0.19654956,-0.27747044,-0.07460264,-0.588125,-0.0110088205,0.14549804
0.010962031,-0.19114313,0.2375907,-0.11792124,-0.12024631,-1.0224124,0.098591104,0.21281317
0.13571489,0.05334178,0.3157818,0.048615918,-0.045459434,-1.0797786,0.09454307,-0.081375495
0.02021621,0.05602327,0.102448635,-0.120006435,-0.043185808,-0.7908136,0.0110279,-0.02154976
-0.22478776,0.04786287,-0.017319523,0.022467773,-0.0350142,-0.6919445,0.18207915,0.092142396
0.011569602,0.07071445,0.13905214,0.16927317,0.14343922,-0.26267645,0.10511502,0.07571829
0.14855938,-0.07002544,-0.04481506,0.20927033,-0.03134537,-0.3442509,0.04041264,-0.1332682
0.06336736,0.12096574,-0.16297147,0.094899364,0.028134681,-0.28218263,0.051373865,-0.004801346
-0.0660349,0.112059616,-0.29563197,0.06256057,0.039965294,-0.25959384,0.13693368,0.06178791
-0.115734406,-0.5569419,0.046983134,0.16759562,0.17652951,-0.14777936,0.15183486,0.28270346
0.15582138,-0.5773006,0.35625744,0.027453084,0.13174579,-0.039547592,0.09149718,-0.11085843
0.16858888,-0.067258514,0.19583365,0.08140369,0.032390784,0.1112597,0.17606753,0.004948799
0.05633171,0.13594112,0.32805818,0.08690834,0.14585857,-0.0139868315,0.1886632,-0.14251693
-0.029420642,0.018601758,0.2995774,-0.021424167,0.05838263,0.04248429,0.16627,-0.25065482
0.02967125,-0.032973677,0.15809979,-0.16194336,0.028798034,0.15233657,0.19941665,-0.24635695
-0.11159073,0.1866171,-0.010839346,-0.18863417,0.04056657,0.024629707,0.3392228,-0.14084247
-0.014183144,-0.10930618,0.020415096,-0.35763586,-0.0253904,0.07934521,0.2402782,-0.080617115
0.22892332,0.30844387,0.2798007,-1.1428614,-0.11829148,-0.07982778,0.15585262,-0.12101651
-0.46870467,0.11304229,0.05729206,-1.0854725,0.25049207,-0.27269477,0.40946212,0.22695506
-0.5256154,0.28815517,-1.0275629,-0.84383166,0.00018448237,0.19331044,-0.07694524,-0.036280677
0.21299398,0.1844421,-0.29393867,-0.7599973,0.6065419,0.2309805,-0.13944949,0.4069251
-0.46825746,0.24715579,0.58506405,-0.79207265,0.49181083,0.6573735,0.08286049,0.53926253
-0.06678029,-0.086589895,-0.15816025,0.2306763,0.5954315,0.037523612,-0.5548464,0.3754934
-0.17477645,-0.035777193,0.033535037,0.068965614,0.11974519,0.091684625,0.08855404,-0.38916093
-0.1334792,0.5171418,-0.04242483,0.05080234,-0.049942758,-0.3707708,-0.026556294,-0.36664453
-0.04757271,0.026142873,0.2789065,-0.38343242,-0.7213045,-0.504971,-0.3165811,-0.23361067
0.0007094916,-0.8712361,-0.10170319,0.035431877,-0.5780845,-0.43404087,-0.08452147,0.16621464
-0.04836303,-0.37119913,0.58538073,-0.1843175,0.09456928,-0.87626135,0.0075697326,-0.13166994
-0.12639183,0.0014153782,0.47351396,-0.37209263,0.23563711,-1.1762433,-0.07241547,-0.11618913
0.07947587,-0.111285366,0.093126476,0.0795006,0.2749779,-1.2007121,0.11260005,0.5556893
0.026445245,0.09031682,0.15325049,0.0067028175,0.28427076,-0.48026964,0.14897735,0.053254183
0.14494486,-0.07037664,0.0037005509,0.051607337,0.23856303,-0.20778878,0.08293678,0.07418039
0.049201425,0.012526902,0.0048229457,0.07520231,0.13237642,-0.039175536,0.018051464,0.07884649
0.06807102,0.1365071,-0.058291085,-0.17057641,0.0986222,-0.18634789,-0.07267901,0.1310407
-0.016743496,0.0063224565,-0.099054985,-0.08197896,0.05875007,0.08219686,-0.05885898,-0.112421244
-0.056000534,0.04956634,-0.087493494,0.1810446,0.16842043,-0.022998748,0.09711669,0.17082915
-0.2199013,0.03829638,-0.15778585,-0.013486915,0.057372704,0.12981956,0.22732526,0.056409754
-0.052802436,-0.6050448,0.13300593,-0.011438296,0.17739014,-0.046057843,0.10548692,0.28652373
0.09289892,-0.4030181,0.15887897,-0.13209136,0.05086006,0.0044098725,0.19060007,-0.15737975
-0.08745171,-0.029699663,0.18813227,0.2239513,-0.053026836,-0.003433692,0.25844085,0.31435558
0.059517622,0.26363403,0.10518798,-0.022570832,-0.004596741,0.07837082,0.17674254,-0.02248509
0.05255203,-0.1479299,0.18685263,-0.21567906,0.12985574,-0.06090466,0.060426895,-0.07656585
0.028297985,-0.022144837,0.09474164,-0.006554735,0.16838722,-0.18432109,0.05896619,0.0049331905
0.009544667,-0.17962801,0.26123673,-0.12646414,0.09543965,0.15735452,0.219603,0.19831733
0.116373025,-0.13274027,0.2975464,-0.08663906,0.17217143,-0.14239682,-0.076064184,0.32589903
0.3215457,-6.3295476e-05,0.029813252,-0.24577555,0.0073062987,-0.31123215,0.061366227,0.08494389
-0.1204446,-0.3866582,-0.68198776,-0.9411527,-0.26456812,-0.26928037,-0.1918479,0.08990986
-0.5380387,-0.097986974,-1.0162469,-1.0980165,-0.32955962,0.13397957,-0.5061118,-0.6880291
0.043390345,0.12871182,0.34103006,-0.20297313,-0.5201638,0.14349511,-0.3514927,-0.67336047
-0.2183958,0.70186377,0.3825968,0.13588323,0.22294521,0.6214093,-0.24063867,0.21095365
-0.23733944,0.050091956,-0.065060355,0.19731823,0.024976352,0.03310927,-0.5745108,-0.18629518
0.12907675,0.12403065,-0.4510329,0.30700457,0.51912314,0.084211394,-0.06816915,-0.013540447
-0.20898119,-0.42541835,-0.15914617,0.9912184,-0.44799638,-0.39448857,-0.11795387,-0.38799655
0.19951174,0.46083084,0.2244348,0.1162874,-0.7105336,-0.0515582,-0.33846214,-0.24454276
0.06686008,-0.45451254,0.25302702,-0.008126429,-0.73797774,-0.16737242,-0.13182265,0.34733775
0.22349404,0.08678314,0.25022176,0.022077234,-0.059440266,-0.24095772,0.44366097,-0.10353994
0.22574356,0.20888193,-0.091551214,-0.5651975,0.31277934,-0.1892386,-0.019628512,-0.25242054
-0.021184003,-0.1818304,0.14708881,-0.38983086,0.22560444,-0.10386016,-0.08135349,0.15405053
0.021627823,0.14596291,-0.08312234,-0.2268829,0.20192093,0.10512681,0.08848124,-0.21201916
0.08289745,-0.10062709,0.1540829,-0.033425357,0.07845465,-0.13597411,-0.043746077,-0.09492704
0.112248786,-0.08120325,-0.13005808,-0.0056995307,0.08121592,-0.06721019,-0.0031504992,0.012318769
0.08100554,-0.06523999,0.120046355,-0.18764667,-0.011411928,-0.0830408,-0.04570539,-0.29391155
-0.20409578,-0.21643409,-0.10154651,-0.024694975,0.056729928,-0.023253452,0.23273544,-0.10545543
-0.059408687,0.09708142,-0.08509665,0.05668129,0.07641563,0.07075711,0.06710684,-0.13810445
0.010394961,-0.37654346,-0.018897587,0.04226467,0.17597067,0.040865377,0.28018135,-0.13808762
-0.034770384,-0.28761825,-0.014312879,-0.07459111,0.07773094,-0.081050605,0.051089864,0.4274507
0.01397069,-0.1683132,0.21320252,-0.05590581,0.05446952,-0.12242958,0.09335954,0.013512744
0.108587004,-0.121948615,0.15251581,0.10380018,0.017474735,0.100806765,0.13711171,0.050049458
0.15637384,-0.13357133,0.22421244,-0.0939973,0.23696423,0.077072345,0.21016988,-0.2356131
0.2298411,-0.2270556,0.23547587,-0.07768068,-0.01208698,0.030249124,-0.051333345,-0.14966948
0.15281992,-0.04601844,0.25297028,0.10025548,-0.07964001,0.10853691,0.06851535,0.15066501
0.32060775,0.0020478924,0.20080583,0.039052114,-0.061174545,-0.10394511,0.15146679,-0.35898632
0.13127373,-0.04371064,0.034540758,0.17314811,-0.20160654,-0.14800157,-0.18913522,-0.048890974
0.0014273198,-0.054593828,0.08898742,0.39294702,-0.16712597,-0.24836071,0.064729385,-0.22924827
0.0349926,0.26322627,-0.22708079,-0.30499813,-0.4743752,-0.2621093,-0.32119888,0.031388815
-0.20250745,0.14143556,-0.80912393,-0.2972641,-0.24536397,-0.3121347,-0.058112834,-0.48211306
0.23344396,-0.24927421,-0.31645378,-0.23803098,-0.60175854,-0.096268356,0.06464904,-0.8323505
-0.43901646,-0.5336562,-0.98720086,0.20525575,0.030989764,1.0867121,-0.47527716,0.613897
-0.09456142,0.02709672,-0.051694818,0.20861503,0.038400564,0.079903334,-0.49347576,-0.25469935
-0.05424973,0.053564865,-0.41404653,0.48110154,0.54506046,-0.013827875,-0.08857985,0.030950911
-0.15538937,-0.025687564,-0.33694422,0.38126233,-0.55499095,-0.4666859,0.35503954,-0.07577887
0.802022,0.29295838,-0.8272516,0.10095447,0.32773978,0.2576312,0.28040692,-0.25869194
0.31819484,-0.18718971,-0.2711702,-0.09577049,-0.78833854,0.010539314,0.13461436,0.40327075
0.19146644,0.1922275,0.1492428,-0.10769506,-0.25266564,0.4750665,0.5555196,-0.080234535
-0.14005513,-0.01902342,-0.14323296,-0.13082696,-0.19573894,0.39727238,0.020737527,-0.12356139
0.110929996,-0.27918214,-0.009135025,-0.74299264,-0.13161322,-0.07966357,0.13549025,-0.14845681
0.10984235,0.027273316,0.13278879,-0.8944416,-0.07707171,-0.21979602,0.12141403,0.07226099
-0.04424453,-0.00044756202,-0.17922129,-0.6320405,0.07855733,-0.1123504,-0.13674183,0.08982273
0.08202469,-0.020772975,-0.09876524,-0.3452073,0.13709092,0.011109506,-0.071135715,0.01193376
0.115065716,0.14167427,0.05803134,-0.123383194,0.06629713,-0.10635155,-0.0047839815,-0.14388384
-0.23901585,-0.16563815,0.056252856,-0.1192682,0.039861176,0.24803632,0.12538737,-0.039887525
-0.13290668,-0.15820976,-0.1139914,0.06372063,0.1533746,0.035745874,0.24512154,0.0030031153
-0.0022363558,-0.58687913,-0.11022612,0.0768471,0.054452207,0.14307255,0.24424312,0.12114061
0.16504952,-0.293203,0.0027944776,-0.10057111,0.013360495,-0.033362772,-0.056325335,0.22590853
0.046471547,-0.20003185,0.20018147,-0.014614084,0.083239816,-0.047431435,0.12864062,0.04320084
0.08288525,-0.10838507,0.08078933,0.012263641,0.09141409,0.16011636,0.09990939,0.05616816
0.25325117,-0.011689275,0.28435734,0.059059974,-0.056387525,-0.036612827,0.16354796,-0.2768377
0.053237624,-0.05625419,0.0984667,0.10856094,-0.017414052,-0.108947486,0.017989343,-0.002386886
0.21516894,0.06737976,0.10605355,0.098361395,0.032102484,0.14218996,0.1627062,-0.08082497
-0.043629542,0.09128795,-0.101005174,0.09988782,-0.16913085,-0.101351745,-0.2375166,-0.09639027
-0.10963815,0.05227135,-0.15721764,0.115341194,-0.40401426,0.15094608,0.08288241,0.08995845
0.00823499,-0.0040473915,-0.20457166,0.016084142,-0.22625093,0.101289004,-0.1435719,-0.11903816
0.055768255,0.17691043,-0.30864695,0.26100132,-0.012938462,-0.08811424,-0.20098557,-0.10572794
-0.6767029,0.09478267,-0.40798476,-0.6751408,-0.18468529,0.14848977,-0.45873788,-0.44253898
-0.7507572,0.27033082,-0.70076656,-0.47299775,-1.1974452,0.5126948,-0.49723828,-0.56161946
0.2736435,-1.1848823,-0.35349458,-0.2780887,-0.5965498,0.8465348,-0.58850867,0.27529493
0.32558104,-0.05192133,0.20705836,0.02921512,-0.5078105,0.5686494,-0.31192398,-0.45902044
-0.10112548,-0.16636753,0.27022427,-0.38620812,-0.14869021,0.21933244,-0.14710243,-0.112812
-0.10453954,0.005432817,0.09118588,0.5160135,0.40894023,-0.075781636,-0.10695167,-0.3277104
0.13285343,0.022667421,-0.33068696,0.47155422,0.53835076,0.1995399,0.31820202,-0.44166175
0.25691998,-0.3704009,-0.42952955,0.05878407,-0.5501958,0.23664702,0.03205309,-0.43156135
0.010785823,0.1887095,0.35596845,0.33942106,-0.8001315,-0.23800795,0.08377211,-0.4647931
-0.40929973,-0.32003123,-0.03945301,0.2111914,-0.45727095,0.23884197,0.19128937,-0.3420529
-0.15678498,-0.07571256,-0.20227692,-0.21500158,-0.21220002,0.20941557,0.13579261,-0.08398304
0.011152564,0.06449984,-0.18604593,-0.16339368,-0.13204943,-0.12881266,0.02250464,0.13800873
0.10910287,-0.02007235,0.1435468,-0.8379031,-0.21208316,-0.13239445,0.23183416,-0.13912791
0.15792644,-0.093407884,-0.058837913,-0.9603764,0.0533968,0.070425265,-0.06794718,-0.06585793
-0.21532908,-0.08073407,0.05565024,-0.9060044,-0.03563905,0.013189462,-0.032673035,-0.31318384
-0.35986567,-0.28067064,0.041515343,-0.7720084,0.1481839,0.08861883,0.20559053,-0.10550917
0.012868698,0.0053236256,0.017184865,-0.476724,0.2612694,0.32425,0.2729431,-0.1589214
0.0806161,-0.27219117,-0.1277926,0.1671705,0.13460529,0.053732093,0.13838063,0.042286523
0.18960662,-0.1923687,0.02920053,0.025443403,-0.009515411,-0.05531063,0.03161435,0.19728622
0.11829398,-0.044812724,0.14213297,0.070740834,0.08008457,-0.014351224,0.14826445,-0.22274268
0.10791183,-0.2351135,0.15328825,-0.15348391,0.10332815,0.115651555,0.26235163,-0.1257969
0.084466636,0.006260949,0.19163261,0.01990117,-0.12223163,0.1595602,0.14386162,-0.24753162
0.1316025,-0.0063698785,0.09182663,0.14223818,-0.10306893,0.20880812,0.15250112,-0.005830557
-0.09445517,-0.014070765,0.013387274,0.07128613,-0.30790216,0.083974674,-0.13105735,-0.009472162
0.24218026,0.1469847,-0.050149184,0.18469325,-0.29929864,0.0033667744,-0.088516876,-0.086997285
0.22156669,-0.24426225,-0.11399405,0.09669442,-0.057512335,0.12325528,-0.0056476984,-0.15594342
0.01858069,-0.18200177,0.013811478,0.077154405,-0.10221919,0.05857473,-0.17268792,-0.08494644
-0.22022925,-0.10611605,-0.3042711,-0.25155902,-0.025309969,-0.0494502,-0.061164856,-0.16394171
0.07098549,0.062092997,-0.94770974,-0.04883514,0.4212165,0.16870876,0.11820554,0.31834236
-0.8375196,0.10592074,-1.2371116,-0.86090064,-0.96819055,0.9419118,-0.7135428,0.5256833
-0.29786438,0.24000798,-0.63605857,0.14430982,-0.6144543,1.2516099,-0.99323934,0.40203518
-0.43578637,0.007521738,-0.8964981,-0.04385032,-0.076070495,1.1891611,-0.16586001,-0.7158635
0.082012564,-0.040973745,0.010584913,-0.07458681,-0.052327942,-0.03295733,0.021173723,-0.0243221
-0.23356888,-0.3933772,0.02120846,0.71470547,0.46479085,-0.48275346,-0.78238636,-0.6647513
0.29376864,0.10809831,-0.51113003,-0.100972965,0.40179524,0.3880846,0.62354964,-0.40453917
-0.10515393,-0.37467822,-0.31267458,0.5312024,-0.8879284,0.3696257,-0.41666207,-0.9467977
0.13269979,-0.039649878,-0.20530215,0.31537023,-0.48208076,0.3110354,-0.36878195,-0.21961448
-0.17682819,0.07297618,-0.32514864,0.22572438,-0.59585893,0.0050801653,-0.30160645,-0.22761641
0.18505293,0.1659958,-0.124850914,0.34300187,-0.4926098,0.18273665,-0.09181645,-0.28684142
0.012341106,-0.00027831236,0.13253985,0.28790244,-0.34702623,0.090774596,0.12259817,0.0059538637
0.10545355,-0.031756118,0.22243257,0.24286312,-0.3338992,-0.015240498,0.2356083,0.07462862
-0.07494564,-0.2165426,-0.123025365,-0.23030151,-0.06500785,-0.109239005,0.1406286,0.09009808
-0.48272297,0.124129415,-0.30320007,-0.37249517,-0.10414066,-0.12053306,-0.0010092193,-0.27622676
-0.39273924,-0.09163668,-0.07395579,-0.61434245,-0.084494576,-0.097927205,0.25704873,-0.25911674
0.14953089,-0.12726697,0.016923802,-0.8502698,0.21421848,0.124755144,0.30995056,-0.35423592
0.108799435,-0.44861946,0.117173664,-0.56959593,0.059591185,0.025636515,0.04968038,-0.013580552
0.14201532,-0.31373596,0.024586076,-0.4752176,-0.1292785,0.03547578,0.06121944,0.13404535
0.1894658,-0.30693123,0.22556356,-0.13063432,0.04654498,0.13824382,0.07016232,-0.2352552
0.13710563,-0.03284446,0.04897008,-0.022139868,-0.07005471,0.053395294,0.12744075,-0.2044597
0.18810268,-0.08659312,0.13195165,0.14591023,0.00587957,0.0470873,-0.14180486,-0.21108113
0.14164789,0.0018529375,-0.030728292,0.035714462,-0.063733846,-0.013788817,-0.042822856,-0.14110355
0.015302002,-0.23768938,-0.18955049,0.056855414,0.004082001,0.03359959,-0.14660496,-0.109651774
0.38440466,0.058903407,-0.038273264,-0.0022646312,-0.050169263,-0.12616141,-0.3641444,0.043470424
-0.032473933,0.06361163,-0.07529115,-0.02305792,0.29995546,0.060377356,0.021881958,0.19263755
0.23824191,-0.064389616,0.08927541,0.14895993,-0.037140794,-0.07556688,-0.19634801,0.12086311
0.06886712,-0.14124902,-0.135561,0.050971113,-0.021884939,0.17308234,-0.022621727,0.31192285
0.091662146,-0.10372876,-0.8535306,-0.25837815,0.2943291,0.024784764,-0.07874814,0.04359722
-0.3419164,0.25930494,-1.3209479,-1.7889097,-0.87968683,0.46103865,-0.57421106,0.24226682
-0.32143834,0.41550362,-0.5599478,-0.24288875,-0.0044569243,0.786125,-0.2837115,-0.6322613
-0.2828103,0.03936401,-0.18595165,-0.01181447,-0.381544,1.3740368,-0.052052777,-0.106020324
0.040837925,0.065372586,-0.014768502,-0.29923582,-0.39396948,-0.0007535781,0.03213775,-0.17012838
-0.07500449,-0.021663032,0.052726764,-0.25026393,-0.2773851,-0.36262843,-0.20355089,-0.21205366
0.38823292,0.22756663,0.2017562,-0.404534,0.43279022,0.16472438,0.20980395,-0.7200006
-0.2639802,-0.52391565,-0.17384437,0.6772208,-0.53430945,0.21756148,-0.7449593,-0.8684609
0.65313977,0.03905392,-1.1926471,-0.0070756306,-0.009210307,0.35124603,-0.7924433,0.14427227
0.066149965,-0.00025599723,-0.85307825,0.10117939,-0.17632665,-0.034429953,-0.21641144,-0.2572229
0.017035533,0.29404402,-0.026410438,0.3402588,-0.3931608,0.13273633,-0.2680357,-0.18208812
0.25931388,0.08050852,0.0007806633,0.28423685,-0.32855883,0.11188408,-0.08402388,-0.16413125
0.124539025,0.03149063,-0.22605063,0.21089622,-0.44500637,-0.06827673,0.17237297,-0.1630593
-0.39588162,-0.021492919,-0.24893942,0.20665222,-0.30778214,-0.0398738,0.1769666,-0.2030038
-0.97603035,0.22408064,-0.16206437,0.13891731,-0.34409043,0.08601354,0.17574668,-0.24672037
-0.29848602,-0.102507144,0.055018064,0.11849136,-0.3228868,0.107030556,0.47630286,-0.3943528
0.428282,0.046033822,-0.17405891,-0.03244838,-0.19787268,0.16570938,0.10987428,-0.20557262
0.13933107,-0.3221188,-0.017982153,0.01077338,-0.021559868,0.075250305,-0.22213171,-0.086192004
0.020766146,-0.15579611,-0.009792067,-0.35863742,-0.0840528,-0.014796874,0.026027797,-0.043267637
0.08633692,0.013326975,0.05776472,-0.09797568,-0.028997911,0.0010196372,0.055074673,-0.034933735
0.09425506,-0.070682436,-0.06494574,0.03301407,-0.029636454,0.0196542,-0.077151604,-0.13259047
0.0248886,-0.057965595,-0.15260817,0.024367526,-0.052109838,-0.008059652,-0.11283072,-0.06059924
-0.017768405,0.082508646,0.038101193,0.025803348,0.023617115,-0.026874295,-0.2496482,-0.013701094
-0.11492299,-0.14400841,-0.22523662,0.0338512,0.03866761,0.07865421,-0.14328317,0.16882573
-0.01688736,0.0054156254,-0.051122632,0.108131,0.03634981,-0.07059546,-0.063410364,0.099594764
-0.044871382,0.054752626,-0.057896756,0.032123562,0.074584074,0.1284019,-0.37665528,0.12341672
-0.10599693,0.12854157,-0.26079756,-0.15790284,0.12787105,-0.014546623,-0.26666093,0.19706522
-0.4778906,0.008462514,-0.776689,0.25600252,0.17866601,0.08848818,-0.11682741,0.2242308
0.05910246,-0.29330486,-0.734443,-0.2621584,-0.19440247,0.3247894,-0.09698454,-0.47348505
-0.1077678,-0.057567492,-0.91373694,-0.44083944,-0.600447,0.5117306,-0.77057505,0.1131677
-1.1854746,0.038169693,0.18445133,-0.27403164,0.50573856,1.1687376,-0.92393434,-0.39477423
0.11303542,-0.15224785,0.11851013,0.123340316,-0.28952977,1.012234,0.53467834,0.89639896
-0.059198253,0.022008352,-0.086529545,-0.10930925,0.040012166,-0.009120063,0.03285685,-0.0027221842
-0.08580936,0.41666368,-0.41093725,-0.112206906,0.17679301,-0.09516773,-0.28620344,-0.26791257
0.4111759,-0.11236247,0.59948814,-0.26230627,0.05455593,0.022021096,-0.11001526,-0.0997221
0.40337956,0.092429906,0.25876248,0.36035013,0.08557722,0.4627498,-0.40288875,-0.38499734
0.401062,0.09272491,-0.75907236,-0.15791479,0.021032674,0.12718794,-0.4315268,-0.16998886
0.26944515,0.1665972,-0.92210305,0.11003056,0.06287874,0.119852,-0.014521854,-0.05342968
0.25400174,0.1343405,-0.5461513,0.004398466,0.045539383,0.016417759,0.017837083,-0.010807303
0.07475287,0.24376218,0.031028124,0.117117636,0.1571967,0.10524965,-0.16835329,0.17897707
-0.6626195,0.17232527,-0.15697125,0.17854169,-0.32440555,-0.085146725,-0.09374456,-0.325577
-1.0772332,-0.095140204,-0.35309896,0.1657228,-0.43308958,0.075032614,-0.10876653,-0.0050354926
-0.6221878,0.05075538,-0.24316028,0.34293076,-0.43681607,0.17811784,0.11357998,-0.2165226
0.035018757,0.033254072,-0.28749877,0.013597831,-0.5911757,0.0771322,0.09736852,-0.13933066
0.07620276,-0.060731348,-0.35033998,0.20637445,-0.5405423,-0.15061943,-0.29256216,-0.10996865
0.31471092,-0.2964881,-0.18115897,0.18598138,-0.32613945,-0.17735575,-0.28853098,0.20034845
0.084251046,-0.11159927,-0.086746894,-0.058361094,-0.10410078,-0.06865052,-0.15953782,0.007944793
0.08519516,-0.17589939,-0.22420599,-0.24603462,-0.052788585,0.084286064,-0.11806684,-0.03517521
-0.13687913,-0.11097967,-0.14588033,-0.14333095,-0.003918525,0.17690724,-0.20584613,0.07368551
-0.11979439,-0.15830173,-0.09004063,-0.04389472,0.009624299,0.052384213,-0.16869025,0.056329343
-0.14227138,-0.108735606,-0.28351626,0.010336143,0.03277492,-0.05596232,-0.19508126,0.13134941
-0.21862938,-0.03757911,-0.22134236,0.12802635,-0.24441962,-0.0714117,-0.32224128,-0.0029351132
-0.23145583,-0.07985132,-0.13555019,-0.041365974,0.1663036,0.13953121,-0.096648276,0.053588033
-0.37894788,0.13505958,-0.15050608,-0.089125544,-0.22369301,-0.014330254,-0.15400492,0.09093546
-0.75451064,-0.25510037,-0.5993521,-0.08316511,0.11984716,0.081300855,-0.21017002,-0.002812234
-0.57949024,-0.20510295,-0.66064566,0.072370626,-0.1581571,0.24324216,-0.05339836,-0.069919616
-0.8882531,-0.04107028,-0.6673877,-0.06809416,0.011044064,-0.025405362,-0.35828134,-0.18004034
-0.059310395,-0.15772727,-0.19465254,-0.07986649,-0.8618827,0.9825791,-1.0267943,-0.41961613
-0.01000409,-0.059239466,-0.809634,-0.3016063,0.13451874,1.2361681,-0.038517,0.26327002
0.20712444,-0.079087734,-0.18814377,0.11563768,-0.17062749,0.22014801,0.3364981,0.5037227
0.047809333,0.0035092756,0.045893744,-0.056326102,0.036367,0.036144167,0.028386027,0.011464037
0.034539282,0.47079882,-0.33974823,-0.16636285,0.058847986,0.10394132,-0.433867,-0.10565706
1.0959829,0.37141916,-0.33199382,-0.33150077,0.23191904,0.15007195,-0.8556037,-0.9197646
0.17028613,0.3248301,0.17403656,0.22762072,0.20793982,0.84124935,-0.17180783,-0.28500235
0.14201723,0.3322956,-0.401949,-0.053280827,0.2833246,0.34392095,-0.5001933,0.3142483
-0.46707633,-0.03616456,-0.22749916,-0.08364229,0.09723075,0.24153195,0.040652547,0.1597481
-0.30260956,0.11035938,-0.78848153,0.018771704,0.0023219332,0.16471691,-0.20080487,-0.011310808
-0.49418575,0.02367337,-0.88100296,-0.084728144,0.06921351,0.38305315,0.13356654,0.43399718
-1.7480352,0.086443886,-0.75695217,0.09139359,0.08549218,0.20112112,-0.054443914,-0.25294164
-0.6699054,-0.103365466,-0.50193423,0.0717887,0.02565422,0.15736996,-0.1757172,-0.066403285
-0.018144611,0.31697026,-0.70981646,0.036163792,-0.037473984,0.16228493,-0.08745853,-0.21447715
0.041378316,0.20795351,-0.5488777,0.08215571,-0.16907986,-0.029595008,-0.146142,0.039591003
0.2567993,-0.08464827,-0.4216748,0.05263812,-0.18190306,-0.090757735,-0.38122538,-0.04177721
0.17870201,0.007146874,-0.19385166,0.10631227,-0.11217924,-0.039776754,-0.47047833,0.07474011
0.07324279,-0.05237859,-0.07004829,0.057232127,-0.16455066,-0.15314431,-0.3589574,-0.031472918
-0.06660835,-0.07334839,-0.24090947,-0.09364217,-0.05959626,0.0070275483,-0.20693114,-0.05681665
-0.12988263,-0.15331697,-0.24094614,-0.20171362,-0.06998821,-0.051017977,-0.13189395,-0.05186241
-0.13246496,-0.18847829,-0.19514386,-0.07227187,0.030353224,0.028958369,0.03037804,0.021865832
-0.28512597,-0.0103567485,-0.28809598,0.083694994,-0.08050137,0.1852774,0.040940337,-0.040434677
-0.5010363,-0.16913866,-0.17845444,-0.02946007,-0.07690179,0.099082895,0.1253131,-0.12211654
-0.461125,-0.38295949,-0.2814567,0.01756896,0.14149246,-0.04048697,0.11605485,0.16738105
-0.42832857,0.03012117,-0.5711013,-0.16650833,-0.07118567,0.1266268,-0.12441583,0.14400095
-0.623616,-0.1170666,-0.5004252,0.32426432,-0.26698408,0.0082714455,-0.019557333,-0.32279846
-0.4851384,-0.09490387,-0.5399647,0.07576805,-0.19841842,0.31127983,0.03639794,-0.13516894
-0.23610924,-0.3580373,0.053961724,-0.090864025,-0.36495432,0.29518563,-0.19090879,0.030144446
-0.4599987,-0.09016965,0.3827681,-0.14326993,-1.4360417,0.29342452,0.08701967,0.19985002
-0.002118775,0.30047098,-0.7302665,-0.17728366,-0.03366345,1.0558456,-0.8965308,0.7883372
-0.062082205,0.1638735,0.2602764,0.3166875,0.30183986,-0.0075961724,-0.55789924,-0.037859667
0.05702806,-0.06751935,-0.04905209,-0.15363704,0.00936883,0.0019956422,-0.01887582,0.09467362
0.06860673,-0.30235466,0.12839341,0.31607583,0.15507373,-0.4662366,-0.17533968,-0.10351243
0.39659908,-0.23778498,-0.16623116,-0.16513126,0.19170882,0.6774292,-0.7683219,-0.2720563
-0.41459957,0.18229939,-0.18614995,-0.3624782,0.39263958,0.18641494,0.0028556865,0.45263606
0.22000684,0.042654533,-0.36891174,-0.11192386,0.48371115,0.094678015,0.09521332,-0.14566338
-0.3355967,0.04480732,-0.17849803,0.091294505,-0.010797839,-0.12777464,-0.07114576,-0.2608435
-0.96524817,0.13023548,-0.10388765,0.04044403,0.3711198,0.0017924121,-0.07005443,0.03713704
-1.2359632,-0.09055665,-0.23423836,-0.05935328,0.21251838,0.034914527,0.040060688,-0.26976806
0.122471616,-0.15071008,-0.23609239,0.07449394,0.17189635,-0.015632251,-0.0076187933,-0.11480604
-0.055189535,-0.025531929,-0.2916734,-0.14460081,0.05929576,-0.048063442,0.05993191,0.12780252
-0.18962012,0.10954024,-0.31345934,-0.069064565,0.017184235,-0.054783218,-0.074294984,0.14791481
0.09526222,0.19548476,-0.30692157,-0.009383203,-0.025224915,-0.12211846,-0.04066849,0.13774253
-0.09355466,-0.0013225721,-0.107069515,-0.012716771,-0.19507696,-0.19411866,-0.11858271,-0.09351354
-0.014884216,-0.028853092,-0.41879275,0.064916804,0.016921336,0.077288054,-0.08986806,-0.08715677
0.014779145,-0.28850153,-0.19216415,0.14986251,-0.10305177,-0.13098966,-0.10040047,-0.19893502
-0.04142978,-0.0075462256,-0.193692,0.062452223,-0.1369111,-0.08040166,-0.1690662,0.10553895
-0.043881387,0.07860223,-0.14418736,-0.063233815,-0.10739744,0.12181847,-0.06325069,0.018919388
0.07906099,-0.23856732,-0.3314853,-0.047936004,-0.07617554,-0.03459799,-0.12849359,0.0045779543
-0.04709162,-0.101106435,-0.55702394,-0.0784621,-0.047442023,-0.062218484,-0.15435332,0.013308672
-0.14036559,0.1277328,-0.36606872,-0.059638754,-0.26464584,0.081353664,-0.07711042,-0.106113575
-0.3294407,0.29382128,-0.23684469,0.17730212,-0.01783494,0.054619096,0.16657197,-0.1803067
-0.2370657,-0.00018088997,-0.42461163,0.0011972792,0.16200337,-0.12921518,0.1841755,-0.12435564
-0.011616897,0.29502502,-0.34373063,-0.10083722,0.037758887,0.10736023,0.2369809,-0.08774375
-0.23716189,-0.17340437,-0.37817952,-0.21206166,-0.12281422,-0.15236521,0.2356568,-0.21415785
0.103969626,0.29483348,-0.1983399,0.075278,-0.3663286,-0.116446644,0.21174894,0.07901785
-0.027258953,0.9128139,0.60079795,0.5752707,-0.3846865,0.1566352,0.2165094,0.064053096
-0.21441074,0.30274338,-0.040362366,-0.0650087,-0.41265428,0.803613,-0.6412392,-0.16818233
0.071554765,-0.011753955,0.040384248,-0.061647475,-0.02681335,-0.15860243,-0.022428466,-0.022966295
0.0024914588,0.053556114,-0.08016002,-0.097950496,-0.015304681,0.092611484,0.07856437,0.0064242645
0.06357422,-0.56896186,0.03571883,0.62324196,0.6650599,-0.3559909,0.08065865,0.08511627
-0.089311026,-0.03838486,-0.3655928,0.3760209,0.3007393,0.16783848,-0.47172686,-0.41624305
-0.7612602,0.0029753824,-0.81215525,-0.05841373,-0.12736297,0.42984983,0.8753539,0.7248737
-0.8896828,-0.54987586,-0.31979644,-0.4398098,0.28420708,0.68052286,-0.4079706,-0.4221496
-0.2222989,-0.031592596,-0.17896372,-0.20729977,0.043354277,0.3912169,-0.005606637,-0.19220763
-1.1588765,-0.024732344,0.36163616,0.18205881,0.087156616,0.4442684,0.1993736,0.19970822
-0.5881862,0.15535127,-0.105809845,0.0005291888,0.047691565,0.14243947,0.057191473,-0.08032042
0.05036767,0.12460424,0.17541172,-0.108699016,0.0045808125,-0.03438708,-0.14188792,0.037978545
-0.21447566,0.20007798,-0.041837335,0.06315361,-0.18732648,0.008003009,-0.16798829,0.13424698
-0.26543355,-0.043608014,0.040890057,0.008399139,-0.09180117,0.0054855663,0.038732067,0.090453595
-0.2748889,-0.16867566,-0.16281262,-0.05031428,0.14871228,0.035625555,-0.00034003746,-0.015631484
-0.13980155,-0.08697771,-0.21028605,-0.083291925,0.011385423,-0.13028917,-0.13494025,-0.12958954
-0.044319723,0.26258183,-0.31422588,-0.019785661,0.15568206,-0.05748407,-0.056623146,-0.29749972
0.03825096,-0.109658465,-0.18739453,-0.053738177,0.015263642,-0.08243366,-0.22693993,0.12930873
0.03597019,-0.06790221,-0.22257973,-0.0150619885,-0.079140745,-0.1455192,-0.17397864,-0.034111522
0.037790723,-0.042466797,-0.174059,0.15127765,-0.054618385,-0.13030377,-0.108283065,-0.08799902
0.12215257,-0.26660722,-0.14912057,-0.12996985,0.009836759,-0.061936103,-0.022391781,0.23538208
0.012716604,-0.019292511,-0.27202982,-0.2714699,0.049538713,0.016854897,-0.11316098,0.07226278
0.3560342,-0.21097763,-0.1670874,0.10103276,-0.057439435,0.113793194,0.09708214,0.06810571
0.23481967,-0.1381047,-0.024001174,0.052223004,-0.28483462,0.062503316,-0.1197921,0.050543524
0.047689654,-0.06790992,-0.42853445,0.18312664,-0.14928861,-0.07585564,0.20141941,-0.055724133
0.07051698,-0.0013252781,-0.4308065,-0.21014161,0.23425622,0.1482826,-0.19443649,0.03550323
-0.124430634,0.16747056,0.24934614,-0.8111178,-0.36220655,0.07954643,-0.30162704,0.014302054
0.24538216,-0.22987297,-0.0047808755,-0.440418,-0.73524666,0.32090467,0.038983177,0.17608297
0.25516286,-0.30076885,-0.2156517,-0.2737532,0.40079725,0.24632037,0.3789203,0.4081125
0.38933697,-0.051408075,-0.43724176,0.13003413,0.28086203,-0.124329425,0.2750984,0.07911742
-0.06469274,-0.09571415,0.044652537,-0.08524784,-0.01140755,-0.18804286,0.039541677,0.027688771
0.033254184,0.04379393,0.078088224,0.045039415,-0.032181446,0.014874697,0.07076618,-0.057949923
0.05540496,0.009152897,0.0045773014,-0.045534093,-0.03369217,-0.063863754,-0.04022982,-0.038471527
-0.112821326,-0.03948692,0.15573302,-0.4484009,0.012789523,-0.22787087,-0.07396119,-0.98483473
-0.25321394,0.61558837,-1.0534325,0.09716749,0.3185337,0.58576435,-0.29322097,-0.08996708
-0.25565663,-0.20876135,-0.14158186,0.110690266,0.25720468,0.006589391,-0.22027503,0.1334855
-1.0169387,-0.08810389,-0.0339348,-0.04972368,-0.08887793,0.1538275,0.04422266,0.0904034
0.058379304,-0.075852826,-0.18708707,-0.35654458,0.18601781,0.18346728,0.35656282,-0.28422266
-0.46089995,0.25450376,0.15117481,0.0990545,0.054202143,0.24843246,-0.04638476,0.33063206
-0.43105197,-0.10573365,-0.06944644,-0.19264223,0.10133468,0.10583431,0.15539624,0.06803195
-0.02089184,0.010680205,-0.14432785,-0.13707298,0.19611703,-0.08910018,-0.020337263,0.31077406
-0.1289631,0.1625841,0.032170724,-0.086282976,0.15443313,0.1255285,-0.071677305,0.023207324
-0.121944,0.30333,-0.24867259,0.09089591,0.10141887,0.021381736,0.04056928,0.06759415
-0.13139373,0.29518786,-0.112623386,-0.21917929,0.16918749,-0.112397894,0.02087967,0.1285251
-0.039307926,-0.14855519,-0.05744382,-0.09258896,0.093026996,0.087928705,0.09214175,-0.03103655
0.043066844,-0.0494951,-0.2285407,0.0118064685,0.13265392,-0.079682924,-0.1848462,-0.21591862
0.038830083,-0.0925092,-0.29837126,-0.017677585,0.14219885,-0.104018174,-0.0029721935,-0.0042002173
0.035778247,-0.07982755,-0.30291945,-0.008669952,0.09404844,0.005972396,-0.037267517,0.035921343
0.06988981,-0.0076350803,-0.18477786,0.14611769,-0.08992089,-0.24936672,-0.15098646,0.102497436
0.025720911,-0.2913539,-0.08381813,-0.038169786,-0.071573645,0.10247417,-0.0080971895,0.010759881
-0.0012813421,-0.19804172,-0.0044334284,-0.18407151,-0.13765076,0.30352232,-0.17734152,-0.22135022
0.115882576,-0.22336727,-0.42294076,0.039380852,-0.1362432,0.23348989,-0.13097963,-0.18055451
0.20582508,0.24652281,-0.104785286,0.33185458,-0.50779784,0.31607196,-0.002517276,-0.04496048
-0.34423873,-0.17827973,-0.16380185,-0.5311079,-0.064296156,0.22377178,-0.25963166,-0.38661274
-0.05472354,-0.9288122,-0.0098373005,-0.37249368,-0.16961439,-0.11532238,0.40171522,-0.5788278
-0.44277263,-0.42250338,0.05431729,0.40412465,-0.6327407,0.64340156,-0.26920024,0.5176214
-0.2391739,-0.4785092,-0.15989763,0.35604343,0.30729896,0.07833629,0.26896185,0.60130274
-0.4200052,0.39955518,0.106902055,-0.14377478,0.5188902,-0.1433663,0.2633788,0.82577175
-0.013748437,-0.054340065,-0.024594303,0.022135876,-0.059889436,0.068831295,0.03779903,-0.06636672
0.0644148,-0.06518923,-0.05192619,0.02001796,-0.00348109,0.080477834,-0.031058326,0.056531116
0.017238833,-0.063996375,-0.027706847,-0.03039286,0.06786063,-0.07219238,0.010203138,-0.00022196025
0.18302211,0.10071071,-0.38201106,-0.2399948,-0.09725997,0.025604092,-0.740142,-0.5572417
0.11210073,0.652528,-0.22835399,0.20134075,0.77841,-0.13327417,-0.8880526,-0.26904196
0.4241908,-0.056349125,0.51846904,-0.26837474,-0.08645189,-0.0005890647,-1.0505096,0.78827375
0.6472324,0.07231881,0.3076337,-0.14513718,-0.055645987,0.03166394,-0.06474474,0.31450477
0.012161445,0.055547714,0.22819014,-0.18398188,0.24301104,0.22895636,0.076780975,-0.047682293
-0.02784332,-0.009467508,-0.040486507,-0.067958064,0.09612755,-0.106349826,-0.11670933,0.21821244
-0.1354375,-0.14897017,-0.032656457,-0.046358798,-0.07440255,0.07747217,-0.036777906,-0.090899676
-0.29469442,0.04358789,-0.1700349,-0.16927499,0.12200322,-0.016859343,-0.1622719,0.08612597
-0.32219395,-0.14946514,-0.14473177,-0.24377729,0.015654195,0.019836396,0.06424678,0.09464063
-0.12691337,0.06282489,-0.17606407,-0.04676527,-0.030731319,0.03180699,-0.013128954,-0.40484497
-0.22020799,-0.06044774,-0.22828987,0.0024575149,0.0939146,-0.0078009497,-0.069398984,-0.0521906
-0.073365726,0.034936532,-0.16616473,0.010022216,0.036436487,0.2340188,-0.06915714,0.019294288
-0.08176698,-0.089172594,-0.34190586,-0.11636032,0.0784524,-0.08102107,-0.01470736,0.12962513
-0.21909757,0.03269691,-0.16237715,-0.22220555,0.047308285,0.11998837,-0.1770667,-0.20314072
0.0287996,-0.1247604,-0.20791008,-0.007835526,0.063561976,-0.054915577,-0.025490966,-0.1745682
-0.14252831,0.025508374,-0.123440765,0.16185261,0.039770942,0.07189494,-0.20622759,0.17172045
-0.04533649,-0.21937394,-0.08137735,-0.31208125,0.19231634,-0.43022287,-0.005107407,0.09757631
0.051352516,-0.3099897,-0.043001167,-0.27897814,0.11984638,-0.41516995,0.19954869,0.15793085
-0.07077145,-0.6582028,0.093345895,0.12789337,0.24352056,-0.3547217,-0.003214723,0.058004323
-0.082729384,0.12480112,-0.009804685,-0.21873143,-0.044625737,-0.018601455,0.321488,0.14807332
-0.1571096,-0.2998043,-0.19657533,0.48357615,0.2671292,0.2053894,-0.40962946,0.020894933
-0.4546497,-1.1524161,0.31854117,0.78314865,-0.54036635,-0.51053196,0.41248783,0.0009731975
-0.061557934,-0.3862551,0.15587953,-0.14477313,-0.4286161,0.32915744,-0.35151455,0.31527504
0.4287706,-0.6785939,-0.014741599,-0.4448738,-0.28406897,-0.5687768,0.4182051,0.6422479
0.7922796,0.03968312,0.06728978,-0.47641557,-0.8403396,-0.24786936,-0.009909834,0.8472695
0.0489735,-0.07865679,0.015057683,-0.0186079,0.08333847,-0.05448136,-0.025023468,-0.060169294
0.032031536,-0.036307503,0.021883719,0.06748095,0.04080619,-0.050391313,0.045088828,0.0049737617
-0.041111328,-0.008858182,0.056805626,-0.06712791,0.01805979,0.051020727,0.035623074,-0.0045693517
-0.18914105,-0.48153895,0.29568523,-0.19118878,-0.16222045,0.4367152,-0.43395892,0.009412078
-0.022387914,0.18488897,0.06086293,0.695376,0.5443369,0.025220152,-0.48751137,-0.01994529
-0.74618185,0.22008322,0.1472104,0.1765835,-0.27429718,0.1752153,-0.7690438,0.120300226
-0.33406276,-0.3154656,0.833457,0.14112249,-0.3979543,-0.46061158,-0.7287017,-0.71214914
0.35769483,-0.32235298,-0.41619903,0.3094883,0.3923752,-0.06752542,-0.2330131,-0.51996756
-0.12907004,0.07282562,0.1800463,-0.19313334,-0.060273927,-0.47892237,-0.2818256,-0.3223152
-0.046276994,-0.098045506,0.20705596,-0.31073204,-0.18891487,0.07318441,0.009105506,-0.39038295
0.061445724,0.03535883,0.1467495,0.16961126,0.06367207,0.13806193,-0.17506091,-0.80390394
-0.110526904,-0.39670932,-0.018115353,-0.22305433,0.3264273,0.23764442,-0.009495709,-0.8412455
-0.04180042,-0.17049122,0.055468712,0.02323392,-0.22253174,0.23460504,-0.16241485,-0.5392592
-0.080403626,0.12746154,-0.047867544,-0.109180585,0.22747011,0.06308496,-0.15962858,-0.05254091
-0.15976636,-0.059197962,0.040830772,-0.03055546,-0.050963707,-0.07638436,-0.0796058,0.09705087
-0.058163088,-0.14431603,0.007582759,-0.18504745,-0.04054303,-0.108541854,-0.10288438,-0.052059233
-0.030332811,0.15604529,-0.105705775,-0.18319185,0.19469526,0.2613627,-0.18014558,-0.07573979
0.013129935,-0.25892684,0.0905297,0.078758106,0.21511497,-0.31788167,-0.03619657,-0.33300284
-0.13815403,-0.18907176,-0.02046642,-0.3752447,0.10567417,0.048798196,-0.048038196,-0.3292549
-0.0013228395,-0.1566112,0.10826187,-0.5541517,0.32434052,-0.037629176,-0.27012894,-0.07468587
-0.074545294,0.023522506,-0.008318947,-0.46476144,0.57539606,-0.15340996,-0.12736231,0.012562706
0.14709547,-0.3608061,0.4284586,-0.1571089,0.3452948,-0.11137305,0.22231127,0.53113675
-0.06910862,0.039330244,0.5488939,-1.1000601,0.49584523,-0.41612285,0.07839339,0.21899953
0.49653634,-0.12895069,0.17037405,0.32252437,0.8997363,-0.96645755,-0.081552625,0.38274288
0.17299704,-0.7809037,0.74512094,-0.13020813,-0.6424463,-0.24870434,-0.29838175,-0.15756285
-0.62010247,-0.3163615,0.7706073,-0.42640907,-0.19705085,0.3525346,-0.8456482,0.030020308
-0.5878043,-0.16187914,-0.0496147,0.24552809,0.49946663,-0.5065478,0.36930287,0.49382082
0.0015784726,0.019141905,-0.012028223,-0.06858316,0.05457756,-0.27962008,0.0028223966,-0.051674075
-0.04065554,-0.053942733,0.07674734,0.024286367,0.035340227,-0.032946937,-0.037510745,-0.034915645
0.06297381,0.025468677,0.0077447295,0.047192454,-0.007918239,-0.02652977,0.061884254,-0.08619729
-0.04910973,-0.02112975,0.033274375,-0.075479835,0.080246046,0.020643204,-0.0043305606,0.07076824
-0.03467694,-0.07825865,0.081884906,0.0624097,-0.07618016,-0.0020157173,0.05615878,-0.00031860173
-0.03651271,-0.2440192,-0.10253945,0.03457295,-0.18987457,-0.0027889668,0.34299582,-0.019070446
-0.0764328,-0.01898049,0.6670349,0.13420694,-0.37987354,0.15007378,0.20729396,-0.00722834
-0.4550183,-0.37333158,0.09944069,-0.45952716,-0.6907769,-0.85577315,-0.15637103,-0.06944536
-0.12467775,-0.14836271,0.11553302,-0.20694388,-0.36025983,-0.78071487,-0.18430535,0.8021496
-0.7888584,-0.21624501,0.72518766,-0.64081186,-0.18382958,-0.5258117,-0.061949886,0.2850281
-0.16115367,0.06402446,0.25905132,-0.64898366,-0.0999566,0.596153,-0.034534786,0.38276428
-0.12803106,-0.21315537,0.7000795,0.114415325,-0.49527872,0.30382174,-0.031249955,0.51810175
-0.09753747,-0.10052031,0.03992548,-0.15963781,-0.18771088,-0.0017744886,-0.12832724,0.8489619
-0.17765309,-0.25281307,0.29247716,-1.0753847,0.2410347,-0.33084354,-0.1636789,-0.45805666
0.03281847,-0.21949264,0.069318354,-0.060185175,0.4494295,0.28855598,-0.48351157,-0.53465176
-0.16203037,-0.13298702,0.12932223,-0.09773939,0.091478735,-0.025498701,-0.17802298,-0.5656794
-0.12734888,-0.13910232,0.5628456,-0.2067199,0.16855334,0.17397383,-0.052455183,-0.56402683
0.12181063,-0.22302157,0.26847416,0.011316643,0.3175878,0.12879463,-0.19583273,-0.44873822
-0.08566102,0.3688087,0.3919486,0.22110237,0.49784994,-0.0878672,-0.5312811,0.038916122
0.10663392,0.022806259,0.19780448,-0.18086787,0.33850262,-0.115852565,-0.12161146,-0.6496374
-0.45300943,0.37320927,0.2275261,-0.09074446,0.29974353,0.03924094,-0.18345456,-1.3180842
-0.15096131,0.69235766,0.27425957,-0.121050484,-0.24438913,-0.06436971,-0.3592929,-1.1093473
-0.6221592,-0.21062915,0.539493,0.046992507,-0.17231232,-0.48224884,-0.025504854,-0.7799239
-0.37086177,0.122211,0.5456262,-0.244453,0.045565505,-1.1298435,-0.1772369,-0.19799069
-0.5693087,0.75688446,0.35506278,0.21631496,0.57413626,-0.95205724,-0.2273427,0.19296642
-0.79601514,-0.54788625,-0.20145328,0.3410427,0.33101138,-0.36118695,0.61914444,-0.44117028
0.14290023,-0.102446266,-0.3753256,0.07375462,0.09173382,0.0320227,0.31735736,-0.010826753
0.08797383,0.10862975,0.04934836,-0.062235788,0.049890317,0.0083810445,-0.06971145,-0.04296595
0.08685599,0.06986219,0.05677183,-0.06295344,0.07001668,0.034937605,0.033999667,-0.001544714
0.028584376,0.035903446,0.03636457,0.027425535,0.00082641095,0.0066425726,-0.016705744,-0.07692156
0.019591533,0.010001227,-0.025725726,0.028826833,-0.0500813,-0.00101123,-0.04937894,0.03180968
0.056990236,-0.070121504,-0.08150212,-0.018916517,-0.043220963,-0.03624886,0.05050181,0.057173014
0.07834217,-0.030526813,-0.05315427,-0.07561979,-0.07944596,0.06744979,0.06981863,9.5292926e-05
0.05278389,-0.03239193,-0.0255025,0.0496805,0.044842795,-0.027870826,0.07236761,-0.058600735
0.26574826,0.22052555,0.22222467,0.011511368,-0.08531002,0.13986376,-0.3288327,0.012058526
0.2532917,-0.008076323,-0.024459021,-0.008993818,-0.0083843805,0.16872765,-0.24184072,-0.0065316483
0.1188421,0.012802196,-0.011975907,-0.17582491,-0.19819735,0.027782498,-0.33827177,0.0105850715
-0.34115237,-0.18610637,0.2077131,-0.44692954,-0.03384867,-0.009739404,-0.5101723,0.042624436
-0.41479793,-0.2077558,0.19826348,-0.21943353,-0.24033433,-0.31174472,-0.5641364,-0.103296444
-0.8498501,-0.31561962,-0.8060342,-0.05342553,0.45582753,-0.6568543,0.32572073,-0.115309775
-0.13988267,-0.20445247,0.8957925,-0.32206762,-0.42299962,0.2874083,-0.6634622,-0.07501601
-0.5975961,0.26776227,-0.03462114,-0.7251719,0.34649867,0.3429248,0.32839498,-0.3221868
-0.55733496,0.15676644,0.11961509,-1.1370682,0.19363765,-0.66332704,0.14115003,-0.2679976
-0.105860315,0.07801406,0.3218376,-0.9257859,-0.1571553,-0.7095681,-0.09285918,-0.671176
-0.55416363,0.1685675,0.3877402,-0.48512423,0.10623523,-0.07609052,0.31802344,-0.4599433
-0.37588426,-0.40826336,0.63561195,0.02120417,-0.15822637,0.41569945,0.24689978,0.61287457
0.121933796,0.15833318,-0.18542676,-0.17382969,0.06824264,0.443975,0.37159494,0.38617915
-0.18913437,0.36038807,0.2091622,-0.5602209,-0.10921309,0.68027955,0.0965097,0.28312272
-0.72997934,-0.5216421,0.34480497,-1.052551,0.11600361,0.48754847,0.13367513,-0.664011
0.25423777,0.22029454,-0.057717614,-0.7859674,-0.13225606,0.10860339,-0.121442385,-0.41953462
-0.13528018,0.16824816,-0.12562801,-0.32404506,-0.36224666,-0.14299715,-0.004749264,-0.14759685
0.25588134,0.3915358,-0.029303076,0.12892677,-0.50475925,-0.8308433,0.0029415274,-0.073329866
-0.20069888,0.52033603,0.22585002,0.11797971,-0.7485596,0.072195485,-0.6911622,-0.027656607
-0.06656108,-0.1599185,0.38875145,0.096173055,-0.005002617,0.023154361,-0.011385112,-0.102846354
0.0741577,-0.039922547,-0.05633847,0.012933277,0.013058446,-0.0527863,-0.058539726,-0.02273763
-0.06108826,0.03295754,-0.031841617,0.05023536,0.06581533,0.041125685,-0.009795435,-0.08543408
-0.04096279,0.058316186,0.03821473,-0.06326652,-0.010567933,0.05388604,0.06031263,0.047974154
0.02598425,0.031395704,-0.055953525,0.026970394,0.064352304,-0.059593663,0.055570975,-0.0042406693
8,1
0.99334586
0.16138846
0.19812489
0.5741532
-0.07968282
-0.19335586
0.026838606
0.48029795
8,8
-0.1349216,-1.5788709,0.76774037,-0.22944039,-0.12929228,0.32024232,-0.5946859,0.1943542
-0.0120072225,-0.1719403,0.14146407,0.21836899,0.121291965,0.46312067,-0.4802477,0.6680302
-0.61886096,0.38250127,-0.74119693,-0.6266126,0.65631866,0.56721044,-0.5362335,0.4234593
-0.07990602,0.7987703,-0.06438387,0.5672866,-0.07396718,-0.69375664,-0.050212085,-0.11757918
-0.3040854,0.3569784,0.07891106,0.42455786,-0.13215107,-0.27985936,-0.0010979176,-0.26923907
0.3790858,0.30883065,0.3656268,-0.27875727,-0.10087899,-0.37946314,-6.179446e-05,0.8752855
-0.13125074,-0.54337484,0.38327056,-0.017653221,-0.011213156,0.22110227,-0.29976055,-0.6329811
0.8014887,0.021687156,0.3484223,-0.35623324,0.19497815,-0.15443453,-0.07499236,-0.2065673
8,1
0.18507273
-0.016779978
-0.0685389
0.46693572
0.5958488
-0.14024873
-0.07650286
-0.1381312
8,8
-0.32294667,1.0439165,-0.002776439,-1.3606378,0.08763243,-0.59455466,-0.57397026,-0.2659581
0.2584549,0.5666517,-1.0360618,-0.28167015,-0.13288832,-0.60731995,-0.74962825,0.57806236
0.10292323,0.3413804,0.15667625,-1.0816793,-0.060005125,-0.28462029,0.0158341,0.1659548
-0.52067256,0.2858234,0.035330538,0.52691984,-1.4826316,-0.014303148,0.09620433,0.27909908
0.41958112,-0.027099077,0.30823648,0.36127838,0.033208966,0.001608789,0.34983146,0.60965705
-0.04926452,-0.8992576,-0.10084936,-0.26071858,0.34055215,-0.19923994,0.18561013,0.49494076
0.23756441,0.14365898,0.19049752,0.29308218,0.42827117,-0.4385142,0.05385402,-0.17503698
-0.17166427,-0.2983673,-2.1560223,-0.6740323,0.10521961,-0.13761145,0.2701264,-0.19940385
8,1
0.8955444
0.11246861
1.0391273
0.72625685
1.0123749
0.0
0.22598116
-0.29988486
8,10
-0.18270098,0.28010565,-0.13503571,0.30475637,-0.029458836,-0.40202647,0.744491,0.4988548,-0.17708872,0.14696987
-1.1328902,-0.015289965,-0.022924693,0.034619477,-0.79042125,-0.10891341,-1.5172735,-0.8413894,-0.11636464,-1.6745387
-0.40320724,0.60454684,-0.57411045,-0.26548722,0.6270388,-0.026187906,0.55119187,-0.7059725,0.71179676,0.04632248
-0.16126779,-3.0207043,-0.92008704,-0.7208972,-0.97217816,0.6676647,0.24297337,-0.61153406,-0.6136117,0.9084484
-0.68458694,0.43950403,0.0045370953,-0.53924936,0.5802339,-3.28111,-0.18636805,0.51289254,-1.1973151,0.2588719
0.52779794,-0.119128555,-0.4052723,0.32191014,0.105870545,0.43430138,-0.13233012,-0.4621424,-0.16638803,0.020271719
0.011705453,-1.4390794,-0.30898553,-1.595694,-0.3013003,-0.7530397,-1.3387477,-0.08787552,-0.069662064,-0.15786627
-0.06297332,-0.33506742,-1.1746818,0.15387227,-0.14139952,-0.06012335,-2.0701168,-0.2882401,-0.23854786,-0.07610908
10,1
1.0707748
-0.6785213
1.0610995
0.3969665
-0.33633447
0.5233141
0.93988645
-0.06923829
0.32328635
-0.3911646
