784,8
-0.03621248,-0.051080227,0.006160736,0.0106635615,-0.014505111,0.053585976,-0.0011793599,0.08671318
0.03424719,-0.06521408,0.0365244,0.028272934,0.012578256,-0.023543395,-0.013835989,0.022640012
0.072035596,0.028139167,0.058050305,-0.072423615,-0.038338967,-0.08433659,0.039406583,0.046224356
0.031310767,0.0056972057,0.04465337,-0.07878373,-0.078270294,0.043822914,-0.05697339,-0.03273788
-0.03631715,-0.06954187,-0.058199253,0.046942666,0.014914937,0.08390711,0.07221311,-0.06237806
-0.07005485,0.0185007,-0.056066625,0.0031424463,0.083926514,-0.056439552,-0.07909538,0.016979791
0.01095894,0.05310662,0.014609762,-0.069086805,0.07744792,-0.037844807,0.009200253,-0.038385037
-0.07319881,-0.019236617,-0.07488617,-0.07973899,0.073791265,0.06531629,-0.0055773854,-0.005236849
0.022238113,0.04007712,0.07573402,-0.024754733,-0.05110712,0.017966755,-0.01710131,0.015344761
0.064282045,0.05542393,-0.085766606,-0.045085877,-0.052058917,-0.07996674,0.08321045,-0.05741314
0.03441742,0.041209072,0.059741125,0.04106182,0.040234238,-0.054367207,0.041000575,-0.054221034
0.014428601,-0.08030774,0.029872924,0.015070282,-0.08688367,-0.0045208335,0.07890664,0.04059641
0.01595129,-0.027630977,0.031056177,-0.07671363,0.028957486,0.012320895,-0.0752877,0.081975445
-0.0065848827,0.00012307614,-0.083382115,0.040053308,0.044585496,0.42430282,-0.078806244,0.006537251
-0.058774095,-0.018077485,0.010998428,-0.06909824,0.07790789,0.49786288,-0.005797647,0.015434891
-0.06999853,-0.035289925,-0.048188604,0.029260442,-0.039607186,0.13811342,0.044900507,0.023932181
0.042179957,0.035370298,-0.018379532,0.08676478,0.021536417,-0.017659798,0.037540607,-0.06985877
-0.023545101,-0.030102503,-0.014194474,0.017786056,0.03188692,0.024984933,0.070405096,-0.0790738
-0.0065543354,-0.0059656054,-0.028053962,-0.06535713,-0.04097028,-0.00047256052,-0.07708359,-0.014617436
-0.049241025,-0.041636553,-0.0049218014,0.07331103,-0.08407006,-0.050078854,0.032729894,0.037479393
-0.058496356,-0.0684594,-0.07873908,0.0146770775,0.020179532,0.07424733,0.034734964,-0.04642411
0.05150585,0.051170886,0.013865083,0.017120503,-0.04744777,-0.049747676,-0.05722762,0.07931918
0.022562154,0.06605896,0.024308324,0.051099256,-0.036946986,0.04192415,-0.07340789,0.0063379332
-0.011867009,0.013891958,0.055523723,0.046134755,-0.010956779,-0.08179905,0.07201591,0.019082427
-0.015504174,0.053759262,0.04428281,-0.03241582,0.0830358,0.03254296,-0.07508414,-0.05457852
0.016421795,-0.007009499,0.011408381,-0.06514239,-0.060376912,0.04736422,-0.07811572,0.020896815
0.02941724,-0.08138767,-0.06391132,-0.025553487,-0.06969429,-0.045878902,-0.018075831,-0.06276655
0.073199704,0.026526801,0.03597697,0.07183848,0.0138577,0.07082264,-0.040035687,-0.010414496
0.080846265,-0.058350407,0.08308649,-0.059298366,0.03544423,0.038801357,0.054774225,-0.04857747
0.018867299,0.049443126,-0.018331073,0.020946011,-0.06913059,0.05280745,-0.04314244,0.05783327
0.025593951,0.06389049,0.08135913,-0.06545308,-0.0009562969,-0.05383115,0.03599131,0.03937383
-0.03202581,0.07945493,-0.045044478,0.08610891,0.05172324,0.055446833,0.021918334,-0.0093235
0.06833811,0.06767881,0.083743334,0.083761126,0.058018893,-0.02966126,-0.07475197,-0.010252714
-0.08301729,0.06347394,-0.040799305,0.051982656,-0.033872105,-0.0083840005,0.038742214,-0.027583912
-0.5114154,-0.04303371,-0.18363807,0.037124537,0.00841024,-0.0341181,-0.005368985,0.084788516
-0.58439046,-0.02699317,-0.2360478,-0.061550297,-0.0630769,-0.16677186,-0.09548054,-0.10109696
-0.23985143,-0.09876528,-0.14914039,-0.03829479,-0.06908183,-0.2740024,-0.02378515,-0.026396703
-0.3087278,-0.05167014,0.020810904,0.03912811,-0.08132619,-0.21216194,-0.21755904,-0.13667004
-0.28019288,-0.07629886,0.03790867,0.0025895834,-0.025966397,-0.26663303,-0.20921597,0.011403025
-0.33223608,0.65335006,-0.02795709,-0.092639916,0.05740505,0.11049218,-0.09348593,0.058910552
-0.3231062,0.65121204,0.041450083,-0.06014109,-0.044156935,-0.5752596,-0.14642937,-0.0060312813
-0.3301855,0.69630665,-0.06840399,-0.19152896,-0.13381624,-0.3535979,-0.060035292,0.042190243
-0.06385233,0.0016454238,0.009715096,-0.78551805,-0.058728315,-0.42596647,-0.018389992,1.1982286
-0.451368,-0.0875712,-0.6475008,-0.78893054,0.014397755,-0.363663,0.059985798,1.1149174
-0.50135815,-0.065910116,-0.67957103,-0.7237303,-0.0148947025,0.42211923,0.0068455045,0.32091966
-0.46387133,-0.043669395,-0.5650306,-0.0052413703,-0.030631587,-0.13078848,-0.038465068,-0.3936814
-0.09827451,0.029892733,0.052509293,-0.06894077,0.010392167,-0.25377515,-0.25517645,-0.15803388
-0.7720634,-0.06776727,-0.086450934,-0.104970746,0.052005798,-0.20127872,-0.9317943,-0.079271056
-0.78963625,-0.014830805,-0.07217227,-0.18941809,0.08055495,-0.06645565,-1.2017921,0.021501793
-0.5894397,-0.0669184,-0.007829875,-0.106378414,-0.018830173,-0.09293242,-0.896875,-0.042829674
-0.7414084,-0.013244673,-0.047920633,0.07865463,-0.03472938,-0.08473254,-0.34643808,0.05053305
-0.5714013,0.062493853,-0.19686952,-0.07662101,-0.061876073,-0.013530925,-0.14956138,0.08107079
-0.017803751,-0.06886445,0.022630304,-0.02981086,0.05240713,0.058906227,-0.03609175,-0.0027434975
-0.024254866,0.0012102574,-0.065751515,-0.031815033,-0.031410564,-0.045582753,0.053434163,0.046039745
-0.03562307,0.003255792,0.032256007,-0.055915926,-0.065034375,0.0381698,0.0015561655,-0.076297015
-0.028277643,-0.032701485,0.010424025,0.08271682,0.008177407,0.040617213,-0.04875938,0.052472413
-0.060892675,0.081762284,0.03346224,0.010568872,-0.005305931,-0.08602538,0.086640134,0.049824163
-0.012356587,-0.04099871,0.0012303889,-0.034530226,-0.05186736,0.06174849,-0.048385162,0.08031319
-0.02818621,0.0023182705,-0.061555423,0.058698058,0.0044705346,-0.070232004,0.07431662,-0.042363234
-0.81411976,0.72686136,-0.4263614,0.115126416,0.03169726,0.042534523,-0.059014734,0.008669265
-0.807072,0.71691924,-0.3220802,0.11360622,0.002267912,-0.015358548,-0.089751996,-0.007219836
-0.0034327423,-0.11033091,0.038712062,-0.07426294,-0.075717255,0.0047693285,0.04249391,0.0133297965
-0.56750757,-0.2347361,-0.09452284,-0.13295263,-0.050878666,0.38958177,-0.3162747,0.083952785
-0.51292133,-0.17706002,-0.2538029,-0.12106996,-0.109742984,-0.7327339,-0.29499832,-0.14661849
-0.6206887,-0.39227128,-0.3161014,-0.29445854,-0.11766287,-0.3230474,-0.20616516,0.04687218
-0.9369736,-0.4078252,-0.7655694,-0.29894307,-0.5205127,0.0031430451,-0.9029082,0.04380442
-0.87879586,-0.6380647,-0.9570995,-1.0528336,-0.19009827,-0.38422194,-1.1094924,-0.20681757
-0.8767445,-1.0591269,-0.5927401,-0.45368555,-0.30829948,-0.20779328,-1.1024511,-0.314198
-0.8474485,-0.79393667,-0.49485886,0.29123503,-0.71806496,0.060984597,-0.86791605,-1.0473424
-0.94305795,-0.700134,-0.55493206,-0.41938895,-1.143992,-0.25247213,-0.6753586,-1.0255741
-0.6290149,-0.6851463,-0.46064866,-0.77915496,-0.91101724,0.16567183,-1.1670594,-0.5736527
-0.82230306,-0.6880395,-0.5583709,0.26055852,-0.75538844,-0.030143004,-0.7145319,-0.38174912
-0.6970174,-0.2073014,-0.8644685,-0.2719511,-0.11942532,0.08578953,-0.6895105,-0.3039739
-0.15819901,-1.1242584,-0.57239014,-0.26835194,0.13520838,-0.228875,-0.9487341,-0.756623
-0.27210742,-1.082722,-0.06617982,-0.020531813,0.08961584,-0.3928993,-0.582317,-0.26068172
-0.9972161,-0.16824605,-0.06668824,-0.6210358,0.28031868,-0.9337365,-0.47803473,-0.4648054
-0.62603766,-0.45187068,-0.060766518,-0.30057937,0.41486713,-0.4326329,-1.063421,-0.33681896
0.031931173,-0.16409007,0.0061551766,0.17460687,-0.09979387,-0.6846927,-1.1746061,-0.30464652
-0.59459966,-0.09135404,-0.09736107,0.18411215,-0.19719075,-0.5729004,-0.46859178,-0.29542163
-0.9748625,0.07906415,-0.18569936,0.05714717,-0.16692041,0.6914925,-0.46330586,-0.35507983
-0.46573654,-0.056420878,0.074478775,-0.44764373,-0.11841172,0.71544576,-0.19941682,-0.42182496
-0.04057714,-0.014830969,0.059953243,-0.06455161,0.084695876,-0.06533855,-0.2531477,-0.41426918
0.0088524595,0.020908266,0.026104525,0.028520666,0.080168486,-0.074084595,-0.07918922,0.07165769
-0.017633528,-0.005712457,-0.051855177,-0.070552245,-0.064172,0.058943138,-0.07258543,-0.0225259
0.045780957,-0.015813857,0.053548798,-0.033322,0.011443801,-0.07235403,0.08314653,0.002847895
-0.054747567,-0.072195694,0.0058247223,-0.07271725,-0.07107774,0.013756514,-0.060656145,0.020909905
0.028025612,-0.058256984,0.05455853,0.010559842,0.04667324,0.017301839,0.040450357,0.015417457
-0.97769946,0.83297527,-0.42161092,0.13885629,-0.07406517,0.04542717,-0.60371,0.06876427
-0.9244162,0.8762803,0.6681015,0.36066487,0.37817106,-0.3083673,-0.17355557,-0.04765292
-0.07180234,0.27615547,0.6740628,-0.24022049,-0.34320408,-0.27761483,-0.39271373,-0.016362289
-0.70486045,-0.028386451,-0.6045,-0.26185414,-0.07966052,-0.22676818,-0.6999729,-0.053923737
-1.1227033,-0.3594398,-1.230309,-0.67700934,-0.49316806,0.06061411,-0.82235897,-0.6773147
-1.1924784,-0.02506968,-0.9429185,0.16248707,-0.62474746,-0.15184303,-1.0701038,-0.9285913
-1.0321497,-0.4021951,-0.97062385,0.02597772,-0.3515111,-0.099252045,-1.116512,-0.78948754
-0.8493053,-0.5396153,-0.56830335,-0.09921621,0.14786588,0.011902464,-0.8536452,-0.23030071
-0.87192553,-0.16625853,-0.55210376,-0.29076713,-0.478154,-0.0929285,-0.87005055,-0.6729368
-0.27655742,-0.48781,-0.66262925,-0.13405669,0.20225307,0.022508474,-1.5939429,-0.42670706
-0.9446407,0.008493499,-0.71232074,-0.03296868,-0.09609774,0.09572478,-1.4480903,-0.3039065
-0.96673006,-0.46889642,-0.556695,0.19146147,-0.33078158,-0.02779805,-1.5051373,-0.72627616
-0.7880973,-0.37992764,-0.9752262,-0.0032037094,-0.27952617,-0.07308881,-0.67933273,0.17696165
-0.5272901,-0.14570153,-0.65900385,-0.23685735,0.059846196,0.31431332,-0.74487865,-0.29296836
-0.36029726,-0.3118179,-0.08848276,-0.21939465,0.0900926,-0.41184694,-0.5142667,-0.12905185
-0.38972867,-0.5672505,0.2898839,0.022477074,-0.12452948,-0.06832164,-0.34969252,-0.37117037
0.058517225,-0.3396199,-0.52042574,-0.19579245,-0.028964343,-0.25644732,-0.71319175,-0.5472354
-0.2619696,-0.067426585,-0.5274287,-0.0065699834,0.13182828,-0.2781319,-0.6794754,-0.15235846
0.05663249,-1.1581321,0.1382887,-0.22208123,-0.12096152,-0.068050556,-0.21445498,-0.5586199
0.1641383,-0.9726046,-0.10526212,-0.21839951,-0.3037035,-0.17870218,-0.3214749,0.018003095
-0.2403177,0.24380064,-0.19424488,-0.28956464,-0.6723905,-0.61188877,0.110965714,-0.014431909
-0.99697894,0.14855202,0.016942622,-0.030450035,-0.5220079,-1.0620716,-0.8601563,-0.61466175
0.023432428,0.24412632,-0.06369523,0.05679215,-0.5042181,-0.26558262,-0.23848729,-0.7501589
0.040894717,0.2580531,-0.017844282,0.19453047,0.20125325,-0.11559801,-0.053764652,-0.7035353
-0.07530249,0.074324876,0.059696987,0.08183123,-0.030953094,0.006874077,0.0034389645,0.04367651
-0.014608242,0.06444055,0.036320657,-0.055528514,-0.051233914,-0.027724799,-0.073942885,-0.035094485
-0.08611135,-0.021211572,0.22981618,0.76847214,0.35352695,0.23080413,0.48682517,-0.016854241
0.07130715,0.050360084,0.07212554,0.53460574,-0.3206181,0.08185714,0.72662616,0.027168714
0.050799336,0.006393858,0.03419212,-0.20496732,-0.6026,0.3513463,-0.15240979,-0.23019354
-0.7191304,-0.2810833,0.4950072,0.063617826,0.5614107,0.6139373,0.8348894,0.5088869
-0.2294148,0.07794714,0.33575913,0.48815536,0.46427664,-0.1049683,0.23785016,0.104563616
-0.32310516,-0.33309528,0.15853137,-0.34287122,0.03576976,-0.3062067,-0.56467503,0.017120184
0.24101572,-0.6706906,-0.27124882,0.3962786,-0.15012725,0.09952738,-0.3592585,0.362458
0.121026024,-0.25673348,0.30051294,0.31062996,-0.11934596,0.4504672,0.058042467,0.7004002
-0.14443226,0.024002993,-0.13084325,0.17715053,0.042089663,0.27105322,-0.38074505,0.43657067
-0.66321284,0.06315445,0.0034253288,-0.122900225,-0.0302438,0.25711834,0.1570753,0.26619852
-0.15529704,0.017441124,0.25034922,-0.038841598,0.15740578,0.25232446,-0.17326014,-0.25152352
-0.2012783,-0.30796686,-0.22468771,0.022965735,0.058050014,0.31954518,0.192691,-0.012993621
0.059187334,0.18208838,0.12438505,0.10752381,-0.025842804,0.26259047,-0.2397072,-0.08412378
-0.17594121,-0.13959467,-0.20379816,0.029248174,0.03273499,0.094689436,0.06904996,0.040258944
0.019758314,0.32260078,-0.074138515,-0.12574615,0.1585811,0.2574774,0.10973891,-0.12967645
0.23137785,-0.14268714,-0.3501722,-0.10789696,0.047755152,-0.054742157,-0.10329019,-0.113747686
-0.3859685,0.040640462,-0.5981631,-0.17229423,-0.18719004,-0.059677076,-0.15420268,-0.10401877
-0.3198629,0.008716008,-0.00062815624,0.20292169,0.11415675,0.10475591,-0.06665748,-0.11265709
0.1501485,-0.041261896,-0.44081324,-0.083362594,-0.45101985,-0.24020189,0.043517448,-0.2145226
0.16120394,0.16715093,-0.5081293,-0.121350154,-0.28938684,0.062252138,-0.25476074,0.044429258
0.29028448,-0.3067607,-0.6736311,0.24296916,0.1178887,-0.24104834,-0.18023862,-0.09157112
0.052024838,-0.25756577,-0.66411734,0.012683091,-0.21338794,-0.49865884,-0.30473757,-0.25859764
0.16542217,-0.12337284,-0.63391405,-0.07335308,-0.19758005,-0.7774755,-0.8067673,0.053104516
0.6486832,-0.35566932,0.016768258,0.76124436,0.155773,-0.97069484,0.43086487,-0.5663197
-0.7403481,-0.22105572,0.014761058,-0.12057314,0.7443093,-0.094217904,-0.1687299,-1.1749568
-0.5615843,0.28775272,-0.0017289548,-0.38948697,0.62706035,0.16525397,-0.4303213,-0.52037156
-0.042268783,-0.061188012,-0.07355651,0.10693844,0.10850973,-0.06324124,-0.16188943,-0.2580931
-0.017677374,-0.023243412,-0.067681044,0.018869229,0.073067605,-0.04060781,0.02395901,0.06601708
0.017934926,0.04086341,-0.07154499,-0.07941554,0.07855028,0.04465893,0.046472043,-0.08236682
-0.5381821,-0.003534302,0.002391557,-0.54425794,-0.1814742,1.0089015,-0.12098475,0.026402928
0.087321974,0.04939815,-0.3646065,-0.0583296,-1.2482457,0.23753472,-0.16741654,0.39978182
0.3272539,-0.43404412,-0.3717812,0.17288074,-0.24358387,0.88656515,0.0006663865,-0.16827445
0.66484916,0.117088616,0.4604151,-0.28292006,0.061737232,0.5791185,-0.3603667,0.5144703
0.18740058,-0.08595726,0.28615853,-0.09418748,0.1664639,0.18531105,0.122946106,-0.19408616
-0.11901789,-0.2678037,0.29023072,0.10963931,0.13180728,0.09793714,0.1129077,-0.18841131
0.07373149,-0.15280151,-0.049822446,-0.05850331,0.109847985,-0.026939215,-0.26911262,-0.55460596
-0.06364041,-0.31266183,0.17544691,-0.10879683,-0.077245735,0.10126361,0.11150379,-0.08038077
-0.00023016732,0.1530093,-0.06149379,-0.079547934,-0.0059877695,0.17158845,-0.25872913,-0.25101203
-0.18704659,0.030338429,-0.04855669,0.0816252,0.04629648,0.06397527,0.066101804,-0.4283027
-0.03842508,0.024662474,0.09333667,-0.013920957,0.053695425,0.09111446,0.2160522,-0.07118155
-0.27435118,0.014002024,0.116179615,0.114740424,0.08794949,0.17260599,-0.048651174,-0.021678856
-0.03302051,-0.026012888,-0.17490658,0.006848425,-0.017431237,0.16437787,0.101776205,-0.17352644
-0.14820558,-0.031208815,0.064739615,-0.023193339,-0.025143115,0.20068946,-0.10818477,0.010060246
0.034879453,0.12998407,-0.09601739,0.10102424,0.057427675,0.10853406,-0.0027065582,-0.089345455
0.18375638,-0.07615991,-0.14466983,-0.10430514,0.01999959,-0.035690147,0.07863532,-0.4110639
-0.028477443,0.063684985,-0.0077394145,0.14357069,0.14040615,0.14477864,-0.027529236,0.14511502
-0.051199205,-0.18286301,-0.089107305,0.08679595,-0.02671051,-0.021555414,-0.022977235,-0.19429594
0.01971487,0.08703882,0.10608803,-0.09201424,0.2909711,-0.024106517,0.034051027,-0.22967096
-0.07994549,-0.049285896,-0.32861894,-0.12509613,0.15426567,0.01475196,0.17534122,-0.004368004
-0.12848207,-0.17505205,-0.1123242,-0.013979037,0.1983034,-0.04411575,0.07706516,0.109295994
0.042432215,0.1258791,-0.6850565,-0.2896189,-0.040733688,-0.22815295,-0.3120036,0.071798906
0.9159357,-0.2995221,-0.8244991,1.9330284e-05,0.10454368,-0.12430836,-0.38159594,0.30757806
0.47059923,-0.24362,-0.19671793,-0.020052698,0.8017074,0.05682183,0.35430136,-0.6528081
0.013423762,-0.44849804,-0.27465233,0.19667847,-0.35621724,0.40914127,-0.017969836,-0.41425526
-0.338006,-0.25739715,-0.07115903,0.10844362,-0.3184769,0.0054994863,-0.34744036,-0.24262235
-0.0404303,0.05159983,-0.0039906725,0.042808384,-0.03751079,-0.067608915,-0.03358422,-0.012676038
-0.05497527,-0.0020869523,0.29891554,0.0072144414,-0.15166841,0.23643453,-0.10039714,-0.06525455
0.111208156,0.31799695,0.16415034,-0.48421824,0.19002315,-0.31653625,0.047206543,0.1990879
-0.310666,-0.023967562,0.20489824,0.023183877,0.53712887,0.23027006,-0.03910416,0.1210423
-0.021731308,-0.63979757,-0.24918322,0.23698336,0.5869964,0.3921653,0.06381377,0.021915145
0.17535824,-0.0030382448,0.28457353,0.2610296,0.00950858,0.11456508,0.0063880337,-0.32823777
0.027598334,-0.21212608,0.26746896,0.13103682,-0.083338715,0.39047965,0.19365291,-0.19831115
0.039035667,-0.26228893,-0.016772212,-0.29009536,0.06668284,0.16806264,0.030328885,-0.6757482
0.3147022,-0.12769327,0.3325711,0.035484347,-0.034834914,0.2081128,0.15305571,-0.9429403
0.027453776,-0.24064967,0.24806632,0.19235413,0.045933936,0.06665508,0.020944405,-0.26502302
-0.054831866,0.044272553,-0.06834317,0.07451588,0.21282816,0.18728304,-0.0059800535,-0.0001291521
-0.09982489,-0.22222625,0.18702011,-0.030018674,0.07776615,0.1734289,0.05345822,-0.017238485
-0.21752335,0.14920947,-0.02509053,-0.09916531,0.12428079,0.20286503,0.0021309266,-0.19316055
-0.21020989,0.13649611,0.14563365,0.015057191,0.05812729,0.102248564,0.11961606,-0.097388014
-0.2553597,0.10318283,0.018880475,0.048347436,0.055199448,-0.02416625,-0.07433015,-0.018392807
-0.23818251,0.09795861,0.062486667,0.024415564,-0.050300017,0.11333933,0.1933185,-0.3408858
-0.30025262,-0.104826376,0.112337455,0.057119664,0.024439307,0.22234912,0.029456489,-0.095301814
-0.12055803,0.12094082,-0.08018245,-0.06432696,0.082833596,-0.10133732,0.040385887,-0.10141695
-0.2211272,0.18309063,0.20357552,0.07495185,-0.07407291,-0.00076058984,-0.0106211165,-0.15109317
-0.23792435,0.14350913,-0.19464724,-0.015887195,0.056080863,-0.12666778,0.1485632,-0.018202478
0.004643369,-0.0019198352,-0.1472316,-0.022586845,0.06846898,-0.043774668,0.06331104,-0.088056125
0.09648697,0.24118045,0.30434498,-0.10346263,0.07601209,0.12346284,0.110382214,-0.12032494
0.07232683,-0.02143412,-0.0820115,-0.13225254,0.30820653,-0.31312597,0.09699453,-0.1419411
0.49729112,-0.08080386,-0.7004645,0.21407571,-0.050427675,-0.26371542,0.30940315,0.20361127
-0.017605973,-0.49051762,-0.483934,0.05850206,0.3270153,-0.8073861,-0.039742537,-0.32781398
-0.090180084,-1.0656326,0.47914445,0.0642968,0.44296777,0.048771348,0.22495788,-1.5195372
0.1440499,-0.88356334,-0.5549896,0.584769,0.31199104,0.08258391,0.27216938,-0.27655825
-0.6389388,-0.9073705,-0.33580452,-0.023429079,0.7823159,0.088407375,1.0643936,-0.05354797
-0.059909645,0.068456054,-0.50833267,0.04606755,0.11385371,0.12464133,-0.039409555,-0.012662008
-0.93841815,-0.03761288,0.9108306,0.15938266,0.09352073,0.6997119,-0.93704295,0.8005978
0.15086149,-0.20540649,0.6532014,-0.14172705,0.11846815,-0.17746508,0.3197973,0.2216524
0.17759171,-0.46726164,0.35879645,0.11253805,-0.47864592,-0.03854499,-0.025552299,-0.29773256
0.094453156,-0.8319231,0.17504066,0.043466553,-0.4815379,0.6717491,0.05862356,0.016860452
0.46095997,-0.14170676,-0.22818603,0.27748185,0.20689389,0.36782563,-0.18767788,-0.040569317
0.11694335,0.15168744,0.10989468,0.06045345,-0.10823977,0.29940623,0.07350036,-0.4450024
0.12983605,-0.057704106,-0.020151373,-0.03280831,0.02261135,-0.11559773,-0.14365722,-0.035808556
-0.02513323,-0.24375606,-0.043394733,-0.04801241,0.17287588,0.17431296,0.115521654,-0.3992338
0.1612245,-0.09876536,0.036253583,-0.06631225,-0.0730065,-0.011086086,-0.13338771,0.0460687
-0.13432305,-0.0059321807,0.032554675,-0.09877789,0.0025127106,-0.077432245,-0.022229483,-0.2040148
0.0916181,-0.12141901,0.022548962,-0.09510212,-0.010107519,0.0073196166,0.027861228,0.24440137
-0.24677554,0.11512638,0.10602858,-0.052987393,0.13733232,0.13405563,0.0039060835,-0.00086120545
-0.11370316,0.061241776,0.29762396,0.085472845,0.054440968,0.14829412,0.19805524,-0.26681215
-0.38778466,0.0071425587,0.10927264,0.09740479,0.18459012,0.14509545,-0.0020713692,-0.09771434
-0.3313123,-0.008184481,-0.01646022,0.01387233,-0.009267176,-0.07027609,0.16454804,-0.33046716
-0.19961531,0.08816317,0.21868812,-0.16754271,0.18286915,0.12176102,0.12019873,-0.084416516
-0.099881396,0.3040181,0.11306942,0.22538552,-0.0003063643,0.039210077,0.07735084,-0.039592516
-0.0048735174,0.17860273,0.019915184,-0.1380807,0.04588061,-0.018492281,0.07149151,-0.20019488
0.101640396,0.20298941,-0.03169422,-0.11836843,0.099575706,0.16999526,-0.011114699,0.12820286
0.07114951,0.12377169,0.18662673,-0.07551117,0.05745069,-0.019783566,0.111053735,-0.062221855
-0.29998296,0.20576864,-0.09101521,-0.04772231,0.12976804,-0.11244364,0.1413821,-0.048502047
0.10379466,-0.05727929,-0.04742567,0.18898676,-0.007877126,-0.054827716,-0.21672116,-0.02586743
0.2488682,0.0060440283,-0.15432733,0.1488959,0.058052663,-0.16377991,0.10863285,-0.17115968
0.17662556,-0.2751059,-0.58123577,0.354756,0.45214498,-0.8233512,0.21296933,-0.7468157
0.15798263,-0.5235409,-0.049937695,0.055900674,0.3827719,0.42322457,0.16747423,-1.2910514
0.07943315,-0.60535043,0.22337645,0.5017384,0.054232802,0.1683118,0.26833388,0.2593714
-0.8931093,0.52655953,-0.35223648,0.70930725,0.9016575,0.16576172,0.74329555,-0.13780929
-0.24268733,0.062069207,-0.59802824,-0.001087822,0.15542042,0.26575354,0.088410035,0.042213112
-0.67118746,-0.025261538,0.16734837,0.2910651,-0.16368029,0.57390124,-0.86770594,0.60308576
0.6620785,-0.47001958,-0.077670395,-0.17272194,0.23071077,-0.39435408,0.5536818,0.34655228
0.34367803,-0.50710195,0.15581398,0.122962095,0.18434009,0.09840115,-0.19120272,-0.03811931
0.17397708,-0.98083866,0.0427592,-0.11829323,0.20829073,1.0744957,0.12276993,0.0059060142
0.3032286,0.1519037,0.20499249,0.037773237,0.1132275,0.057029348,0.20044962,0.28415254
0.16666874,0.221145,0.1305212,-0.057459947,0.055967774,0.024915477,0.13820373,-0.15645307
0.2865163,0.09589733,0.21429825,0.029772235,-0.12714493,0.212826,0.049313262,0.11575199
0.0983729,-0.11424809,0.20088294,0.028030546,-0.048177697,-0.048781753,-0.15449345,-0.28409937
0.16966318,-0.0060379794,0.113002725,0.004759908,0.039914317,0.014553161,0.19079836,-0.33991948
-0.051898208,0.06853861,0.08063926,0.13501221,-0.07235749,0.045146972,-0.013216069,-0.1514139
-0.083129324,-0.1403225,0.11650515,0.13919614,0.049366023,0.07780427,-0.033465683,-0.11806431
-0.13452774,0.17038383,0.09994019,-0.08613402,0.02240029,0.17796814,0.12842195,-0.018038528
-0.032519173,0.09038336,0.031355266,0.039934356,-0.014596123,0.15685132,0.1306387,0.07671094
-0.357702,0.0337381,0.15848081,0.13712132,-0.08306061,0.2511981,-0.1101399,0.09260691
-0.08985479,0.06795645,0.08340515,-0.011907246,-0.011483954,0.14899777,0.056984507,0.20650457
-0.27464265,0.5089466,0.053812996,0.015591527,0.045441743,0.13058245,0.13041107,-0.2507126
-0.067324154,0.10823225,0.13927317,-0.06224197,0.041432425,0.22294013,-0.010735211,0.09988905
0.001370868,-0.03332713,0.100914076,0.17046143,0.09375204,0.22110702,0.14323694,-0.02245464
0.033048913,-0.032403927,0.062071618,0.07971156,0.018255277,0.037749723,0.111423895,-0.11068841
0.08455402,0.25314382,0.10766253,0.39773494,-0.17578535,-0.07939914,0.0049060537,-0.1990887
0.048812762,0.08620529,-0.1316227,0.26907915,-0.00022871011,0.11963723,0.042900413,-0.07366152
0.020340601,-0.12613872,-0.08128732,0.22378679,-0.19707584,0.1275483,-0.041896023,0.1219446
0.19563684,0.16800517,0.014839394,-0.08071993,0.12455822,-0.5572538,-0.09866208,-0.30719018
-0.015647322,-0.34337565,0.008624227,0.583162,0.33149716,-1.426206,0.07232678,-1.0702666
0.36528665,-0.5054896,-0.38133067,0.4404223,0.31790063,-0.71478957,-0.027294463,-1.3064305
-0.12104162,-0.7266517,-0.20181027,0.40169394,0.15443216,0.15436177,0.43257472,-0.14129116
-0.26379022,0.21393777,-0.22436537,-0.44623688,0.6319653,0.41352287,0.765103,-0.022273578
0.03224347,0.108558364,-0.18749678,0.0045183003,0.0052235913,-0.037871763,0.0459281,0.018480161
-0.33815885,-0.05243825,-0.015012347,-0.60658604,-0.3703618,-0.094059855,-0.5215388,-0.4030641
0.49355033,-0.3259517,-0.3951254,-1.602421,0.12137603,-0.41390377,-0.2894818,0.36609167
0.2813566,-0.6281068,0.037301674,-0.8196812,-0.083161354,-0.56047547,0.1578915,0.28194743
-0.021480503,-0.7873174,0.26532248,-0.07322229,0.38477662,0.5759186,-0.10707164,-0.24706791
-0.12809221,0.0575279,0.023386786,-0.13095203,-0.46074334,0.07967258,0.16091238,-0.2470536
-0.12876654,0.05318843,0.3657544,0.07239403,0.088550895,0.16973509,0.062207084,0.11548961
-0.04268343,0.07341185,-0.07111501,-0.064731136,0.0714712,0.39745367,0.035633225,0.21690513
0.059475016,-0.20028265,0.037711993,0.12027449,-0.070899464,0.03174148,0.006805615,-0.19346905
0.1527463,-0.021972353,0.04817744,-0.08345982,0.08152644,0.10842959,-0.08246036,-0.43030265
0.09850042,0.1156531,0.040977594,-0.106984556,-0.12464245,-0.060721852,0.030314095,-0.09853179
0.026282262,-0.11855658,-0.021900002,0.09614563,-0.0073871273,-0.18570812,0.008746765,-0.11946968
-0.12479101,-0.09796397,0.11285036,-0.093963385,0.05610939,-0.3650213,-0.07981561,-0.05426202
-0.04848487,0.1658401,0.014695262,-0.081593275,0.08480143,-0.010841189,0.023447884,0.13953492
-0.3749109,0.14008343,0.23792842,-0.13192989,-0.033038605,0.30247903,-0.07635782,0.17379984
-0.267148,-0.045579825,0.16869387,-0.12799937,0.022787705,0.452662,-0.08520888,0.13716051
0.13947926,0.4230803,0.060479335,-0.068995,0.14200677,0.20794573,-0.002652773,0.1062068
0.02338532,0.15208209,0.20956218,0.1110996,-0.14438297,0.17570104,0.11371595,-0.15525399
0.15984744,0.23521139,0.10726848,0.062227186,-0.008068518,0.14550631,-0.080565095,-3.845802e-06
0.004739406,0.2670189,0.18479705,0.066316195,0.011369827,0.11688695,0.094159655,-0.11319875
0.15809953,0.14548773,0.067018524,-0.12566403,-0.004616441,0.11490956,0.08900532,-0.21159971
0.07204787,0.07289399,0.006097036,0.035470054,0.15896986,0.097679876,-0.041432336,-0.08490783
-0.014471907,-0.05638776,-0.1109147,0.27528086,0.043377127,-0.012765147,0.1829603,0.21328595
-0.06887478,0.11749736,-0.23780212,0.19818689,-0.1819673,-0.2355842,0.08531959,-0.26573688
-0.17118397,0.019604564,0.24138765,0.4870084,0.38897333,-1.0958889,-0.054377068,-0.9013263
-0.2812626,-0.3215512,-0.7473914,0.58050495,0.76610565,0.3101109,0.59527993,-0.6857679
-0.79833734,-0.19391496,-1.1741287,0.6437898,0.37104708,0.69810206,1.1091946,-0.15769537
0.058589473,-0.3640287,-0.158954,-0.53101254,0.18748854,0.6884557,-0.7010907,0.103559345
0.2381189,0.054710306,0.20201206,-0.0138806105,-0.07220977,0.046898037,-0.06837322,-0.044989932
-0.11866589,0.062458113,-0.22722408,-0.7681436,-0.15403834,0.015814567,-0.28656268,-0.61651117
-0.21030203,0.32577494,-0.31286845,-0.71579766,0.3436986,-0.6649411,0.13772127,-0.3889507
-0.22059542,-0.5792559,0.6402411,0.12153396,0.14211027,-0.08109719,-0.10798961,-0.028039388
0.102075614,-0.037291147,0.02042813,0.2325187,0.05904636,0.1563317,0.10053442,-0.08982652
-0.10444717,0.11945543,0.020759596,0.20877407,-0.030419758,0.008881225,-0.16891384,-0.15325113
-0.15670559,-0.28524452,0.009495068,0.027588908,0.12708691,0.29607886,-0.021901673,-0.015522919
0.08200544,0.12928203,-0.0523958,-0.07501864,-0.057560854,0.06436324,-0.15517454,-0.121534824
0.011599337,-0.065312125,0.1123063,0.08064682,0.08801065,-0.18271433,0.010923637,-0.013512913
0.08594448,-0.12277085,0.019695388,-0.10142806,-0.11972717,-0.4817895,-0.04559063,-0.16390818
0.1374828,-0.05126887,0.122828916,-0.1665605,-0.0075418646,-0.493368,-0.031633407,-0.056674615
0.21606867,0.09229433,0.063167505,-0.08912133,0.054591086,-0.40908328,0.02880173,-0.1181873
0.21104474,-0.086516544,0.1451912,0.091683224,0.07281388,-0.43463317,0.13669524,-0.099715136
-0.088234484,-0.1593731,0.2905126,0.02298989,-0.039180648,-0.26378694,-0.12902921,0.05021369
-0.6354158,0.049714737,0.33533072,0.18706793,-0.045485325,0.022209093,-0.0797826,0.25870526
0.055589233,0.04528805,-0.057884492,0.19328284,-0.18619081,0.20451567,-0.06495701,0.2755697
0.06972697,0.15304042,0.15030293,0.05087312,-0.12230329,0.2787123,0.011498014,0.16478923
0.121739015,0.27513185,0.049448844,0.04203259,-0.21682209,0.27185526,-0.010266456,-0.032238465
-0.04774474,0.20599239,0.065402575,0.1221648,-0.23535389,0.020665254,0.1369776,-0.1817525
0.17489286,0.3911452,0.0034472574,-0.04901555,-0.24069452,0.2606523,0.14595397,0.10704925
-0.022862278,0.16645266,0.14838144,-0.034122203,-0.14620894,0.18350455,0.109299526,-0.3688226
0.01117118,0.15390386,0.1040171,0.10576587,-0.006112852,0.11507387,0.015243214,0.064214155
0.0031040371,0.4384311,0.213564,0.09992614,0.32100233,0.15908518,0.3032269,0.008270901
0.051706683,0.41383088,-0.3413871,0.63048077,0.022530587,-0.2487154,-0.012553524,-0.38327494
0.1141526,0.24328785,-0.537794,0.22578552,0.09128188,-0.9164302,-0.17733122,-0.8147026
-0.8448715,-0.44271988,0.24558796,0.687414,0.56604624,0.1813137,-0.6137693,-0.20149754
-0.9162825,-0.6807413,-0.27709702,-0.006124305,1.0733354,0.67923087,0.12622987,-0.19949873
-0.05292866,0.019896334,-0.22382101,-0.35593414,0.8662812,0.5203877,-0.41523996,0.6228473
0.69914865,0.17298672,0.4895468,-0.0073357746,-0.15823153,-0.052385204,0.013947001,-0.06725681
0.33452126,0.5564477,0.08868099,0.43190148,-0.17994705,-0.18925235,-0.11008381,-0.015252406
0.16014393,0.1701454,-0.0041760625,0.062628224,-0.009805748,-0.3676473,-0.49297422,-0.43270355
0.33000544,-0.42745805,0.08965108,0.1799473,-0.10018771,0.32512715,-0.25978675,0.2969641
0.3717006,-0.115464196,0.05696872,0.036355313,0.04553865,-0.04721114,-0.15076895,-0.1679926
-0.038335405,-0.02200388,-0.041451685,-0.31319377,-0.18669194,0.22979566,0.033764765,0.14505629
0.026401458,0.013879681,0.030287271,0.073998325,-0.08004652,-0.18100628,-0.27964926,0.16227324
0.020525701,-0.053780135,0.24889988,-0.09989575,-0.27578926,-0.7282433,0.09839353,0.14762631
0.11897144,0.013452661,-0.09713918,0.23494937,0.09563197,-0.7763783,0.19017425,-0.15126078
0.10388745,-0.09119109,0.1447642,-0.2138,-0.11203831,-0.33883658,0.09378895,-0.050220054
0.17831556,-0.0864572,0.20622212,-0.02048931,-0.012552262,-0.3506253,0.08488909,-0.06699702
0.09742659,0.03299944,0.05821935,0.053852044,-0.022837974,-0.3085642,0.039788872,-0.032225143
0.39254826,-0.114144064,-0.0020212599,0.051804714,0.008889364,-0.0050748056,0.038204513,0.08606049
-0.15029821,-0.08767373,-0.023377223,0.0033290163,0.09695545,-0.44765466,0.11754075,0.04877408
-0.48317793,-0.3133543,0.10287767,0.36597678,-0.17973912,-0.0601353,0.15391482,0.3738122
0.16790982,-0.2056161,0.271759,0.14320536,-0.11641745,0.078664735,0.074847035,0.35880783
0.113920964,-0.24965285,0.1307144,0.06933223,-0.021882124,-0.051702958,0.042150762,0.16350105
0.009816927,-0.050016712,0.111132994,0.07203598,-0.21736023,-0.017328652,0.029337596,-0.028190248
0.11075672,-0.007362931,0.14910525,-0.0069512352,-0.057106864,0.034868516,0.07108453,-0.014647828
0.012303129,0.12535922,0.13633615,-0.0011034537,-0.2814088,0.059322964,-0.035604686,-0.23461813
-0.09363049,0.24466854,0.1659264,0.04446442,-0.33122414,0.080613926,-0.0412493,-0.22276905
-0.17141958,0.1784883,0.27083358,-0.20579259,-0.8284595,-0.033728387,-0.13560387,-0.28132886
-0.24708177,0.038169242,0.04688429,-0.22421932,-0.8251928,0.34056237,0.16992,-0.629864
-0.30839017,0.083718814,-0.011389879,0.80427015,-0.10303113,-0.33087298,-0.2690468,-0.33115605
-0.99376196,-0.0737569,-0.27161488,0.82707727,-0.5188378,-0.23767868,-0.1296882,-0.79581016
-0.25173128,-0.7912059,-0.13527091,1.2497736,0.61740035,-0.44415092,0.2887483,-0.093369044
0.31530783,-0.90644675,0.04837045,0.009408486,0.31296462,0.12593369,0.9725717,-0.34076938
0.045038722,-0.0010516973,-0.22593096,-0.46631622,-0.20842819,0.8115535,0.17014249,0.57846504
0.7255864,0.026732491,0.4779994,6.1561004e-05,-0.1241772,0.07286439,0.056105576,0.015327416
-0.24970874,0.34798443,-0.11731519,0.02381533,-0.0913949,-0.59475565,0.016587356,-0.260792
-0.19202475,0.51868135,0.01108608,-0.96801805,-0.0474326,-0.57060367,-0.21287641,-0.31111634
0.3029681,-0.018018443,-0.003303305,0.58376896,-0.15414058,-0.3751801,-0.55576795,0.23116806
-0.3673034,0.18049817,0.47676122,0.54518574,-0.060116634,-0.55945754,0.24898362,-0.18684438
-0.20458709,0.2641527,0.06924284,-0.063754335,-0.16889416,-0.450844,0.0010022556,-0.0023360148
-0.059609305,0.031134166,-0.17253132,-0.32350922,-0.0020023284,-1.2097468,0.077255905,0.24884303
-0.007363229,0.19163051,0.27246147,-0.15873851,-0.08634883,-0.8719653,0.23275535,0.20550503
0.10176844,0.040317856,0.069597684,0.012444156,0.0070561524,-0.24924046,-0.07162699,-0.14490631
0.027037084,0.033214707,0.05225137,-0.192199,-0.059479132,-0.18530253,0.1546047,-0.111835815
0.21089922,0.31715935,0.0380992,-0.012050439,0.19237833,-0.15386005,0.2123696,-0.1145642
0.290084,0.15404306,0.01805182,0.09741102,0.097410575,-0.2297445,0.09523765,-0.23749948
0.64636254,0.13553794,-0.0712569,0.10488461,0.043243535,-0.1270911,0.12018655,0.14562221
-0.0111774355,-0.2185473,-0.066866666,0.20429765,0.24002193,-0.18162134,0.23896727,-0.056417644
-0.5163544,-0.3117757,-0.0013207186,0.15244034,0.101978056,0.0044967127,0.32893038,0.4663769
0.22514135,-0.61428595,0.18523172,-0.020848526,0.06997723,-0.011350994,0.15112342,0.13269638
0.14292645,-0.38805196,0.11747926,0.053749163,-0.032753054,0.031644445,0.20975769,0.115540594
-0.02182609,-0.0049273088,0.17796923,0.14712156,0.024823483,-0.075994544,0.12581666,-0.0830744
-0.059453513,-0.06059179,0.20628384,0.017619248,-0.025185192,0.0033671856,0.075453945,-0.09126344
-0.026823903,0.074187964,-0.0042169257,-0.01899188,-0.24668996,0.2473307,0.2101969,-0.036334045
-0.13235277,0.037784193,-0.009943525,-0.14089644,0.33600527,-0.0065755583,0.22861296,0.09428489
0.031426124,0.14496192,-0.20049474,-0.4624488,-0.24856617,-0.19375604,0.22243083,-0.16925469
0.021323284,0.02537207,0.24578127,-0.8135961,-0.7110978,-0.10919131,-0.0264546,-0.036795147
-0.65539473,0.0069245384,-0.16864546,-1.1441818,-0.9346561,-0.40957415,0.49952564,0.5665655
-0.16153908,-0.06005481,-0.75529546,-0.2578082,-1.7238202,0.09974972,0.3249819,0.3686808
-0.26845798,-0.22584596,-0.52983445,0.17520626,-1.1041715,0.20240231,0.22577412,0.07590866
-0.06124012,0.13238592,-0.38800952,1.4153525,0.032233022,-0.21482825,0.30652052,-0.6554919
-0.45449886,-0.07762322,0.03617543,0.5505344,-0.219933,0.6214457,0.1140575,0.29995626
-0.019752186,-0.035777193,-0.21172997,-0.1502646,0.046684034,0.048872866,0.04680353,0.21746288
-0.1541494,0.16779311,-0.022204466,-0.09687792,-0.11739904,-0.5371422,0.0048516146,-0.2316484
-0.17358632,0.05245131,0.3308365,-1.0441575,0.10926428,-0.5334025,-0.37309867,-0.007399594
-0.078544274,-0.1951656,-0.24334976,-0.2970929,0.17359719,-0.662908,-0.13621628,0.16823995
-0.3437806,0.16950543,0.36181632,0.18477228,0.004635868,-0.5183175,0.38664594,-0.45720702
0.138288,0.12079152,0.3760166,-0.36266822,0.34467933,-0.8680113,0.023437886,-0.06363545
0.26647615,-0.017755205,0.20847142,-0.7823007,-0.05091036,-0.80322105,0.1296032,0.17292982
0.13512984,0.24442865,0.2516612,-0.19272411,0.23505065,-0.13335516,0.121346734,0.05202267
0.14557308,0.11880026,0.03752455,0.41935545,0.0045834314,-0.11718617,0.17985505,0.23022294
0.18843074,0.037464727,0.0572803,-0.03537994,0.066062585,-0.08281421,0.115205966,0.124000326
0.26005974,0.09858032,-0.08584244,-0.07235242,-0.02317872,0.035936892,0.012754174,-0.19729526
0.13565563,0.1525472,0.07479226,-0.18468393,0.1361232,-0.12899481,0.07436811,-0.22206794
0.35863245,0.13692333,-0.32484892,0.15579332,0.2065923,-0.14000781,0.14080733,0.12472272
-0.63229924,-0.110377245,-0.22890162,-0.04669097,0.15802209,0.022498729,0.31198993,-0.12285469
-0.16391043,-0.22725931,0.1191243,0.22371282,0.05299198,-0.010768305,0.09483874,0.5109047
0.17539512,-0.72335416,0.022017302,0.05414231,-0.030899324,0.012131462,0.27633262,0.07243525
0.045307055,-0.44287863,0.17758784,0.07210192,-0.022887066,0.07059251,0.16960888,0.1917361
0.026385503,-0.02506496,0.10907368,-0.190625,-0.12823781,0.011050023,0.044096157,0.2550896
-0.0058475574,0.0061838217,0.06808466,0.010654506,0.02030503,-0.0039100153,0.18155117,-0.021227801
-0.16022745,-0.10871189,0.06051959,-0.0031875272,-0.07613754,-0.20787063,0.10367942,-0.047667693
0.02968338,-0.042205177,0.22078851,-0.105916195,0.015248369,0.013901048,0.2735145,0.21988352
0.17193367,0.041393753,0.26105598,0.016385058,0.04356242,0.039873768,0.026581403,0.17000052
0.16726439,0.20048626,0.08620369,-0.64031005,-0.1875463,-0.27699336,0.059330653,-0.1915988
-0.4040953,0.05769154,-0.38622597,-1.0973327,-0.30402324,-0.5483695,-0.053836185,-0.52201843
-0.65065885,-0.13850121,-0.42446065,-1.4913706,-0.5898735,0.18337865,-0.70960236,-0.4982059
-0.8694621,-0.3082672,-0.14637601,-0.10599453,-1.3924751,0.15346831,-0.024444837,-0.46912155
-0.63234156,-0.0016439843,-0.028626375,0.81699353,-0.4529289,-0.1932408,0.017033488,-0.07285205
-0.5157396,0.023491723,-0.054740608,0.545051,-0.39059746,0.23067805,-0.25964653,0.06609462
0.08255031,0.063169,-0.99832237,0.45159748,0.56175137,-0.05230309,-0.06795252,-0.013540447
0.098004274,0.032822862,0.16862589,1.0472277,0.36123776,-0.3031393,0.0076562,-0.24730639
-0.1961437,0.36915725,0.5614394,-0.371191,-0.10999384,-0.4499216,-0.49362162,0.17528912
-0.23130852,-0.24435903,0.027855761,-0.54843503,0.08733053,0.12982894,0.083162464,0.3494126
0.26113534,0.14827704,0.19165806,0.07218565,0.4626384,0.12835187,0.29285255,-0.24015385
0.22628632,0.25664663,0.010433906,-0.29483357,-0.07131264,-0.41094878,0.20969456,-0.1012249
0.03384731,-0.03854404,0.084296025,-0.9406176,0.04490439,-0.28733826,0.15359923,0.11101934
0.2727531,0.3743968,-0.044065095,-0.7189296,0.10143875,0.096027605,0.24772693,-0.055850983
0.12355601,0.17941687,-0.02176951,-0.11314627,0.13574456,-0.07109591,0.10188634,-0.08572751
0.14941506,0.2080417,-0.17691134,-0.06266425,0.011765961,-0.17846286,0.0085764,0.058748193
0.10186413,-0.05152162,-0.022204101,-0.03834864,0.16942176,-0.1506907,0.0025045148,-0.40019485
0.19379812,-0.022201179,-0.23179042,0.19371696,-0.04171994,-0.03880301,0.12057811,0.035504784
-0.018355872,0.120455265,-0.24137896,0.033457305,0.10961943,-0.016865112,0.14430386,0.07598396
-0.2671094,-0.19960043,-0.11646238,0.00313607,0.002548265,-0.075094864,0.40234992,-0.14336105
-0.04921573,-0.48887575,0.0281981,0.006454263,0.1452234,0.07196011,0.13661574,0.3963955
0.10905658,-0.7735918,0.20667203,-0.037356857,0.06087226,-0.060310535,0.16068941,-0.025247917
0.15554707,-0.4801207,0.12778738,-0.06353573,-0.017732527,0.027110994,0.16422063,0.02789721
0.24594188,-0.0033859895,0.182996,-0.004794293,0.039885733,-0.09487507,0.16694668,-0.0588565
0.06468933,-0.045346968,0.19736543,0.016424421,-0.07233338,0.19924037,0.07921906,-0.306637
0.09258,-0.118680224,0.18918534,-0.07506845,-0.18689664,0.047060315,-0.13761663,0.2211614
0.18445723,0.24483342,0.03375099,0.080979496,-0.14389978,0.039880823,0.035172686,0.012157735
0.011887468,0.02526358,-0.17216581,-0.10432215,-0.2034339,-0.12696402,0.04401292,0.061908748
-0.05793295,0.162231,-0.2184186,0.3988707,0.27926344,-0.15453574,-0.11180272,-0.21551204
-0.2584968,0.31639776,0.16242218,-0.259475,0.324419,-0.25256312,-0.5355813,-0.096871875
-0.00223435,0.09865571,-0.5215236,-0.8022406,0.37086263,-0.23377354,-0.19448547,0.024960686
-0.19600187,-0.17330977,-0.07994878,0.10150481,-0.4580109,0.20827891,0.10944657,-0.31378388
-0.15100352,-0.11387803,-0.58829325,0.29866487,-0.42723423,0.7539396,-0.78827935,0.35608888
-0.389181,-0.00016548167,-0.048793774,0.4941249,-0.28973585,0.19585225,-0.19420506,-0.0022424906
0.152189,0.06445808,-0.7992777,0.04288835,0.52872056,-0.10843957,-0.2757137,0.030950911
-0.036843687,-0.056671795,0.09057054,0.8493854,0.5682624,0.35175616,0.2251244,-0.04829641
0.7389504,0.31648508,-0.80775493,0.72546095,0.46835554,0.20323387,0.29977688,0.7483306
-0.01276858,-0.045637734,-0.025854025,-0.44029576,-0.20236146,0.22545947,-0.017662017,0.40580565
0.43010303,0.22319363,0.114589274,0.044994332,-0.22597069,0.36460292,0.44538417,-0.49906278
0.09428805,0.14111461,-0.17950545,-0.33662874,0.22181465,0.39474785,-0.017533006,-0.30788198
0.028198794,-0.08121791,-0.037710987,-0.20988461,0.19132343,0.0022777137,-0.088455744,0.09159286
0.006061676,0.35098892,-0.123997614,-0.36347654,-0.015669022,-0.21238324,0.019147646,0.43033668
0.2741047,0.31864765,-0.101798266,-0.22929242,0.0714189,-0.052665804,-0.06156185,0.038865127
0.12978132,0.27616224,-0.16957383,-0.59178823,0.10382075,-0.006665084,0.0050791567,-0.12574176
0.0709173,0.04304716,0.033708885,-0.1429542,-0.035910722,-0.16231926,0.031495493,-0.08799971
0.00844125,-0.29410186,0.010889079,-0.13566151,0.19826922,-0.04353279,0.062168326,-0.05871699
-0.09105222,-0.010808285,-0.17481448,0.17360944,0.13995929,-0.017919255,0.21732605,0.13176098
-0.14831795,-0.55344546,-0.31533673,0.12463873,0.06293658,0.0054219444,0.13053362,0.116024956
0.042241905,-0.48828042,-0.068937235,0.010604478,-0.05485276,-0.00990367,0.17131862,0.30621
0.058971245,-0.37874225,0.20830767,0.13483569,-0.0021586171,0.009922862,0.15631256,-0.04459423
0.04255908,-0.04253207,-0.028764164,0.08704347,-0.09673365,0.13123094,0.13720286,0.32149702
0.21078427,-0.18073143,0.26732302,0.057594806,-0.28978986,-0.11569836,-0.03014908,-0.19267145
0.07725139,0.062361766,0.18516245,-0.07455774,-0.065364584,-0.07501065,-0.013679691,-0.14534263
0.19326648,0.055286765,0.16346483,0.1324974,-0.12386121,0.14929728,0.09624841,-0.31714654
-0.035962157,0.036799718,0.050553016,-0.07447667,-0.037160844,-0.09074506,-0.20457648,-0.47426078
-0.24345833,-0.03994958,-0.048902098,0.009866533,-0.112217404,-0.17330386,-0.34410542,-0.12273606
0.49485478,-0.04090867,-0.08188032,-0.14748481,-0.09929297,-0.18878882,0.11136043,-0.26836884
0.119628645,0.32348153,-0.1619798,-0.020104006,0.21790251,0.2332289,-0.18883424,-0.18260776
-0.36809286,-0.25546676,-0.12025997,-0.9703602,0.06738015,-0.2957248,-0.50440484,-0.3749895
-0.27061597,-0.14070514,-0.22914849,-0.6739875,-0.7955673,0.5275127,-0.56033903,-0.7211607
-0.59735465,-0.066634126,0.063067555,0.6619329,0.38936332,0.9909656,-1.4422126,-0.57372195
0.10644201,-0.05192133,-0.19353136,0.009019829,-0.030913742,1.1218785,0.113953836,0.013946273
0.55981636,0.10353202,0.63187623,-0.5349856,-0.10581685,0.0017095328,-0.22887236,-0.04042565
0.0055413065,0.022844257,0.27251762,0.20048088,0.5785612,0.37390733,-0.3360894,-0.26626936
-0.21511543,0.49184513,-0.4459221,0.6317458,0.40151507,0.63462645,-0.5191763,0.79345226
-0.10042394,-0.07565028,-0.29895246,0.08585049,-0.3348161,0.17648824,-0.3356594,-0.21289657
-0.34376016,0.26434565,0.07411916,0.3821911,-0.9054471,0.08696332,-0.11478877,-0.69622713
-0.4766037,-0.11600653,-0.24069111,-0.027808845,-0.16364826,0.62694114,-0.24729043,-0.1291004
-0.17750841,0.19126898,-0.19003227,0.3182994,-0.06825291,0.075216815,0.0746601,0.14754605
0.21543708,-0.014348948,0.06767997,-0.2674368,-0.17810665,-0.17774871,-0.08066637,-0.040527817
0.21251667,0.08401423,0.068590954,-0.4152268,0.07070282,-0.22284752,0.04052655,-0.12291584
0.045686774,0.0361401,0.074945405,-0.57053196,0.2111605,-0.0781522,0.032027993,0.2671225
0.057459697,0.053404894,-0.101350255,-0.6502704,0.0005456806,-0.036346097,0.014980982,-0.07658058
-0.22281514,-0.03927514,-0.09258459,-0.73269665,0.0869593,-0.09853,0.1648584,-0.107190795
-0.10591272,-0.27559534,-0.069053754,-0.3470844,0.15928313,0.10267569,0.28586784,-0.07648776
0.086716354,-0.8213878,-0.13470703,-0.02318555,-0.03268266,0.08426288,0.06873637,0.063744545
0.0001501986,-0.6199093,-0.17545263,0.0047754133,-0.076808035,-0.028077833,0.096756816,0.27522153
0.18249865,-0.10064085,0.06822578,0.105975695,-0.07504674,-0.021474486,0.083352216,-0.011702012
0.11468993,-0.16367526,0.17855449,-0.15158921,-0.018437,0.03334093,0.19414337,0.105906054
0.14982592,0.033479415,0.041542362,-0.08928006,-0.105379544,0.059256878,0.050073493,-0.22879304
0.29377434,0.05695876,0.01031806,0.086564794,-0.026787097,0.2417156,0.07130715,-0.08561276
0.20094654,-0.07809822,-0.10563966,0.22070625,0.046211623,0.012108628,-0.3329276,-0.33175883
0.1341007,0.026912497,-0.034342863,0.01727799,-0.10875345,-0.050937507,-0.18727517,-0.036892988
0.30050206,-0.11582486,-0.072114915,0.061092608,0.08535495,0.2305953,-0.29965428,0.010665143
0.076559685,0.027957521,0.111122005,0.016985614,0.09266216,-0.021361189,-0.086555965,-0.04997262
-0.216647,-0.065092646,-0.13356873,-0.3276502,0.052617088,0.07423317,0.039341275,-0.17486297
-0.17494914,0.045180216,-0.9371414,0.2563689,0.5517609,-0.009274585,-0.3081432,-0.47623956
-1.1233754,-0.35158905,-0.6908472,-0.9696211,-0.23596795,0.3212026,-0.5608534,0.021741536
-0.3392723,-1.1163685,-0.43068835,-0.43815082,-0.0980649,0.755235,-0.35754994,-0.18336454
-0.55562955,-0.011858324,-0.68365294,-0.023382036,0.014595413,0.72455597,-0.35294965,-0.5424936
0.082012564,-0.040973745,0.010584913,-0.07458681,-0.052327942,-0.03295733,0.021173723,-0.0243221
-0.43316862,-0.061783176,-0.06495471,0.49639046,-0.010450495,0.16056994,0.0045666937,-0.6395032
-0.22449712,0.23255232,-0.39098036,0.23083708,0.2378975,1.0281284,-0.43215996,-0.37261197
-0.2267156,-0.4209022,-0.03917231,0.12950632,-0.32098952,0.25952289,-0.1469656,-0.31701952
0.102630615,-0.12084322,-0.34798703,0.28617942,-0.4969024,0.040990405,-0.25940052,-0.80535066
-0.016267734,0.1247463,-0.37788165,0.080091104,-0.8209337,-0.029656941,-0.43109545,0.16623515
0.20939061,0.3704636,-0.2021139,0.2652906,-0.30542144,0.1377608,-0.18009636,-0.34308222
0.026681837,0.0689869,-0.04314867,0.18829094,-0.4057509,0.18352985,0.011006518,0.05753514
-0.07309252,0.01855902,-0.14308786,0.106872804,-0.38672784,0.17103234,0.10314346,0.3115494
0.059284203,-0.013994162,-0.110235885,-0.3229285,-0.2223597,-0.093649924,0.051318657,-0.020444047
-0.29110998,0.31411564,-0.09670873,-0.2500135,-0.0042318124,-0.26139483,-0.09121235,-0.15709397
-0.19750895,0.10069127,-0.20828667,-0.39590323,-0.010811374,-0.15935783,0.034262788,-0.12155187
-0.2198745,-0.3137592,0.01137808,-0.46613848,0.11221328,-0.036473837,0.27006692,-0.08528329
0.080935016,-0.72189814,0.05427621,-0.5305886,0.020292131,-0.0027197383,0.1893046,0.33145052
0.11917128,-0.28378883,-0.13448113,-0.28972074,-0.13829653,0.024402265,0.025550244,0.2453432
0.18264605,-0.49563244,0.072580576,-0.28122777,-0.057918355,-0.012904184,0.0768486,0.04823497
0.20176595,-0.2538524,0.02150698,0.08225077,-0.21068421,0.15251546,0.18274331,-0.15324484
0.05742122,-0.13402323,0.04616052,0.045837685,-0.20118998,0.05591735,-0.009842999,-0.29126516
0.040228833,-0.015106381,0.016558042,-0.066093765,0.061609793,-0.090854175,-0.05197871,-0.36949134
-0.24553567,-0.08777912,-0.003364211,0.017163318,-0.08834889,0.10826873,-0.17493227,-0.13446623
0.06424765,0.08783116,-0.065886445,0.009089413,0.11770154,-0.31857756,-0.24208038,0.06876598
0.09368902,-0.02292254,0.06099763,0.123121396,0.023307815,-0.014454149,0.06691988,0.08338288
0.07689176,0.19351289,0.12333585,0.046141002,0.26643872,0.13803868,-0.3986681,-0.124551
-0.077952124,-0.07525214,0.08585732,0.024748947,-0.00069603766,0.17327432,-0.12585023,0.22984096
-0.25380364,0.14343937,-0.46844938,-0.36609817,0.104760036,-0.10673363,-0.07787677,-0.21195646
-0.45924774,-0.06323374,-0.8095127,-0.3072404,-0.70909894,0.44408447,-0.7379767,-0.19804096
0.017590014,-0.7634497,-1.0073925,0.09477045,-0.044815205,1.593382,-0.9105523,-0.13897488
-0.8014716,-0.2708729,-0.2999147,0.10642022,-0.015502645,1.1622659,-0.7583648,-1.0187693
0.11082636,0.065372586,0.13564482,-0.035663344,-0.17880589,-0.038724978,0.12625982,0.058229834
-0.3421345,-0.074158415,-0.2337763,-0.13679184,-0.28075087,0.13222277,-0.057446353,-0.034666352
0.24732628,0.14658834,0.07503871,-0.11317725,0.29604766,0.03554134,-0.7257806,-0.24896906
-0.031715654,-0.98617,-0.13701457,0.16733192,0.0788435,0.37939653,-0.18924578,-0.22062622
-0.1232761,0.19385372,-0.09081552,0.12288577,-0.13589817,0.050059453,-0.6922572,-0.8438233
-0.1348482,-0.3072906,-0.43224216,0.029765425,-0.76210284,0.12249434,-0.40973917,-0.56588656
-0.066415556,0.046060033,-0.16466032,0.144094,-0.58195084,0.19677188,-0.29386488,-1.0076041
0.1379828,-0.027561815,-0.16813362,0.13839632,-0.4943649,-0.06123127,-0.47916034,-0.41591716
0.10147516,0.16361885,-0.05217651,0.17369364,-0.9778305,-0.11553827,-0.08818726,-0.09904063
0.10360382,-0.022322701,-0.008023515,0.07343227,-0.9290343,-0.14602676,-0.07282967,-0.27508986
-0.31054905,0.21343851,-0.12215641,-0.04780714,-0.85260814,-0.13483343,0.035669055,0.011402958
-0.45182565,-0.12096483,-0.031446118,-0.046924066,-0.78749216,-0.026694205,0.04992248,-0.061606728
0.09152598,-0.27373537,-0.37810698,-0.0998456,-0.48848224,0.17916323,-0.0462587,0.091356255
0.07633754,-0.3600377,0.009925959,-0.06829803,-0.22006287,0.038882315,0.015108114,0.12332142
0.11526322,-0.20082593,-0.104872935,-0.09064303,-0.19750346,0.07238642,-0.07918623,0.16629359
-0.02608385,0.08293812,0.05779667,-0.02534143,-0.17720853,0.014531749,0.027396547,-0.09006039
0.21854231,0.090259425,0.016746012,-0.062682636,0.009490959,-0.01748456,0.04518024,-0.3448678
-0.07883448,-0.06690483,-0.0721626,0.015532412,0.11889808,-0.17106065,-0.18749204,-0.24644108
-0.027143106,-0.030993434,0.014271118,-0.017196888,0.05945172,0.07222028,-0.33647427,-0.12338422
-0.083594896,-0.1421103,-0.048408292,0.024182051,0.19894373,0.10886377,-0.034016572,-0.3212146
0.22008955,-0.0615693,-0.027075041,-0.04253428,0.21179886,0.19407423,-0.060797967,-0.13035533
0.06038992,0.15362753,-0.011471539,0.089570664,0.1122234,0.23622409,-0.30974326,0.014298973
-0.15993534,0.018119436,-0.116826065,0.0863547,0.21160373,0.045553073,0.15347457,-0.22733417
-0.08712156,-0.11285383,-0.40702918,-0.1600541,0.16442145,0.15778968,0.009810206,-0.21123181
-0.1342696,0.035857964,-1.3930837,-0.58539987,-0.054785267,0.51196504,0.104570836,-0.6098547
-1.0131181,0.25400624,-0.28826848,0.41703483,-0.9419081,0.41012618,-1.2617376,-0.041707944
0.9315097,-0.26199487,0.14509693,0.25630048,0.22964397,0.8386676,-0.33779398,0.53673035
0.4344836,-0.14001352,-0.09362801,-0.07643222,-0.1880982,0.64011014,-0.121806584,0.105978295
-0.052805852,0.022008352,-0.06826004,-0.18861279,0.062127948,0.056659408,-0.03694236,0.10302268
0.2676501,0.59297377,-0.42975295,-0.3489579,-0.1100125,0.10459767,-0.74757016,0.236729
0.28860623,-0.37957552,1.0476983,0.44255987,0.5560244,-0.5608848,-1.3221921,-0.56061757
0.044842187,-0.2789049,0.2522611,-0.029209428,0.6195637,0.119150996,-0.18588509,0.1272409
0.31209716,-0.0666838,0.009274905,0.118742056,0.21287398,-0.12405935,-0.1815052,0.19494167
0.15124731,-0.10547361,-0.027822874,0.0068445033,-0.1428018,0.08624876,-0.024017252,-1.6784122
0.04136403,0.12276673,-0.45954946,0.09971515,0.17619681,-0.056634754,-0.15285052,-0.14878792
-0.24502175,-0.021136377,-0.10482511,-0.09894788,-0.2819595,0.09270948,-0.46052545,0.13852754
-0.21422715,0.13602808,-0.11130024,0.27398998,-0.35939187,0.041804634,-0.34827018,-0.06172157
-0.08898239,-0.2642266,-0.27601382,0.16859572,-0.59438205,0.24536456,-0.26133326,-0.0487893
-0.23205428,0.028719695,-0.40340206,0.0052177883,-0.59282714,0.07974057,-0.16173084,-0.19922258
-0.2538674,-0.04520077,-0.22410178,0.06122936,-0.8830752,-0.059048433,-0.3190202,-0.096351646
-0.30335253,0.07690735,-0.24511698,0.12563433,-0.85626966,-0.058430195,-0.3116723,-0.18183024
-0.05051163,-0.33632252,-0.18785957,-0.06813366,-0.3205859,0.055465285,-0.12620066,0.0759431
0.087454446,-0.17815907,-0.014183289,0.03924143,-0.0539763,-0.01699567,-0.17906372,-0.085223936
-0.04327818,0.014436397,-0.2273494,-0.022654293,-0.03779845,0.05896313,-0.13404696,-0.039187692
-0.13239464,-0.07598447,-0.04688995,0.026325675,0.21560141,0.050135326,-0.13936052,-0.059623875
-0.16454788,-0.12879565,-0.034429364,-0.2375855,0.016079687,0.28292495,-0.008455652,-0.21271047
0.08293846,-0.07283464,-0.16324145,0.067467585,0.079504676,0.100741275,-0.101415575,0.00034898252
-0.24768832,0.024376266,-0.054833636,0.08487919,-0.015704203,-0.0345744,-0.07300843,0.011991446
-0.31820667,0.01933974,-0.03953817,0.032098513,0.08344608,0.19425897,0.101471394,-0.060818825
-0.20065829,-0.02209052,0.010476958,0.18770824,-0.07234845,0.05296771,-0.13422783,-0.6184264
-0.73565644,0.0013040742,-0.21480392,-0.06144479,0.0967656,0.09886377,-0.034123037,-0.88615555
-0.990305,-0.21635534,-0.6168792,-0.2465457,0.12757447,0.108890414,0.020442653,-0.5541253
-0.113478005,0.092434436,-0.57548225,0.091133945,-0.072150834,-0.005295242,-0.41247606,-0.38482493
-0.82568055,0.0070545976,0.020876598,-0.27761704,-0.8657823,0.79376316,-0.9338727,0.41383448
-0.029195212,-0.21808784,-0.54604006,-0.3669706,-0.33107442,0.37729385,0.1748456,0.6402677
0.037369203,-0.036226287,-0.052925047,0.04159007,-0.088173784,0.068448566,-0.09555163,0.6572184
0.047809333,0.0035092756,0.045893744,-0.056326102,0.036367,0.036144167,0.028386027,0.011464037
0.29260084,0.52008903,-0.28870812,-0.19371027,0.1906592,0.18246159,-0.86567307,-0.05641581
0.3889389,-0.30317932,-0.15794456,0.5271095,-0.24469097,-0.34916714,-0.5158286,-0.3826124
-0.16155976,-0.5103458,0.5274792,-0.25741753,0.7154687,0.11056243,-0.09918804,-0.4798699
-0.051346857,0.14441755,-0.44881177,-0.08125831,0.53335893,0.43142632,-0.39225578,-0.18329887
0.16243938,0.01969647,-0.54988897,-0.21184523,0.110814914,0.27899596,-0.12667589,-0.72332567
-0.101662226,0.3560217,-0.1668985,0.080363594,0.17518038,0.21281987,-0.26299396,-0.38033932
-0.13137875,0.029350264,-0.21619251,0.006585044,0.014669678,0.3334694,0.12351049,-0.21223642
-0.6588296,0.13950914,-0.6030993,0.19748099,0.07517213,-0.017839538,-0.0808578,0.10283133
-0.3564593,0.005826205,-0.44416192,0.09502261,0.099270135,0.18772228,-0.19921342,0.057154644
-0.34069043,0.14226565,-0.2787487,0.09347351,0.05786053,0.027519492,-0.19567744,-0.048433315
-0.15519884,0.20575291,-0.26145408,0.16073088,0.28725627,-0.044257943,-0.41734123,0.14434025
-0.087141104,-0.05854447,-0.30966157,-0.06835541,0.15286967,-0.010980208,-0.3162037,-0.10940877
-0.37490684,-0.042287417,-0.11081644,0.09175653,-0.124086864,0.0027790254,-0.3866803,-0.18833223
-0.09540508,-0.28200713,-0.0404123,0.09463446,-0.1192051,-0.21000792,-0.2996384,0.047647353
-0.058775555,-0.2229158,-0.1929844,-0.0376432,0.06692645,-0.075863004,-0.026680158,-0.1688017
-0.07007745,-0.13865197,-0.19574074,-0.11281309,0.027457237,-0.08297841,-0.03856922,0.34278652
0.03443026,-0.023471469,-0.12562235,-0.01374084,0.10549513,-0.090515636,0.002250596,0.10993449
-0.22665699,0.029236287,-0.38518536,-0.09637857,0.13011836,0.15355858,0.2162342,0.12069587
-0.31759658,-0.050587498,0.07605337,0.017571287,0.016821591,0.1938428,0.039064948,0.024313623
-0.36912563,-0.33608982,-0.3198316,-0.05542954,0.1504889,0.046207678,0.10579969,0.15054421
0.06520947,-0.073296264,-0.32812876,-0.24260111,0.13744506,0.09217246,-0.04975243,-0.093752325
-0.2903262,-0.1239047,-0.14937271,0.21824236,0.21551076,0.08749961,-0.19942078,-0.6116442
-0.041606065,-0.32251862,-0.55099076,-0.6762691,0.08584793,-0.051381074,-0.046538677,-0.7584376
0.091528654,-0.32485244,0.31476086,0.23922446,-0.07120084,0.16261306,-0.516816,-0.65724564
-0.7050211,0.022874245,-0.2513078,-0.35230502,-0.759928,0.30754384,-0.21943572,-0.036551483
0.09770476,-0.022873295,-0.30542755,-0.096432745,-0.18406077,0.22598793,-0.093420684,0.5878398
0.00075653795,0.0022663102,0.005684279,0.16753626,-0.2545762,-0.0075961724,0.32587498,-0.037859667
0.04934285,-0.06751935,-0.2587068,-0.24024415,-0.06228181,0.24317491,-0.12888508,0.53441405
0.0710795,-0.007152342,0.1651872,0.687263,0.34047782,0.65377194,0.09633188,0.35129908
0.21655984,0.17153877,-0.49790108,0.12081938,0.21666202,0.4142714,0.43914527,-0.16029936
-0.018834136,0.0678523,-0.7881147,-0.13559148,0.8139514,0.090502895,-0.13467456,0.10921563
0.22829866,-0.032872405,-1.0741746,-0.13355759,0.53282595,0.26939446,0.06924135,0.34201255
0.24074385,0.24052323,-0.66447574,0.052155197,0.3321403,-0.12516697,0.04702825,0.124744065
-0.5159415,0.09537564,-0.11970444,0.14002171,0.07203482,0.23602895,0.12630378,0.20311055
-0.52420086,-0.15004052,-0.29041567,-0.0521032,0.27509856,0.08989986,0.21857065,-0.15630277
-0.026010321,-0.26833373,-0.041845944,-0.051056657,0.2912447,0.21973729,0.03766714,-0.09488638
-0.22146511,-0.045889135,-0.13429499,-0.05698447,0.2170633,-0.011423197,0.069422685,0.02664151
-0.10983945,0.10565292,-0.098004565,-0.005315214,0.13654968,0.032022655,-0.010842528,0.2503281
-0.071410306,0.25857735,-0.19645518,0.036017764,-0.0025173856,-0.13345046,-0.074960984,0.06373098
-0.28756994,0.22522679,-0.03570089,-0.054190792,-0.06269242,-0.09259554,-0.26731297,0.07349021
-0.21234159,0.00920744,-0.27096325,-0.032837033,0.06653213,-0.009687014,-0.21784306,-0.04522872
-0.18497153,-0.10790061,-0.18454218,0.031628415,0.03294435,-0.073948786,-0.10685152,0.073694944
-0.15987064,0.016092349,-0.14187007,-0.05417563,0.11339263,-0.0759043,-0.073934466,0.07879524
-0.112084635,0.11497194,-0.09871652,-0.08118041,-0.06674021,-0.051476754,-0.02008103,0.1392397
-0.110872105,-0.31599143,-0.20624688,-0.123532794,-0.06204067,-0.01215283,-0.17625299,-0.2139076
-0.12556668,-0.22593059,-0.0582073,-0.0666577,0.0349126,0.08002775,-0.23945038,0.03910356
0.020015933,-0.066995196,-0.1401769,-0.09938487,-0.018037746,0.011578855,-0.23070256,-0.13977642
-0.1356406,-0.08879991,0.089525804,-0.054693244,0.12693208,0.0957856,0.033199985,-0.22197881
-0.012485053,-0.087628715,0.114266306,-0.124742,-0.004227427,-0.16358945,0.13556066,-0.19827227
0.142027,0.02434855,-0.43622577,0.048600882,0.04258329,0.22980927,0.1060963,-0.8997367
-0.055547677,-0.77385193,-0.5591945,-1.0973356,0.32531443,-0.2821593,-0.074995905,-0.9339024
0.1680836,0.22033018,-0.2089541,-0.5377192,-0.5161649,-0.10341865,-0.28044534,-0.12041672
-0.39268592,0.24979088,-0.16563411,-0.27342466,-1.3143927,1.0741056,-0.29654515,0.2059926
-0.2645113,-0.3125918,-0.91601247,-0.04375422,-0.020683844,0.22081275,-1.0510288,0.2404898
0.071554765,0.06312906,0.040384248,-0.061647475,-0.05877682,-0.052534033,-0.058892753,-0.022966295
-0.005094145,0.053556114,-0.2879499,-0.18219797,-0.08590387,0.3299262,-0.029540505,0.4424276
0.059442222,-0.0059442148,-0.004174368,0.3005467,0.15316002,0.41715556,0.3898127,0.31555012
0.2338419,0.08815358,-0.60634756,0.40981114,-0.27030376,-0.046406515,-0.10115431,-0.010076163
0.24234284,-0.07078839,-0.3211397,-0.024426032,-0.31093016,0.40256548,-0.23132181,0.2279267
-0.33250698,-0.66880983,-0.33233604,-0.2841212,0.19424067,0.1379784,0.49450162,0.088665135
-0.23766205,-0.11673023,-0.48255965,-0.44233203,-0.0052284757,0.43486944,-0.048095554,0.7018632
-0.43756038,-0.22073661,0.018269217,0.12012082,0.15335615,0.42132396,0.22126728,0.043651067
-0.26848966,-0.056845497,-0.07411824,-0.10880533,-0.045156755,0.14493436,0.114706784,0.075601876
-0.0061839577,-0.061437596,0.0374327,-0.101520605,0.05021488,-0.05210304,-0.14771119,0.08637092
0.05230334,0.06830734,0.04060227,0.10223845,0.1458017,0.0813032,-0.19246735,-0.061372075
-0.22198813,0.029722413,0.09809124,0.05615867,0.1637455,-0.045544945,-0.009440865,-0.2088188
-0.097394705,0.10087771,-0.09713795,0.0048370543,0.3737646,0.063757375,0.059242513,-0.2340962
-0.19885345,-0.21166587,-0.073800914,-0.07868505,0.17654818,-0.039197493,-0.027772043,-0.24594654
-0.17160161,0.35199535,-0.11840771,0.00880973,-0.022097507,-0.119831204,0.08061702,-0.21056631
-0.2696896,-0.06879572,-0.07151671,0.00539158,0.11578584,0.0581765,-0.07772152,0.107408956
-0.07100103,-0.1442468,-0.060161076,-0.029114569,-0.00884836,-0.08643689,-0.17958193,-0.16927303
-0.16870989,0.07658811,-0.13860291,0.19360323,-0.02083203,-0.009201311,-0.046099737,0.029784415
0.046826314,0.027528593,-0.04129028,0.028940573,0.0050748754,-0.054275673,0.09345031,0.25153238
0.13211864,-0.15691052,-0.19550654,-0.28198037,0.10826004,0.046994254,0.04376289,0.24579594
0.27454102,0.14582452,-0.43562764,0.05818802,-0.0060133943,0.14292933,0.054864615,0.36136478
0.14442216,0.0091396915,0.01920598,0.08825945,-0.017872741,0.13384475,-0.092463195,0.32713363
0.14833473,0.22611529,-0.41647694,0.27277574,-0.1104166,-0.16196421,-0.024784192,-0.5177293
0.025025995,-0.29479966,-0.17791538,-0.18423156,-0.02048639,-0.08145341,0.056895062,-0.9056574
-0.30783704,-0.07413479,0.0051875766,-0.96386546,0.17900401,0.51758915,-0.6720285,-0.9074038
0.19744247,0.24110542,0.07648347,-0.061394133,-0.45786083,0.20772693,-0.10100073,-0.13798249
-0.077846326,0.22814278,-0.3880723,0.025043922,-0.7524998,0.6534832,0.8223911,0.3307234
0.13600847,0.13669877,-0.8563883,0.11125996,0.62981665,-0.4193259,0.029465336,-0.23315804
-0.06469274,-0.011014461,0.044652537,-0.08524784,-0.053470377,-0.054853015,-0.01105386,0.027688771
0.033254184,0.04379393,0.078088224,0.045039415,-0.032181446,0.014874697,0.07076618,-0.057949923
0.05540496,0.009152897,0.0045773014,-0.045534093,-0.03369217,-0.063863754,-0.04022982,-0.038471527
0.30553102,-0.091801584,-1.0390531,0.31557053,0.92891335,0.103286594,-0.9971378,0.023124093
0.3853436,-0.98894453,-0.7723185,0.44332403,0.08145323,0.228011,-0.008509586,-0.32409105
-0.46196163,-0.87277365,0.33680397,-0.032830503,-0.15156129,0.1324827,0.039095707,-0.6932399
-0.35461202,-0.43697333,-0.060604323,-0.06865692,-0.01801959,0.3585186,-0.2890469,0.014132622
0.026033245,0.064927414,-0.52174515,-0.16802685,0.24391314,0.34055093,0.1953469,0.296939
-0.017515099,-0.018660098,0.060959958,-0.029041063,0.15095596,0.17112184,-0.16511585,-0.070989646
-0.02466166,0.11888656,-0.24413645,-0.19423746,0.22824793,-0.11900894,0.0873726,0.04181488
0.010932076,0.13881879,-0.33537105,0.026569175,-0.023724893,0.17690319,0.17829287,-0.16816355
-0.05993587,0.048373997,0.04690223,-0.14883412,0.07708152,0.0218245,-0.02661133,-0.15744495
-0.026651978,0.15649483,-0.23698194,0.07433801,0.03531356,0.02173449,0.031354275,-0.042230416
-0.046844993,0.36685088,-0.09891776,0.03341609,0.124801606,-0.05279435,0.06586697,0.09645223
-0.085478716,-0.010704467,-0.11777057,-0.057314828,0.06813316,0.104581475,0.043523,-0.12396083
0.03838031,0.054352682,-0.2106531,-0.05975291,0.0016291485,-0.17158356,-0.013733167,-0.34672332
-0.12500063,-0.20464437,-0.2020776,0.2161126,0.05978477,0.037377466,-0.00061059813,-0.07000035
-0.08721892,0.074444406,-0.3213188,-0.08469867,0.06429913,-0.13703898,0.16085741,-0.12447331
-0.18333681,0.16213444,-0.29421344,-0.13542734,0.09708364,-0.29930553,-0.0042752125,0.106116995
-0.0688788,-0.3076018,-0.14371374,-0.082910545,-0.023568137,0.24262337,0.074295625,-0.27924624
-0.09281821,-0.09071561,-0.2466054,-0.024600327,-0.18130158,0.1525131,0.087342925,-0.012265875
-0.089958034,-0.3533271,-0.624647,0.010014853,0.024060065,-0.056987382,-0.07714939,-0.4147789
0.11488847,-0.07353209,-0.25243083,-0.26104972,-0.12217115,0.1760088,-0.14579313,-0.41813588
-0.5103769,-0.20002638,0.032031324,-0.7181186,-0.0024516515,0.44303924,-0.23973668,-0.3164266
-0.16187969,-0.15463072,-0.29590043,-0.73904556,0.0066350885,-0.2585255,0.86528355,-0.21720484
0.023642888,0.17078646,0.05960944,0.15890862,-0.6878771,0.80302495,-0.017645486,0.3541459
0.5421335,0.28974524,-0.50114167,-0.016795337,-0.24553163,0.58328134,0.4857599,0.33393484
0.3553737,0.005409363,-0.46850038,0.10269796,0.74206233,1.2288003,-0.6346703,0.8321256
-0.013748437,-0.054340065,-0.024594303,0.022135876,-0.059889436,0.068831295,0.03779903,-0.06636672
0.0644148,-0.06518923,-0.05192619,0.02001796,-0.00348109,0.080477834,-0.031058326,0.056531116
0.017238833,-0.063996375,-0.027706847,-0.03039286,0.06786063,-0.07219238,0.010203138,-0.00022196025
0.12803964,-0.28701484,-0.003969641,-0.08654359,-0.6589055,-0.44436154,-0.8336224,0.034517694
0.114900276,-0.2943424,0.39954138,0.24660553,0.12518275,0.18064524,0.17236823,-0.5266199
-0.40817022,-0.261777,0.5479536,-0.74225235,0.5014919,-0.54807884,-0.4186888,-0.81142354
0.541229,0.13165948,0.392622,-0.0064578536,0.29196987,0.18485959,-0.3729921,-0.17229088
0.16639805,0.037419785,0.30725873,-0.2225184,0.5241682,0.11361502,-0.07114998,0.18207961
-0.021929007,-0.23047963,0.16632739,0.035346862,0.22485453,-0.044925973,-0.241227,-0.14475916
-0.14441587,-0.24720068,0.22380081,-0.3532932,-0.05728622,0.03588977,0.053559817,-0.25237527
0.093626425,0.11516891,-1.3959056e-05,-0.32653734,0.46536598,0.009401915,-0.07556582,-0.06957
0.073155396,-0.08811428,-0.0045592515,-0.38981992,0.3000753,3.858177e-05,0.21558441,-0.123951845
-0.018455086,-0.1177922,-0.19754475,-0.1242942,0.21676005,0.10707151,0.0248478,-0.21980365
-0.08230723,-0.079839386,-0.22054693,-0.21551266,0.0749796,0.07365527,-0.049974136,-0.12978373
-0.07981366,0.3487166,-0.27433768,-0.17685077,0.029154655,0.2239656,0.14571466,-0.25574434
-0.14779262,-0.06536678,-0.2315482,-0.13268386,0.17974183,0.20420083,0.03295937,0.025578313
-0.21607347,-0.14558358,-0.087760344,0.017029328,0.03871148,0.11546123,-0.0862795,-0.05331808
-0.11447819,0.121846944,-0.1288255,-0.25708115,-0.014682053,0.10293114,-0.03379491,-0.33637518
-0.025807396,0.22954237,-0.031342786,0.15909775,-0.06376656,-0.107498296,-0.23821512,0.30238906
-0.3159122,-0.049890272,-0.19105898,0.07043406,0.07152011,-0.5070152,0.07902632,-0.03217797
-0.22395411,0.015490777,0.0635691,-0.44432104,0.039270107,-0.5077385,0.1834462,0.07870386
-0.22072072,-0.83751965,0.29289052,-0.17373088,-0.029256666,-0.2167364,0.09094997,-0.15371448
-0.07957059,0.061132725,0.2601305,-0.2290212,0.03011778,-0.33427313,0.0900478,-0.0074007004
-0.2315989,-0.3728828,-0.38071355,-0.07058865,0.1628677,0.28675926,-0.5338112,-0.062184334
-0.40637657,-0.6772064,-0.16647182,0.12286285,-0.15291564,-0.46348456,0.41229445,0.7295448
-0.47493637,-0.5704514,-0.3258109,-0.39201862,-0.23701951,0.23380674,-0.29253986,-0.040592104
0.5695913,-0.13312167,-0.62265724,-0.26479056,-0.15451892,0.1634731,-0.18460569,0.54052776
-0.06546637,0.03968312,0.37268582,-0.36743143,-0.3289053,-0.36712766,-0.53013694,0.4679365
0.0489735,-0.07865679,0.015057683,-0.0186079,0.08333847,-0.05448136,-0.025023468,-0.060169294
0.032031536,-0.036307503,0.021883719,0.06748095,0.04080619,-0.050391313,0.045088828,0.0049737617
-0.041111328,-0.008858182,0.056805626,-0.06712791,0.01805979,0.051020727,0.035623074,-0.0045693517
0.00771995,-0.053278208,0.40368128,-0.072341524,-0.035911374,-0.272078,0.26886567,-0.0155280605
0.032806505,-0.0009880413,0.8083942,-0.14270978,-0.93463844,-0.6482502,0.73731774,-0.0279304
-0.62376165,-0.09207992,0.41973555,-0.09637433,-0.421145,-0.064553134,-0.4197447,-0.22241655
-0.69269973,-0.29586294,0.7303064,-0.44310552,0.086867124,-0.1501712,-0.4321244,-0.13277316
-0.21370982,-0.2940748,-0.045832645,-1.1841778,0.27655116,-0.019348994,0.028219804,-0.42832834
-0.082661904,-0.016983153,0.13534336,-0.5745864,0.36009088,-0.30183914,-0.294631,-0.7836362
-0.22689696,-0.36209363,0.099015936,-0.3001284,0.10516441,0.12737581,-0.29566061,-0.30051687
-0.33126238,-0.39046186,0.19234253,0.16184433,-0.02161381,-0.073612906,-0.37346706,-0.10624604
-0.2148384,-0.515143,0.054393083,-0.22307071,0.23937477,-0.11835234,-0.16588388,-0.68866813
-0.12566438,0.03481279,0.25229704,-0.29062846,0.027047055,0.11176185,-0.19453074,-0.8256984
-0.054341603,-0.54131323,0.22532558,-0.15124403,0.21960029,0.052944385,-0.15009159,-0.40331677
-0.105739176,-0.123187594,0.2986505,-0.840159,0.0047311247,-0.053502966,-0.22643833,-0.5091521
-0.1330949,-0.35557652,0.1707464,-1.4421892,0.04356163,0.08066929,-0.03697879,-0.3580582
-0.06936103,-0.19715467,-0.09417037,-0.54063725,0.039892316,0.08091443,-0.12493987,-0.760308
-0.39946043,-0.43106043,0.12763242,-0.87433803,-0.10300126,0.067106776,-0.15516943,-1.1144828
-0.051165793,-0.83164346,-0.044183865,-0.9947277,0.26822966,-0.10045412,-0.04631682,-0.77856183
0.10517253,-0.6363155,0.15970236,-0.67819333,0.13585441,0.08483856,-0.18349908,-0.6701501
-0.24669363,-0.5067872,0.013889205,-0.34754857,0.17543267,0.032285944,0.063613884,-0.81368846
-0.49449235,-0.59238523,0.1907832,-0.24726072,-0.22080658,-0.31627378,0.21421634,-0.24938032
-0.57951087,-0.46111402,0.2922391,0.16697629,0.19102612,-1.2524447,0.37222406,0.076703794
-0.26971856,-0.4546068,0.37649304,-0.26750246,0.54675937,-0.66169125,0.3159499,0.5796888
-0.15447114,-0.53635836,0.66511726,0.44572434,-0.14661543,-0.61094517,0.10710007,1.158116
-0.28634262,-0.06273971,0.21380861,-0.061637975,-0.6595842,-0.24598502,-0.1766563,0.7000557
-0.13106222,0.03223771,0.55882645,-0.017611489,0.089125104,-0.62848073,0.22790258,-0.04054844
0.0015784726,0.019141905,0.31553236,-0.06858316,0.06882191,-0.5014666,-0.42219242,-0.051674075
-0.04065554,-0.053942733,0.07674734,0.024286367,0.035340227,-0.032946937,-0.037510745,-0.034915645
0.06297381,0.025468677,0.0077447295,0.047192454,-0.007918239,-0.02652977,0.061884254,-0.08619729
-0.04910973,-0.02112975,0.033274375,-0.075479835,0.080246046,0.020643204,-0.0043305606,0.07076824
-0.03467694,-0.07825865,0.081884906,0.0624097,-0.07618016,-0.0020157173,0.05615878,-0.00031860173
-0.007563837,-0.06609456,-0.077457145,0.03457295,0.23527086,-0.2705008,0.5945457,-0.078376696
-0.28477597,0.12697458,-0.8320013,0.0432619,0.8986226,-1.0082341,0.30033705,-0.15603387
-0.5024685,-0.42814538,-0.013833487,-0.18962935,0.44338965,-0.98905957,-0.13306941,-0.6127431
-0.4124185,-0.33515164,0.3374883,-0.55457497,0.13093546,-1.0953158,-0.03839882,-0.67920804
-0.80453926,-0.29137507,0.49365622,-0.3584522,-0.2899696,-0.63036275,0.40216202,-0.65162253
-0.50465757,0.012237584,0.39663115,-0.3392924,-0.52493364,-0.028992519,0.2010135,-0.5921585
-0.46599478,-0.046977937,0.2539791,-0.69930464,-0.16429044,-0.4276025,0.13180655,-0.9526512
-0.56518465,-0.38868144,0.1294362,-0.3434498,0.050779965,-0.14865491,0.013615708,-0.7742255
-0.31001633,-0.24481001,0.07460135,-0.6129298,0.012201458,-0.5034621,-0.18983455,-0.6415121
-0.29729417,-0.4977991,-0.0017893299,-0.81200737,-0.05529812,-0.45078537,-0.26597852,-0.8398037
-0.72723335,-0.72994024,0.030863719,-0.98277044,0.24539492,-0.46849653,-0.15199447,-1.2419765
-0.64328223,-0.2170167,0.13171305,0.06287486,-0.18106246,-0.4361205,-0.11259087,-1.3211273
-0.16503932,-0.51126254,0.16874276,0.066920646,-0.11144602,-0.52966964,-0.22620325,-0.79359967
-0.6012538,-0.52122927,0.30660504,0.015880149,-0.00020381226,-0.45176187,-0.26098657,-1.1217229
-0.45473444,0.029274248,-0.011012577,-0.3736968,-0.2661325,-0.5929177,0.05761262,-0.72664803
-0.6472115,0.35714322,0.5094945,-0.21506274,-0.61500615,-0.51402897,0.046111904,-0.7792632
-0.35223994,0.54789144,0.1938201,-0.12774797,-0.038835373,-0.32143593,-0.069425285,-0.8172646
-0.59129995,-0.2771561,0.064471915,-0.048142992,0.37477008,0.086151615,-0.2190948,-0.41323823
-0.9279809,-0.47091386,-0.07736396,0.31647432,0.27081022,-0.43389308,-0.0216383,-0.10568802
-0.68783057,-0.07446989,0.17774534,0.19003132,-0.30722022,0.39961478,0.08503863,-0.12433326
-0.6006973,-0.1746099,-0.37158245,-0.2782611,0.03330811,0.25993323,0.42680657,-0.36345434
-0.027209088,-0.08038147,-0.25890702,0.07375462,0.055324882,0.0320227,0.23351365,-0.007758602
0.11352478,0.035042573,-0.25647882,-0.062235788,0.032118857,0.19395697,0.15185632,-0.04296595
0.08685599,0.06986219,0.05677183,-0.06295344,0.07001668,0.034937605,0.033999667,-0.001544714
0.028584376,0.035903446,0.03636457,0.027425535,0.00082641095,0.0066425726,-0.016705744,-0.07692156
0.019591533,0.010001227,-0.025725726,0.028826833,-0.0500813,-0.00101123,-0.04937894,0.03180968
0.056990236,-0.070121504,-0.08150212,-0.018916517,-0.043220963,-0.03624886,0.05050181,0.057173014
0.07834217,-0.030526813,-0.05315427,-0.07561979,-0.07944596,0.06744979,0.06981863,9.5292926e-05
0.05278389,-0.03239193,-0.0255025,0.0496805,0.044842795,-0.027870826,0.07236761,-0.058600735
-0.013478604,0.09947849,0.22168143,-0.04302114,0.077178866,0.15658806,-0.5280879,0.012058526
-0.50506663,0.1185804,-0.5288036,-0.028653031,0.08569821,0.17927237,-0.5181952,-0.0065316483
-0.8562841,0.1935031,-0.26023856,-0.08694478,0.04660572,0.0581001,-0.32332927,0.0032234476
-0.6102481,0.26854572,0.04641338,-0.15749675,0.09129378,0.3243503,0.066751964,0.04506967
-0.58237696,0.527449,-0.00407362,-0.23397607,-0.09201541,0.3102419,-0.16084357,-0.07585163
-0.97561496,-0.7609349,-0.3433368,-0.3276238,-0.14941086,0.48566544,-0.10170595,-0.09345967
-0.3428734,-1.0012097,-0.014736573,0.019375788,0.0008968637,-0.08854228,0.13053907,0.00051378954
-0.6316657,-0.86232036,0.110520236,-0.37162203,0.17320904,-0.043807663,0.034680948,-0.06364196
-0.72343266,-0.36018237,-0.25538254,-0.08498423,0.1398318,0.11032757,0.23944376,-0.08714606
-0.030469507,-0.4642448,0.02683023,0.02213774,-0.10550841,0.5061891,-0.35829866,-0.41440105
-1.0253123,-0.8865783,0.160324,-0.21325581,0.51377714,0.6723557,0.16620392,-0.38560858
-1.1131676,-0.47630304,0.04238374,-0.46518075,-0.36115956,0.85652393,0.4252714,0.051678866
-0.118652865,-0.51226676,-0.045868598,-0.2067196,-0.35264763,0.57142735,0.23836954,-0.06661245
-0.038420193,-0.40307903,-0.15300383,-0.25321734,0.100535214,0.5582204,-0.1544951,-0.42286432
-0.67837006,-0.42266706,-0.3453013,-0.0869413,0.49849895,0.0264812,0.14214772,-0.51091033
-0.037203606,0.3048264,0.23103908,-0.3011924,0.0061157304,0.44935334,-0.16841727,-0.33322585
0.2944416,0.18661118,-0.40455997,0.01934586,-0.7725744,-0.08231489,0.09680376,-0.08250428
-0.4493946,-0.09825583,-0.09221722,0.24757758,-0.6385225,-0.2592717,-0.27599233,-0.03181105
-0.044917468,-0.5602438,0.048408672,0.81161076,-0.53980243,-0.27904847,-0.9721737,-0.044650733
0.034401476,-0.47728384,0.14142652,-0.023882397,-0.0011998639,0.046112463,0.29117522,-0.07518203
0.0741577,-0.039922547,-0.05633847,0.012933277,0.013058446,-0.0527863,-0.058539726,-0.02273763
-0.06108826,0.03295754,-0.031841617,0.05023536,0.06581533,0.041125685,-0.009795435,-0.08543408
-0.04096279,0.058316186,0.03821473,-0.06326652,-0.010567933,0.05388604,0.06031263,0.047974154
0.02598425,0.031395704,-0.055953525,0.026970394,0.064352304,-0.059593663,0.055570975,-0.0042406693
8,1
0.5665695
-0.4762596
0.899765
0.22797164
0.32155085
0.106111504
-0.075001806
0.3197646
8,8
0.17568341,-0.33186364,1.08846,-0.31981254,0.118977025,0.16022481,-1.0499768,0.3243842
-0.36004782,0.092578396,-0.19877931,0.27148327,-0.38473117,1.0021776,-0.7621655,0.76696193
-0.028385866,0.25114498,-0.589053,-0.4547058,0.07003386,0.35666707,-0.44864514,0.33984768
-0.94418824,0.32659888,0.2603034,0.3881921,-0.037293248,-0.5639791,0.20529705,-0.12130452
-0.558659,0.6983848,-0.23557132,0.5746782,-0.13967542,-0.59819686,0.05390655,0.004815524
0.1688085,0.5926752,0.4295263,0.037567604,0.13092291,-0.023786677,0.32252192,0.769857
-0.35875383,-0.43187776,0.12549122,-0.23443347,0.059477713,-0.080429286,0.10286344,-0.46055728
-0.15072477,0.73410076,0.6306338,-1.0381471,-1.0768864,0.5552015,-0.08726399,-1.283193
8,1
0.82462114
-0.009901993
0.4805848
0.8215964
0.9692672
0.116031274
0.6135746
-0.29816326
8,8
0.074614845,0.07139881,0.1285481,-0.33655933,0.58669066,-0.59455466,-0.070729814,-1.1120368
0.100018345,0.84634835,-0.3755431,0.0865124,0.16595931,-0.60731995,-0.368061,0.38254282
-0.22938235,0.45804322,0.36618808,-0.9489398,0.2828483,-0.28462029,0.42236295,0.013729572
-0.76707864,0.5987948,-0.07359567,0.54749835,-1.2238941,-0.014303148,0.6956083,-0.17832088
0.813088,0.07770705,0.18376563,0.30325764,0.08651442,-0.023325358,0.2844802,0.6692691
0.28061023,-0.2892667,-1.0621434,-0.116486944,0.42845556,-0.19923994,-0.08983583,0.15648137
0.94654155,0.28349447,0.6796261,-0.37714043,0.011287034,-0.4385142,-0.7427156,-0.28281757
-0.005751801,-0.6150223,-0.6086093,-1.4160093,-0.53960925,-0.13761145,-0.6225662,-0.2200464
8,1
-0.34448573
-0.3998716
1.3055058
0.577047
0.8001018
-0.01992825
0.1877484
0.46396795
8,10
-0.41106504,-0.66014546,0.0524159,0.0089185545,-0.50889236,-1.2780067,-0.06338971,0.43528354,0.12995684,-0.061312273
-0.46959537,0.00011745196,0.10497945,0.048511907,-1.1706288,-0.04060427,-1.3895419,-0.47245613,-0.8535458,-1.2774948
-0.10432726,0.2658111,0.26255816,0.16140643,0.27147326,0.32621464,0.78083676,-0.23867463,0.8456177,0.0056558717
-0.45115608,-0.27586147,-1.2784288,-0.16215293,-0.67766255,0.3091621,0.42831442,-0.65825593,-1.0755605,1.1413702
-0.50902677,0.53878886,-0.29234236,-0.65954685,0.48747414,-0.74200034,-0.49365076,0.36660326,-0.818465,0.035258237
0.52779794,-0.119128555,-0.4052723,0.32191014,0.105870545,0.43430138,-0.13233012,-0.4621424,-0.16638803,0.013137271
-0.09707135,-1.8352337,-0.6606186,-0.80026084,0.53734756,0.22198671,-0.04717719,-1.0011948,-0.37433863,-0.08292249
-0.09413413,0.051543202,-1.4985462,0.73845744,0.13418017,0.058563296,-2.1081822,-0.11624303,0.26089963,0.09840466
10,1
1.062366
-0.1498262
0.463608
-0.29264435
-0.4091292
-0.043959662
0.47242796
0.052446283
-0.2263707
-0.042414565
